-1.6800705926784416 -0.41295967227564956 0.3864167796176104 0.02699978318391295 -1.1522434610071213 -1.6043141432715373 1.063445686769484 -0.9902998857891253 1.0450650753079884 -1.8031522539643732 0.965798809594143 1.9074784992252332 1.7590239251866109 1.9241251773099994 -2.2210526633095427 0.14369181533896566 -1.8970807159570062 0.617643680760334 0.3348791259138845 1.4809200162413183 0.42399628900814523 1.5845800128147536 0.5027366922422357 -0.408619935390761 -1.2999661181556195 -1.9188466560946058 -0.32024425148053165 -1.281368573566078 0.09400271165473559 0.9550261216850574 -0.27772513736574467 -0.9576410323158454 -1.0870194612465047 1.4719785596148456 0.5939146992364327 1.5240545855879681 0.9899306302032614 -0.33523936319464825 0.44482481262360274 0.7686849324108842 1.6330391317606539 1.5656794425759615 1.6431653596322553 0.2901398668089731 -1.7265145243856914 1.1810850186903232 -1.2117355939629466 -1.026803253252843 1.6475681046165604 -0.0773851049193082 1.845090525717789 0.7041828516283473 -1.5255030258542646 1.925929811354265 -2.0422031643641523 -1.0429012953108772 0.8911574337141099 -0.5629223043189809 -0.883451660986667 1.1700349512450954 -0.3250382094405132 -0.38418570202557445 -0.9652121138417344 0.5939725637880486 -0.7092301993168567 1.5863829669709906 1.3720916658462334 -0.16901390041257336 1.4893029365710035 -0.45235299933618334 1.5247131829547675 0.7703130791319822 1.385883629203527 -0.13449995236115353 0.752666735735808 -1.9977628980880142 1.1722567503803032 -1.9375112428292112 0.053700150078000296 -2.0067150195756756 -0.6423774199177578 -1.807154058323415 -0.5629384208198551 -0.9679095634079269 -1.4755168797321823 -0.4291160008552643 0.5699605000913227 -1.5091694425406879 1.074871788369697 -2.05489529281936 -0.8238039359611907 1.4354263149391253 -1.0616830669460733 1.1301322041667785 -1.9258825152174581 0.09679126272476692 -1.1370318936496784 -1.6114389559970705 0.2609463117893339 0.34907868640761947 0.36147185169331747 0.6169990568658554 0.6444157738647287 1.7451588616556095 1.5240158929196947 -0.3115240363703741 -0.126901260768062 1.3096406027155225 -1.373586623014551 -0.28900396251094995 -1.021947477232076 -1.212377870301692 0.8939518637501548 1.7736029676534493 1.4783546100508065 -0.9025039697748857 0.15973188440640335 0.7870853462997967 -0.6875637446553522 -0.3195312610727683 0.04197390388857054 -1.7933496859894629 -1.580267689117574 1.7926287385870865 -1.274856457372324 -0.6551906322655253 0.7080438703548764 -1.9302719217790267 1.0367657870424216 -1.8890061717788897 1.4463363974411207 0.8734032686707569 -0.21875265559134466 0.09938968819153828 -0.7673400369782888 -0.11279999865968604 -1.1449864303091715 -1.5329578224532383 0.3915831447980382 1.19086669760186 0.7030777207662879 0.5298225032575735 0.37378710285679173 1.166999396739262 -1.9785050385701868 -2.1301716082436637 -0.8863862527782422 -0.05287892739433262 -1.0271175640961943 -0.77347647522212 -1.273061046447289 1.9961880612853697 -1.5351761785849258 -1.2441949039680718 0.3774956928041687 1.631986706005918 -1.6067645772495305 0.12207549738519807 0.9198756557869374 -1.5332755403865366 -1.7746427872741826 1.220377099336641 1.713976359467971 1.0784888992732247 1.922787547162645 -0.1619341985915944 -0.5318340039060117 -0.861720382978099 -0.1537570295765491 -0.37105413235678986 -1.9077752190967983 -2.3159045282115667 0.7326136052228193 1.2876224355444101 -0.7857780518701352 0.45314009653801346 -0.2998759769636485 -1.627723786626876 -1.7204107303919514 1.147573633309662 -0.036543251425946104 1.1649889904187962 -0.046156714063874636 -0.664791691677262 -0.2435357651105085 -1.6888364143022472 -2.0747696352851475 -1.1489547665269222 -1.6307905991324443 -0.13056322783045718 1.4488953945836889 -1.8097815302617342 1.0153374189233442 -1.8021073205184976 1.0951545653753574 0.7991503863052675 1.685746755117477 -0.4356199786194201 1.8512905794831107 -1.8629856875842403 1.0935386195674826 -0.4857802057337985 -0.618777062388765 0.7952828628876901 -0.516343091973981 -1.5981364771651778 -0.5165973769416046 -1.7900218242311248 0.9554399188532369 -0.4271200238493468 -0.8375988887418429 1.076787325764136 -1.5787589738067591 1.4930555175247084 -0.9026392049691438 -0.6586841190802893 1.8421305976173448 -1.4917055671979689 1.6134111257566381 -1.3380995113533798 0.9808043461049556 0.3935978532119699 1.6757665207142114 -1.0322378817663123 1.1701556810975378 0.12456872402854667 -1.0320878154790636 -1.2245315234586058 -1.9058510974755756 1.4726254474922595 0.8144734694174899 -2.138986195697559 -2.123589490320848 -0.5095762112450642 1.8373013201418418 0.04375148961062579 1.2807842766454163 0.42498681200546995 0.2340990862779264 -1.9622150682495412 0.43025819686645944 0.3259958635938711 0.7611156207641203 0.4969892426331602 -0.5839434092122266 -0.4094017456175768 0.8348529024222447 1.0737800605274925 -0.7254629268583743 0.8460263012975443 0.3403739434138464 -1.7974305624822446 -1.812903660236416 0.24124282596987698 0.22101719376922024 1.4197762927847661 0.34536369871760797 0.024396595607283907 -0.3173839002010023 -0.8717532405900079 -1.6317867075740735 -1.8488785757514532 0.5609306452465037 -0.044661036712066796 -1.4276417803435122 -0.38459299729452434 -0.10233907977424621 1.618392134484654 -0.3750121166349225 -1.8444194860996836 0.9500086076576639 0.5365224756139823 0.7195673786102743 0.9941495595431625 1.24040795493247 -1.9302044834250887 0.09924432728931937 1.4284810427728556 1.3680759353064336 -1.4267297907353613 -1.8716204724221364 0.12819795976475928 0.4921192642793668 0.2884292478559319 0.44955007310904016 0.7618962491101362 1.8563241674466604 -0.778991792192475 1.5662048299926088 -0.6224480592933662 1.7775016367169998 -1.7489953986190245 1.8080211295162658 0.38601892411789246 1.8711834376807435 0.6970576921936751 0.4484429668071257 0.6043988183762168 -1.6308407801560698 -0.1847686257385342 -0.2658924182020174 -1.618219692080064 -1.4892144708487514 0.1613671621730781 -1.2800541744843523 -0.18569539948001576 1.6799710971955508 0.706739584372468 1.7926897096540295 0.7814466963614081 -0.8153543663375278 0.2103664054828612 -1.6185715820455044 -1.08724384640246 -0.026484973751725774 -0.5995164074720333 -1.0350433569275206 1.1625408844616278 -1.5805154966945982 0.8517835638410185 -0.9786597297696318 0.5978740688690785 0.7673230958663829 0.16865197373533186 1.6346546231250818 0.4005118703286494 0.4989022674860184 0.4918541367951844 -1.3563462474718202 1.7238394977886462 -1.8667133845679904 0.8884726269942631 0.4642595610519614 -1.519065900374157 -1.1532023682029469 -1.6247421559940496 -1.4300244863863771 0.3250267815039812 -1.3165632007206538 0.6399281002688673 -0.9513306775041049 -0.21251042302266887 1.6829287068207686 0.7208515905464421 1.8591431264467635 -1.2304752345000949 0.4655518921228641 -1.3806475954317345 1.2096063190010418 0.43474800613963405 -1.343350303260055 1.8144352149045764 0.3670366731357227 -0.36503248750588585 0.35092927281437497 1.1523319483317025 -0.23628504046035653 0.2274077291955983 -1.9989780928879244 1.4819278458840603 -0.38463365162455915 -1.9223054268696267 0.6732498123447622 1.5814208687564864 -0.11275840582765262 0.17536757603171454 -0.0409312619426184 1.7805644549272914 1.8246053702957263 1.5250605231790475 -0.7146804964911561 -0.03718058953797197 -0.6407584611845443 1.7205970518381266 -1.726238834287312 1.7014079094745698 -0.15065478479007643 1.544767362529552 1.7110770691475279 -0.07602195855931387 -0.10328903799239701 1.5171387887547818 0.7450267834693586 -0.712643524862053 -0.2792346173991396 0.7570543064139231 -1.359847168393254 -0.9055120263099957 -1.5776856458032487 -1.0006387418202187 -1.7274584643374558 -1.3744197074839233 -0.19719643322217187 -2.3111484507455664 0.13744260948082104 0.5025537941762339 0.2126311834894215 -1.7356572858335158 -0.34951969230399366 -1.8888373629901294 0.47922094998350145 -0.7930368006306742 -1.3675640906937598 -1.5883138985460499 0.9925053122940962 -0.08141656038134794 -1.3353620124661663 -0.21712004730000575 0.8512647466554885 1.8371700902150574 1.355243906198002 -1.3584398640518414 -1.6395341299579511 -0.6899190269389338 0.9230035242841567 -0.2098048832311793 -1.1772683783384092 0.12220812965772082 -1.1860782035346689 -0.23422234703536018 -0.5068332529057372 0.4258608903128563 -0.44169281249378856 -0.9322030816987242 -0.08978522668456557 0.16601453645620431 -0.24246765068187973 0.7766179170278563 -0.46561956415934513 1.6232555290950157 -0.705119710596344 -1.1577286852394146 1.5428804075224285 1.2992381176841208 -1.773477057959473 -1.4379788973018286 -1.1610471180853688 1.5193259676723099 -1.4761303221362916 1.6780664940445937 0.3333684888365737 -1.142229001930389 -0.6300352765680702 -1.2363427624470176 -1.2596543060837198 0.6331827354003996 1.5067311811735933 -0.153539665193319 -0.5819986550830307 -1.9674666308951985 1.1988293946864634 -1.4712582882046785 -1.3502424930415113 -0.20905158801181709 0.0023126109835898134 -0.3729230419781592 -0.9032807462309308 0.7716901694115231 -0.7882961673032156 -0.47320752459876486 -1.421961105064552 -0.9489109292933327 -0.2693618308113443 1.5692171051369241 -0.8594785314369846 1.71009576951584 -0.5369176254701012 -0.39384696097481137 -1.9063612498364488 -1.363494072481254 -1.6038612209334107 -0.5832290778901662 -1.4630701750055874 0.12509233643200415 1.6306336564796722 -1.7686486088369355 -0.5954202964436001 -0.3413012950604053 0.6699792542214931 -0.9224883732587524 0.8435590245053748 0.9196002652070386 -0.18143667984315173 1.5945434900505464 0.5644778907185195 1.023560585534953 -1.4654152083276952 0.6953434931985694 -0.6763707852590258 -1.0153813005657804 1.6459123837970053 -0.639747869124544 1.66198880142436 -1.628650830736124 -1.4567477225269045 -0.9181779565999265 0.7484765345539766 -1.200889558516732 -1.3302131267768098 -1.1711607071181238 0.14591592177120566 1.9033123619976677 -0.25153858362772963 0.7951949347420816 -0.005004206715209378 -1.664067516219189 -0.6626332801525293 -1.2697134379833246 -1.3546492768801974 -1.8543579094989828 -1.1176306673907288 -1.4229909010178627 0.01598721389747817 -0.34391559343582884 -0.2986799931960724 -1.122741709316439 1.86635268685471 -1.1805426035048237 -0.9107473783918334 1.121282290887609 -0.5251867824480935 -0.7178816373057214 0.6727780004710012 0.29213471461889284 -0.23189523373187657 0.9929401545720644 0.06591818977986943 0.13857941158982323 -0.93150232216488 0.36907572070108274 -1.8310659825019284 -1.403257662414898 -1.1377523726521035 0.23939613492938455 1.0589246161411614 0.3395165308369193 -1.5656297664585226 -0.2944445946253151 1.6774520145184695 1.4540105834487016 -0.0058264682324851704 -0.6639978363393485 -1.9611223321762261 -0.5153985657724622 -1.1239367265278135 -1.3383236460512815 -1.9523192663208428 -0.36823591156909624 -2.0122788045623157 -0.12722292378429698 0.7508029808342589 0.9950870646301289 0.18910756212712151 -1.6963353251314066 -1.9956115136235122 0.9478965989503381 -2.0511892379262986 0.8635955459108637 1.449828696835024 -0.04675996861710253 1.2422783910961512 0.2461543118758132 -1.5387614439779533 -0.8358256507370663 0.9360960925911539 1.2865291421864606 -1.4521933954401456 0.2518629460951737 -1.1024437428625882 0.5176944186451334 -1.5919913742179856 1.4311352325475728 -0.7996696412022976 -0.25117893953537707 -0.6476303431026376 0.9573980380487238 -0.5778603852939246 1.2157603578459817 -0.15963178247850437 -0.1528004120306475 -1.4369216904285909 1.7980685031293018 -1.0929360850857825 -1.3131235144901436 -1.2287100797192456 0.558592516228396 0.7220463510259028 -1.0825460570816599 0.7504695917738946 -1.6183203172692273 0.41216750460985696 -0.9984345187394414 1.451253424975198 0.5113682926381782 -0.12684139678083226 0.24320219660588788 1.4520402977749673 1.537914598513679 -0.28628484578826213 -0.3039937651633133 0.9183064941235866 1.0309933563406788 -1.926112673696967 -0.404827190185577 -2.2479399369357007 -0.39851975794948835 -0.024691288082099867 0.3405523217921593 0.9192152779230969 0.26830446319657647 -1.4669249826747144 -0.7799115421086648 -0.2643796342489783 -0.06680313598762308 -0.2682555034629202 -0.913650345110854 0.7471485220720154 -0.34225101641493044 -0.07396192364451577 0.04300497953478183 -1.5854208673982564 -0.17630225423681972 -0.29794688717085116 -0.8202709480110416 1.8273785186057858 -1.1876448865001803 -0.3655385659466126 -0.9405690535757057 0.15068756496843805 -2.2843218196053683 0.7730001221439897 -1.5138764361887627 0.9757103449218851 -1.503422004185231 -1.4051868189813925 -0.33779074883721855 -2.0348759339527915 1.7359738588700964 -1.378635780124432 -2.1768479408084387 -0.18464794090907496 -2.0530132017277714 -1.3218454510298197 -0.040121019023558004 -1.8266447765695393 -1.483420933289658 -1.2951813126445135 -0.4245271153304833 1.849612281351076 0.338120733689112 -0.9768367908482205 1.5153603007588052 -0.9329801812924583 0.9154420355376212 1.5782023682915924 0.5176778812310077 0.37225892415645123 0.676257399483925 -0.9770015489997091 0.3765697286758354 -0.987162450703505 1.488294461597411 -1.5133940832594217 1.2861308486859915 -1.9671586628185131 -1.6325288220596592 -1.5856988152944889 -0.10410271914191406 -1.638208804852242 0.5798355689730217 0.8341572667527588 1.1177213421904868 0.06620581584035858 0.23908582744538334 -0.2645229747654155 -2.035203653436564 0.2974497000350104 -0.58284391467269 -0.48187911050548204 1.5209227020962206 2.175837071345945 0.9069916585971644 -1.831531408125197 -0.13144368205334273 -1.5234515607292987 0.6060915107677262 -1.7665066193221342 -0.461040119097316 -0.833684265826091 0.9759181734494998 1.6844926742798374 -1.9206599534363527 0.09385421386129801 -0.6194866334105316 -0.9407742351622029 0.5751617347389603 0.6816412907907125 0.7298806074938743 1.8092863659084064 0.5890303142916897 0.9663855719526931 0.11049049477523895 -1.4853125299191687 -1.0683491171642197 -1.1708171687896543 0.3118922566009558 1.4988157640800626 -0.522888317720734 0.8188352045762703 1.1137120491676027 1.4019635100211063 -0.24835858740343414 -1.5147336164416914 1.2126762087469372 -0.8951706618799024 -1.3394325120591086 1.0910393632290858 -1.4253327919176428 0.9963692351186384 -0.07523114012578375 0.42812650781743516 0.7381499051693083 -0.5227238637869773 -0.9047596604800584 -0.05520834224703728 -1.968725108769209 0.4913717605549014 1.0169503213629327 -1.5361491573646013 -0.8604815754445577 -0.13900912577448177 0.16255966921575019 0.36703589761833194 1.0272464025592056 -1.7428001204035353 1.675945595265501 0.7717382148973517 0.4876509285196766 0.5141343637889586 0.08279276302786032 -1.7381513644863493 0.8838290496621005 1.1937248332656314 0.6136161563935243 0.8151321945937116 1.2869203772328248 1.400722340690724 0.603061457680009 1.2346536402011121 -0.5705315501705829 0.16737065630264156 1.7291702651157461 -2.062320618718655 -0.02804256701068921 0.8391695890084251 -0.6326326423365756 0.3167739022455534 1.4488679117721157 0.6059141791943952 -1.8332393228062123 0.45027227140496606 -1.2027477088221534 -1.138774070530972 -0.1387560861686615 -0.21814741040144908 -1.725866302499312 0.1256082117280424 0.2392305364279114 0.9985070281642956 -1.6453739619052283 -0.3369255284475571 -1.4530774443068126 -0.45107855667276453 1.2240333345470549 -1.9034454693635277 -0.8162305638746035 -0.7176569030745977 -1.8095577059836339 -0.30628534937955354 -1.7660908658586332 1.3493455569463342 0.3942723932226089 1.129042055611462 -2.1287085037277174 -0.8661940864672051 -2.246595173038792 -1.0086530180881148 -1.9345117934500942 -1.716498274383139 -1.0133786002852425 0.3020039509631861 -0.017936602290608897 0.14712662018559425 -1.539705077706263 -0.7676012738686306 1.2766417960666563 0.4063609528348652 1.9931444347694838 -1.6065035830652676 -1.954505274604795 0.6341895368237186 -1.2752466844207941 -1.3134922819832178 0.01512548518280505 -1.2948428108115315 -0.8944033038199007 -2.107729755060768 0.4431321120752175 0.3663212865799855 -0.5888184724675274 1.7347924210845254 -1.17303275645166 1.129811347700647 -1.0250242660391282 0.430376903182005 0.2300312441432565 1.3231643700208127 -0.18302053653341743 1.5405562467951877 -1.8777260062673375 -0.07950842718499489 -2.0983492720530452 -1.7344518416698405 0.3045030414985499 -1.874189211491997 -0.2629744195065012 0.8777251763409583 0.03812319658274603 -1.8847466995311826 -0.12221976621838 -0.8195463793677524 0.18748045443471084 0.6330555580646077 -0.5029494752577675 -0.7396312256439599 -1.8757639134879016 -0.5133406020813819 -0.04942052876304928 -1.529713686284495 -0.933082232386315 -2.001517029671655 -0.21744711789574123 0.8005719140347085 -1.9527580323320746 -1.0501305058944501 0.3048219145404027 0.853776625485319 -0.07372562172011018 -2.0111302800806192 0.41831346885575266 -0.822958173425087 0.23990870692987865 -0.39734331782056953 0.7176298289937145 0.28717965423526354 -1.5683553225571536 -2.254638090029499 -2.2980544434219414 -0.4287171960158815 0.1653661413799526 -0.6642224128031363 -1.3261231400027182 -0.1262654081840606 -0.6117761870390086 0.8933733553647265 1.0806075456212563 1.384350082066222 -2.222001934734737 0.6765995984215569 -0.026198952673980522 0.02647989296290502 -0.30763375684124683 1.219641660876266 -1.9761555280055803 0.3111175627605894 -2.0595414624542125 0.6604750989951422 1.755712487023893 -1.1362027697943626 -0.5266206611993639 -1.3638940997320232 1.2906232240541953 -0.14442988988248057 0.20583404473655126 0.3018632091446064 0.10149699467298512 1.1532918312075877 1.694166707484198 0.39397336169638186 1.0130349238757679 -1.053861091492967 0.7623039522869833 -0.1259056058512077 1.1987946790709265 1.44338295721711 0.3776113283645704 0.2759190884975096 -0.5690555475219643 -1.785054892386293 -0.8521212094286628 -1.491319584296427 -0.22137769277813024 1.4717668873397318 -0.2092726469281065 -1.4606567938955923 -0.18306937155938974 -0.4499809379086593 -0.21922471717495828 0.7916110007329823 0.8664452571730383 -2.3131175506574966 0.6350350509292507 -2.1253046310262125 0.725272437229539 -1.1737111348329687 -0.5642606613810128 -1.6880653045027012 -0.6335011368197397 -0.8370686922108469 0.08584851975671252 -0.7416726317580467 0.861419379186403 -0.7106919870902568 0.23843664794611422 1.6660499311919927 -1.381859313375961 -1.6001579375147883 -1.8679325752675258 0.053293963493074026 1.678581430229802 0.1359445224945022 0.5288189434076785 -0.9929995004376134 -1.3515561786756047 1.1663870580746374 1.3197495834324169 -0.605942087379616 -0.053622790390800416 -1.8961435601337029 -0.5695887929659972 1.2822000809187408 1.5745655640845841 0.7326447906976566 0.48766403754155235 1.225272485806667 -1.5830649994453156 -2.229298799369402 -1.4503107689102488 1.5106418984280456 0.4516814995314198 -0.03283522243290448 0.9408686510317859 0.5270726086749168 -0.04116393854434462 -1.773535053904545 1.5927937818237945 -1.4163010357845887 -0.5290472987063217 -1.550425972369599 1.2293557460161955 -1.0714275083867848 -2.1560513035865507 -1.1034773973341638 -1.4501533845640913 -0.6827185547509034 0.6280685146378435 -1.8861082921031385 0.3887383672961057 -1.7737161165405997 -0.6482670697305382 1.026919694752238 0.20447240502778813 -1.4081865511506668 -2.010084939464708 -1.3535097958035944 -0.8938812685585042 -0.782052379709416 -0.16517509686755308 -1.2978759944044718 -1.2737745582086977 1.0638489954978947 1.0228682748541074 0.833684982711656 0.13425159357647115 -0.5320350089420193 -1.2610214571769467 0.2935220938444868 -0.16471237112774373 -0.9307892609501344 0.42662551480359034 1.0472628220400992 1.598737906653678 1.7314591414047351 -0.33457602742821696 1.0212867943521355 0.5063631700137889 -1.1337652611908053 -0.07375949359478254 0.6189178917407958 -1.6193986278001633 1.2727604600736653 -2.1018426050354937 -1.3891402923101048 -0.29714187950533943 -2.1957319238924615 0.2820746841181604 -1.1570180845804883 0.9189595903620101 -0.9816406770253502 -1.0184736021229643 0.14942493681324273 1.729876373766766 1.7810659785330683 -1.2372256703706794 1.8554651416316086 -1.7043455914830212 -0.24265905708339952 -1.6591111280832544 -1.4185699094668847 -0.39155899590256554 0.2507201760011208 1.8022371175153107 1.0485252435784236 -1.1568668643240532 -1.16282879981722 0.1396153110093801 1.5722457067925935 -2.062444157344052 -0.12481152903122521 -0.2888017142998007 0.8350164762488923 0.27586351146727695 -1.2245183134513553 1.3534283350756493 -0.2233386191873435 -0.941060505581758 0.42640542633551926 -0.36251622356423385 0.5959317645709747 1.2826602087949344 1.584751694936316 0.8569420631317887 1.015379052652773 1.670791819929135 -0.5532651185666554 0.3635014287202335 -0.5330109240443994 -0.5817367474735307 1.0517932780930215 -1.198297072782197 1.3974381683408377 1.5672766878827007 0.02275887479546213 -0.6301473609817159 0.6332831317568357 -1.635969091892392 -1.350887308675135 -0.9052533365059932 -1.655501543562927 0.05487744142164664 0.5176302779624572 -0.8746059315193666 -0.8658285533055984 1.7479627608262207 -1.6517380803465156 -1.561973974908265 -1.7725214224352133 1.455446329146875 0.8717199418471941 1.7354762004603685 0.8190573060158076 -1.191499676856675 0.029642067204333794 -0.8552343395546876 -0.6771736458725379 -0.6459805238089041 0.9432310490436638 -0.06825991321682509 1.0273573417368567 -0.2170047720567861 -2.0443591794757214 1.0197196151874017 -1.6414097431596562 -1.1462703191702073 -0.5324488792497954 1.188606524306613 -1.2598632159954046 -1.9185186940844305 0.8955883725011754 -0.7451667111958521 0.12592839325907432 0.026082157642410043 1.4673245002922 1.8850839461611926 -1.0851706077871166 -1.9253392938957292 0.5845839583813056 -1.2979358238642411 -1.1860024765711317 -0.43956456109234354 -0.9584794470720219 -2.055058752923331 -0.0808830595037558 1.140458505537812 -0.010180705608145131 -1.345821700530182 0.46035715973304914 0.3045536775513572 -0.47918297446863123 -1.7527193541560921 0.360262277821755 0.02932118617876317 1.5439258073055349 -0.050178229944943045 -0.7738689963582787 -0.5170808697851533 -0.5768873085091731 0.13867190416297648 -0.19051386903763648 1.7300222173700257 -0.566435194324492 0.21321752338664057 0.16087533540111512 0.6207369369868072 -1.6015027188103428 -1.0647137663045707 -1.9037229164302798 -0.4804056417530995 -1.1329298647979653 1.4446972697592726 1.1088917839077501 -0.7788926270682528 0.9227101905692794 -1.090200625925916 -1.353375624771036 0.08049999292581476 -0.3990548052994881 -0.13400243630136965 -0.2944266456360067 1.128418284482781 0.5874533306823383 -1.7720583222234372 -0.2967058230302992 0.2409256188808396 -0.21980510045471038 -0.277086005722725 0.7919353284400213 -0.10087381557970546 0.8113390787366154 -1.8652558604885905 1.0717042770474108 0.5543474201264551 -0.8734960228850043 -1.303720440713975 0.5157253974629937 1.4338009280235668 1.0546336531039269 1.0551136052825572 -0.6782629944503576 0.9821409545926134 1.298759339791605 -1.4370957145747032 -2.2035363328262947 -0.5859859444718554 -1.9260237120348165 -0.8049551070514155 -0.2663921508588852 -1.4497679710269527 -0.8699588982270062 0.902261044068326 -1.532634008710244 -0.49284765211346215 -0.5249659228002652 1.3572750230761794 -1.4178527464615007 -0.6966451297003132 1.258384430519429 -1.9762239169156914 -0.49761332372825035 0.3658775781450558 0.5481800008610589 0.6397005308025114 -1.641014301636599 -0.10822231808284523 1.6237596421538283 1.4493158292115575 0.16816654243900048 -1.6557905977401206 1.7138733344984765 -1.7531603567742995 0.31702427657439297 -1.0717159696989054 -2.1384877397872937 0.9867251976851582 -0.3195133605714886 -1.9377754862556995 -0.24659313647878994 1.7857286344682262 1.4200136207692398 -1.7808995041970692 1.2745329160720449 -1.5575745740971199 -0.8154743390504885 1.342374615543577 -1.1888719056570636 1.586715497163715 -0.22416352043110988 1.259820901166906 -0.9767793473326452 -1.1944899715206996 -1.2808115712694828 -2.116384928928789 -1.7937879393549963 -0.32939701868984295 -0.8850142014911249 0.4317666466513795 1.6870454131059396 -0.84036373141773 1.841036538975077 -2.2845648790328714 -1.1068801075103276 0.3968393831147954 -0.23437845831604548 -0.2761447593474394 -0.34652874682526696 -0.08584496190281776 1.1309294711610383 -1.2896489795930097 -1.2147241643122295 0.6736462470238412 1.6921758390147037 -0.12187304722824778 0.2175461587244372 -1.5104229126441717 -0.5042906404258309 -2.027681363477175 -0.18477235706963338 0.21824955620957864 1.7081343888655307 0.18141550264567735 0.5648886073119868 -0.05881307803443692 0.6664005509479137 0.7165014803363426 -0.828262013208634 0.5461929472645533 -1.1059537521710834 -1.8778040991800553 -0.7681726424075394 -1.8944458471173526 -1.870771317588838 0.7858393928962557 1.5720863977409212 -0.14531839035490443 -2.2660969594476583 0.5776357550544502 -1.255150606099701 0.3100287854127594 -2.1323764089667954 -0.6962427924246138 -1.0246976551199845 1.6255200384566966 -1.1473758579472257 1.5636907119522563 -1.1117162463910344 -1.4544821053309205 -1.5107124939720848 0.29664777779003126 -2.194280733200354 1.6691073214234864 -0.03888674155041964 -1.4392054680623994 -1.0091645435983243 1.177271933876521 -1.3375977726952615 -1.0867341964606876 -0.3707332123591831 1.00644018899281 1.0272692351653436 -1.2777736436934577 -0.0028497172104157025 1.6510139164515003 1.4696986449182983 -1.9761078226400544 0.23646417119900204 -1.1460910777387519 0.028155477592449255 0.9194864677267583 -1.821316342510258 -2.0721298780529893 -2.2770953371943086 -1.566366347401446 -0.4105007472925347 -1.9637245486243933 -0.882718280954967 0.7495649721342555 -1.0767315379718438 0.5001609483184939 -2.1549941009126883 0.30403318605074364 -1.4736328907066827 1.443202063943497 0.6218356673922136 -1.227105649531244 -0.15283814652942784 0.159120282284774 1.509118055235579 -1.7049715685224491 1.8375705681377128 -1.1153206541531004 1.179822980042755 -0.7194515683795578 1.0464669107408684 -0.8493376788650628 0.8447086534816719 -1.3999090795862492 0.054014564642751325 -1.7491999665849138 1.9679506569006684 -1.353034078342332 -1.9607487934712593 -0.7248190519573635 -1.7826040482514247 -0.4139040699103936 -1.9484123519303755 -1.534001894695715 1.5544584061282134 -1.305410948482784 1.8040210498087028 -1.254028500029669 0.9403969797252575 -1.8406941497159552 -0.8614813057270349 -0.4556756187798486 -1.877514345439556 0.42535968766686133 -0.0650156758053701 -1.917872035127629 -1.1129841707584687 0.8860395013013654 -1.5422879605158117 0.7446320765911435 -0.6352761250408955 -1.529103493326945 -1.310541598968359 -0.195575639657635 -1.925198728326502 0.6756917837929818 2.0312953279170833 1.5872388627005516 -0.27777217049982117 1.342272064402522 -1.6922771378870436 -1.419847996919613 -1.6378876708414634 1.1437570975138154 -1.1009635011864924 -0.9175956563592547 0.16345363513392666 1.0209292864569373 -2.0536831726344498 1.2988764570242348 -2.002699344949411 -1.4374835275596953 -2.067058432144919 -0.8607611912758887 0.17434609893010397 -0.6752859819319325 -1.72583386282213 -1.1757402889930983 -1.2388677594774749 0.2572739052884301 -0.8031239262901764 0.2417777738971628 1.6114198461239493 1.1779052497466485 -1.552046168800191 1.978632137147386 1.2335670825851393 1.4527869993536926 -0.7544720863427469 0.7688034964581333 -0.10484293263277425 1.1143689083781352 0.430411252575664 -1.5450354634026167 -1.6696118590013798 1.5919278507799064 -0.7399312613988454 -1.6892492845758134 1.448373218383428 0.11164967712147858 1.160690653616543 -0.059721793216359016 0.38906719859391065 -0.8000917273958252 -0.6564919048839906 -1.729016348212648 -0.028601562998061256 -1.535767124958237 0.21754311668848647 0.8973376366454093 -1.1373747693636134 -1.0777272508606033 1.1026086830380515 -0.5202622302428329 1.7788008333517271 1.8521051429810504 -1.023559392128428 -1.3448323400900324 0.18207391813085946 -0.643971575720952 -0.3469948241867962 -1.9676291943044961 0.8646605059173029 1.2461737535335438 -0.01557589046642129 1.4830758490003624 -0.2322340634865135 -0.23415025140428117 -0.1620767144057847 1.6717371086012376 1.5197285586107414 0.8516400820987944 0.6044223495376366 -1.184411383039463 0.048208231813723454 -1.445266999072882 -1.24565223352623 1.5401148943290925 -0.7023110325177158 -0.35655283517910835 1.8622785568877576 0.3493236010419195 1.188022639405038 0.8638233749829293 -0.1212279143796232 -1.716890656572524 -0.18673752543149855 -1.4794139141993483 0.9748905228617709 -0.3022572246105908 1.7856179579195042 0.9266201206379323 1.7872886704038422 -1.8776434955945889 -0.5337891775111975 0.9629930994344688 -1.1528814198667954 -0.005304410472650045 -1.0487984795678809 1.2126826760997749 1.1367430300431443 -0.976679980172164 -0.5475001924913961 1.2536642303656063 0.9848853643461926 1.943435280426762 0.43837152663249995 0.5512922214873973 -0.012680225114647956 -1.4031681658130384 0.7526563355008974 0.7458695335124308 -1.0168402529668639 1.829132677701644 0.2417422659095944 0.8317895128427382 0.9674585140073746 -0.7955865235332247 -0.97706346681618 1.6718089131892375 1.63071827096532 -1.061154014508781 0.8391737066827237 0.5928697643440376 -1.9673466956610057 0.9989416357621229 1.4303868166155043 1.352375027632088 -0.6207294738930409 1.4555453268050271 -1.518330731528865 -1.6613110238415298 -1.1089346674087899 0.688818830781225 -1.414359854769415 -1.5871027205147876 -0.4985421464618738 -1.6274123905090307 -0.0023013256738873603 -1.732662547563656 -0.0072506935842028865 -0.29331915439360984 1.7560257955904257 -1.0388812510860148 0.36716614249663854 -0.43594310847162004 -1.3880737393188785 -1.4514983675625062 -0.23951563654681676 -1.7429720425749025 0.42517604004812154 -0.057934033152016416 -0.953347099939527 0.6437084307790796 0.2507246540080187 -0.97596540327352 -0.26725415153082166 0.4720082023276265 -0.4763039316390067 -0.2627887338263284 1.197970822643243 -1.38594918765709 -1.1853714729562872 1.907164052007287 1.9425219296786107 -1.138440234633868 0.02440238454880792 -0.4690215767640795 -1.5278468902553877 -1.9190073936396075 -0.1973404395655271 0.30794050464018924 -0.2158490943038011 -2.022847097628967 0.24634240442459543 -1.2404155047831449 -0.5378347934441331 -1.6330126701196128 0.12476553744920592 0.38989225840362846 -0.5047146821383769 0.8328815145346954 -0.17244199717748426 0.8907270974025101 1.2678911481689026 -1.044074898160052 -0.07112254315049676 -0.07640863199305678 0.8872864441830328 -1.4568706953597443 0.5295559839258548 -1.835887285038065 -1.2081614153681748 1.614712125415304 -2.178946974009171 0.6662228828893454 -1.4933345063833556 -1.9864623794363718 1.3300344447545112 0.24297471918468394 -1.5522478979931558 -0.11401503010894307 -1.76147577062886 -0.4077244588777701 0.06802444471235494 1.0554844568660176 -1.5449546996920902 -1.6327152051762133 -2.005871814895811 -0.11612678393087049 -0.6893179298573622 0.7351523341857498 -0.16063206146983833 0.5790847123461329 -0.0876847081437343 -1.321185609514869 -0.9237716380981654 0.4844796512616345 -0.3405687985515562 -1.4546334107290864 0.9535079341661752 0.7283071138246484 1.8870715324528566 1.3529350676463603 -0.26126144056014233 -0.6803443474154136 -0.1377649770738104 -1.4318988385149525 0.019130274452323175 1.0503668312787928 -1.9932739705058908 0.223487607030127 -0.19804665337356978 -0.40162431036858454 1.1044252505136531 1.5513220377916828 1.7779637207167607 -2.0005989916681686 1.5694148537426675 -0.7924204275217553 -1.362289965621796 1.7768129692105843 1.2671208982451143 0.7560127072361517 0.6898871786728952 1.2155927864497977 0.9854665060367834 0.5698304553067866 1.9304288047105826 -2.0613415918822584 -1.7295030601539119 0.22908263296840523 -2.060581470354835 -0.4678045169584708 0.5063311877746962 -1.3792400490224797 0.42435531153778616 -1.6279039120450693 -0.06354942284495547 1.2599979684310758 0.7917232041554673 -1.3534041733336342 -1.6074421076467629 -0.1984808629028713 -1.4790853730908053 -2.126704733725363 0.4532622925808802 -0.7272871450255352 0.9908510259932288 -0.2647499447469176 -0.9806605157221859 0.8255395044684611 -0.6505037179162729 -0.03221985480024412 1.0191082431435945 0.11561216732646677 -0.825961165525243 0.8461950559234357 -1.9956820530529542 0.6143626863538312 -1.2776437957834925 1.3270677032392018 -0.584798118340899 -0.8592915787418349 0.9383926561098783 1.668825656005172 -0.6921097996276094 -1.937274419157889 -0.41963649027648364 -0.4558314746551152 -0.47720108603761496 1.128154008782691 -2.1345111553254497 0.3597862053010184 1.783252882326298 0.860765269341002 1.087080775569608 -1.1477928952530234 0.8230851387785147 -1.1213053852497794 0.6172553512276782 1.0922556827485896 0.7396472096722752 0.35013403455024344 0.7444187872072624 1.4826027327615632 1.1619525160019923 1.7314166480078133 1.5849917760341268 -0.04574466269056164 1.5680342277130113 0.14209437673989395 -1.9814486401544074 1.7221820217718957 -0.21594715807649753 0.9884895593570535 -1.3298267438752478 0.9401807186155584 0.5929888732699788 -1.415700363803328 -1.885957695111247 -0.8486683091402866 -1.1722419929284844 1.2794560599958482 1.3509584853682828 0.4325195337187311 -1.1575076083758509 1.2917437855173204 0.39733332957229395 -1.4642793624524246 0.8608166291794755 0.7025265327249989 0.6450482980200501 1.6527633623957643 -0.4117069746549889 -0.2619509075835239 0.6661821020387555 -0.2832227507230202 0.9784421309473583 -0.5594482815317153 -1.974343150549913 -0.5897002949589859 0.3199703146811836 -1.4986137979059315 -1.6065001206578837 -1.5584007666532738 1.4535933208991185 1.1452852004410237 -0.9660356614224427 1.1864465023519175 0.22727108723500955 -1.6079286284800616 -1.53436621076455 -1.9107926750581943 -1.995735915174173 -1.4445880752797537 -0.27462763736298834 0.27387854929088223 -1.7922974406785754 0.357204957300472 1.0834633452515774 0.150318180804053 -1.0798800364782897 0.5919667719245831 -0.21276764769755635 -0.9455749711079264 -0.7846306731688181 0.6193565301024407 0.6281795099758374 0.2892931736537342 -0.7410305566532266 -2.054021041383959 0.9063546479908445 -1.5018812763821194 1.84553025359451 0.7760836941788385 1.4531113982533779 -1.217915432137362 1.3797982210748632 0.3683435662066873 -2.085461390012819 1.4827382177865096 0.4424690347451388 0.24217204926755398 -1.6430221393034834 -0.8038681870962522 -0.5384073837535741 -1.134083568114663 -0.8960549056196082 -1.798751287662545 0.4633263564722116 0.36394294292370594 0.11167283223730591 -1.1631169457764463 1.6493216778743003 -0.4483480942681699 0.059067598998309434 1.1379463013024307 -0.6383172699944898 0.29227146794571307 -0.9544201215522163 0.661400972064063 -0.053339796430956994 -1.2702661150693166 0.15713269279259412 1.4394536760732395 -0.38609743803532476 1.8945505124122581 0.729557471529117 -0.01260443039760764 0.2872154870818641 0.6477708074870497 -1.3987602416864815 -1.663621352475283 0.14874149984413676 -1.1070576057471504 0.05828913901347097 1.6963659030931113 1.7279431988239045 0.7272473082863289 0.015963424825886977 -0.39828297350054287 -0.6915271231462479 -0.9409335735385342 -1.5847718176811576 -0.15363850939110077 -1.4974446759564353 -0.9871946036861884 1.3364699414027774 -0.25138663084513313 -1.6620105813880899 -0.16318630983771382 -0.8052412907463157 0.04983232021341603 -1.98386363472816 0.1255065150456428 -0.3053131761163265 1.7416224257431987 -0.5498223525221382 -0.1070092344446164 1.4144385240567978 -0.4190664970999089 0.8741598222396734 1.3459980545996801 1.5865850271144775 1.2944751899669755 0.27854027397252873 -1.0586319178467145 -0.2917290241668781 -1.795631892742564 -0.30423022658485044 0.6448157210447311 0.23661034875324885 -1.6839847980364995 -0.4282375005314108 -1.0241613927914774 1.5329091289008947 1.7689708996211047 -1.550249262109059 -0.36145892922566725 0.8057000399053855 0.9121889784256207 -1.8746231877406425 -0.3407891920423897 -0.5100100888212915 1.7203444107746582 -1.706682195642751 -0.8635093065394472 1.0537276225817838 0.5774236381777079 1.709314199382558 1.8809850845922482 1.5714695409616648 1.4824742251609466 -2.0296164560077425 0.8706535590148727 -0.15032095068641046 0.7630112843455321 0.5768488888657595 -1.8947122707801756 1.763989202480442 -1.9163405649159124 -2.006275997780987 -0.8341489501330926 0.8929891904702151 -0.08567380709410022 -1.3188402705526525 0.5364940505772785 1.6991218580161123 0.8881761935179832 -1.8266709146722637 -0.07808651229848408 1.6577995761226183 0.7487454808442388 -0.3720547957772884 -1.19109580896882 -1.1576650475599268 -0.6046991012995396 -0.4836112100385454 1.8189646962191441 -1.5338958656385784 0.14114712960873219 1.3345047367198042 -1.9397229465443575 -1.4303190032776711 1.8106772843304189 -0.16255065418672873 -1.4573861477213654 1.2895471398664913 -1.6089660516490691 1.0130955345067827 0.6882960450387982 -0.7946375560963944 -0.9527685120902576 0.9986585823070185 -0.9415495776283246 -0.7000314324170555 1.5050329019818298 0.9417001405355251 -0.7162093960260235 1.5472909925852143 1.7057048424520587 -1.4568116207684543 1.366877222503351 2.0261239957186263 -0.6585379181970897 -1.0963680157647608 1.36607489766016 0.8605170612891004 -1.6424617944867643 0.25250907294808367 1.548407713273637 0.25423609899331245 -0.8472544532116281 -1.7320216967671667 -1.233933884278954 1.9785201245875852 -0.9835597075306783 -0.5541729166887384 -1.287656588818377 0.039701127213200335 -0.7953247237270743 1.2397973244073297 -0.7122913483199408 -0.04938081202247836 -0.3286144472988117 -0.5214699140075146 1.2078555098554022 -1.5054530656007177 0.36273525784275396 0.3727281764962354 -1.2275618733380118 1.6540310999602599 -0.07348636084548273 -0.47448762397083977 -0.41903702566067397 1.1433660550792715 -1.6864640063597194 -1.8594964264659777 -0.9124156327928025 -0.884076824722123 1.3539946670849037 -1.7384969060717916 1.3735949072122478 1.1752874414145522 -0.1832792678291409 1.002500312329139 0.5742661933401262 0.08573269611880677 -0.2965089604879636 0.47641122272415476 0.5656983399817285 1.9205587578064895 0.46100942854028903 -1.5955081779169027 1.1538737525651004 0.13927640116006396 -1.865086010237031 -1.6521825197763356 1.1716658145419385 -0.49758024136892337 0.1974220236899913 -1.632894378084804 0.13586192699652508 0.008394154648982275 -1.877509741853935 0.39128066434595926 -0.49605340894698347 0.382286210651841 -1.5785319934050681 0.25899981001681005 0.08497756464575174 1.320353128565552 1.7445498648300353 -1.3294350695654351 -0.0600994262274395 1.078711087658172 -1.071605831218169 0.8742715712791992 -0.9356141407585644 0.28775904606176045 1.513498302603874 -1.3112560778915274 1.044861118906854 -1.719340962287195 1.7450373749026957 1.5738100997761306 -0.6346185229475875 -0.8123249470354753 -2.1122267121697047 -1.4079654286250178 1.4180202216647535 -0.960681106508505 -0.980830227006195 0.6424773982060034 0.613188251752338 -0.024364657507749656 1.186822551251777 -1.193237987709628 0.9458422320194224 -1.013077504159734 -1.9779411311955357 0.33554582780561787 0.7870475698785783 0.6184417383639473 0.8589679270031344 -1.5109119799578512 -0.14411927134936814 -0.9607936708126589 0.7416758016055635 -0.6289516196439668 0.1844337968126619 -0.7307934060507405 0.753860273566545 0.015980074204800878 -1.81413533740569 0.9012867822030494 -1.8942830232977286 -1.1696716537928133 -1.6333136646170232 1.198126329642356 -1.7793788895633196 -0.0023993431227767215 1.5465471549994085 0.7132709392404041 0.72215761833078 -0.36637568531396625 -1.1887676563306004 -0.3147784544694057 -0.3277545982322488 -0.12440200979017714 -0.5723881791625919 -1.4276970242495401 0.846245603971259 -1.367116229034785 0.9361251815016837 1.2945577599033689 1.6395657737965126 -1.4877804614334351 1.2868999373310572 -0.17268106866906405 0.3444115422790071 -0.93027245029764 -0.634754672998413 0.6660314913583238 1.052133599877175 -1.2825156640114024 -0.12943796548515976 1.7948848117003104 -1.3824535355583614 -0.7356680973617382 -1.0272683356417267 0.45666762739551964 -1.8744806604669348 -0.9269520823592292 1.6788244575130702 1.080743095147871 0.8092268305648862 -0.6090380639068873 -1.6159818667263999 0.5332390548780028 0.573406097625321 -0.4273569768399525 1.4255009294983385 1.2653129744614575 1.2942478438541285 -0.39855149652470817 -1.9858002289855017 0.3497575458358763 0.5793251573557686 0.2891670535085331 0.4604853552815117 -0.37038433625294853 -2.3398644096942256 1.7930745340443612 0.08537450352332122 1.1241062861942424 1.5442407877559392 -0.5952750645170023 0.9729243340099116 -0.1738251402647062 -0.8717405900606833 0.8998694815735676 -0.6610437616142183 0.7879284263686472 1.0681439971086861 1.2997704869096955 1.7741425893459895 -1.8381904957773887 -1.9945048802045064 -1.5526821856076436 -1.0956800923736958 -0.09850905876860562 0.5381522109676071 1.516643398715088 1.6443802094560103 0.9405378024366394 0.8178302000990358 -1.063239913198998 -1.3201347914536457 -1.8918853571415544 -1.230600294669144 -0.7123276483535288 0.7162216124863091 2.0805584785192117 0.8279658020447586 0.8187595461241859 -0.7271692577949277 -1.99496348472745 0.09335430416314859 1.4022647771561085 -1.548797574657343 -0.6934309892223112 0.631576842802058 -1.3552239167786615 -0.7215279362727999 -0.2596118058073285 -0.2778639587959016 1.0974844332203932 0.7460144863254606 -0.10581801426243527 -1.7938640308782623 -0.1289763940293299 -0.7920006707234378 1.3573893120723273 -1.5924658808531682 1.6710954262736786 -1.4569372203171713 0.04530395405010047 0.18195038450905018 -0.40294630729605685 0.2545193982781388 1.0552009247407592 -0.5705789383249461 -0.029449173928688295 -1.2937638174695045 0.5399089042647203 -1.1443875427731822 -0.7733492899606513 0.8614391876748325 -1.6202235735622241 -1.47984315283388 0.21179975640330917 0.48903528552350084 -1.8302564408745883 -1.9485073861187034 0.6513674326218709 -0.7955940502840136 1.433038452618802 -0.7600432199400485 0.645722622759326 1.293648286982144 -1.1180506086912985 1.4738961424919053 1.1900274980824497 1.3630231134144697 -0.4040806135124048 -1.90738364675095 -1.5351606526903006 0.14360959175210575 -0.5203622824133752 -0.4609710385964535 1.709423666945798 -1.5778466912212907 0.8489704172158867 -0.3813883501869861 -0.4601546828456818 -1.8156672130937093 -1.018774194709993 0.37746446107715337 -0.286872086348541 0.22383729333855854 0.6511838651335958 -1.3708683580280097 -0.3324981746015643 0.1668869617666873 -0.8250778469227613 0.30443720158140924 0.4095815065976708 1.0223858204164218 0.6275238554029249 -2.1087245139552393 -0.7792181242542116 0.1862674978873486 -2.0173335222836397 0.18173736085071215 1.4143542757075769 1.1138178563950216 -1.1868138922264602 0.6863983566391662 -0.36476975264876826 -1.1354921115606873 -1.6578960087483785 1.6148891630305968 0.3176504486788866 1.198460515459782 -0.8009266422691921 0.029314323620843158 1.7398962178643766 -0.8613930523085441 -1.2659742060065493 0.16964532307449334 -1.4898945025997705 -2.278395912169846 1.6470676380844254 0.9110799122167919 0.7282562359894601 -0.7115354310023148 1.9814189621755178 -1.428216061434016 0.9362692861348576 -1.8499168197150933 1.5073892792659318 -2.005930202556136 1.4866367680787125 -0.1405616748408019 -1.214002374683731 0.5292840737048587 -0.23449087707511393 -1.9703589598176288 -0.038435749923180655 -0.13929944349266815 -1.0187184397825064 1.495929514315356 -0.44375223324584256 1.452058024546349 1.538908835373669 -0.01844462373372146 -1.1418157920552252 0.2866569603190661 1.415485051442611 1.2852974368973322 0.9536075700187547 -0.3702356029923076 -0.6054559580621309 -1.7116001095760256 -0.20326405794334665 0.6613642941383413 -0.22404205218243858 -0.17296279862473812 -1.1803096678730984 0.4928290974216742 -2.0876930140325722 -1.1521951951550573 -1.0831701389140191 1.6561673892087203 -0.9953935208279426 -0.06554771793635801 -2.101841110452624 -1.6544318301506715 0.15789712871948824 -1.2663162751026298 0.4878329731288728 -1.5799741410188612 0.6974291425219368 -0.47491484759043745 -1.503748133668714 0.5830446368730844 -1.4700288956574519 -2.1889359840461298 -0.5556388140200934 0.01723371781302914 -1.6033013777416112 0.0002633329951864848 -0.8051271344599796 0.5801503551471857 0.3530672385835452 -1.291813181326287 -0.7926301991335367 0.9433443291769597 1.2617626173796428 1.4788428822819706 -2.1055906407443112 0.8436768401592425 -0.954394322356116 -0.028222289369718104 -1.4427547732362345 0.08705981724345145 1.47259824664453 1.9143755156956779 0.018894044167574578 -0.3787668047843482 0.19179652891792523 1.060083797535717 -0.6011256895186029 -1.1888626610156494 0.9878590949790338 -0.7239525400627336 -1.7400761711910824 -0.4320454128839788 0.8504773952195669 1.134321690467357 -1.7027253885762128 -1.6178759397197313 -0.49400049057358103 0.1514638829269278 -1.5380651265750271 0.7841305028033165 0.7680745101713822 -1.4759669935579605 0.4093113861887143 -2.254683803895516 -1.5363426346956992 0.24250919887027553 -0.3131382539747003 1.7899783854024995 0.09778098346913296 -0.09985738134604356 -1.351497879687305 1.8690744158140935 1.4734698449211716 -1.8290243826815833 -0.5447830268560796 -2.0020670478434255 -0.634072223129377 -0.1798859095140026 0.7593009469114991 0.08523952867460063 0.6890171729037677 0.4200430202867358 0.16991601403301318 1.8062603004132323 -0.39385263898109896 1.5247084807348843 -2.318960698110139 -2.1134703503663497 -1.4749573236578695 -0.9260829314508363 0.8880637071968415 0.8959217846176556 -0.9412182051872402 -1.2318007529666308 -0.47239035931202816 -1.641052767589977 1.030066307500761 1.5829475761675966 0.5011886845188355 -1.137941362209419 -1.375772051479517 0.02840570095081919 -0.8336681938057243 -1.6691642842849825 -1.1642755566182372 0.5463930182857213 -0.5028042098316596 1.0394828109875858 -0.02100356369672853 1.688200902977633 -1.1007896027958122 -1.378361124663461 -1.0712710863574615 -1.7681038598989012 0.3792450155990495 0.11954894966950684 0.5299472339710153 1.7852739452364998 -1.3624423845733402 1.7467975034436374 -0.5459627228029335 0.8090070516215615 -0.5809230371517681 -0.18837315734523805 0.15065963069562874 -1.0142533031895171 1.3057428297451208 0.12746711004712333 -0.19216849089952603 -0.2634890898671752 0.48977205180600125 -1.5667705075577034 0.0011566283947202552 0.5921048496506797 -0.8696491153408981 0.7045522554041734 -1.044886563500609 -0.3538714574481688 -0.4144691744482068 -0.636480482571399 -0.9569497346897805 -1.059772052251064 1.6127208122583 1.0444424684372409 0.14499010327306736 -0.6635696076478298 1.1124129184660347 -0.7812549050448472 -1.3229784280831243 0.7627561225003405 -1.320544910470147 -0.2374206299405667 1.4523653024633265 -1.3371330275047184 -0.2021714731447643 0.3910475847166025 1.661181621679599 -1.966422905539687 -0.19856171376283901 -0.964461406239935 -1.8225447042128597 -1.179619321333649 1.1079070187184341 1.7027116551452286 -0.28837470841694113 -1.6134324751882532 1.3566475983133968 -1.1529038139715573 0.7138946931661406 0.13555499978392238 -0.7939618224609547 -0.8828654007783278 -0.9820596262028204 -1.8196983906303221 -1.1572649249135083 1.3768441289436417 -0.4319305740861019 -0.7369292169974282 -1.4798819587472205 1.2267613773043688 1.406974644490457 -2.0073241914535185 -1.7415021675135045 -2.3975232272838065 -0.1632439174451037 -1.281105913576226 -0.07334710631606277 -1.9086983181534667 -2.417872902221387 -1.024330160397668 1.7954421726001113 -1.5879465035343965 -1.4826104300057648 -2.2164852845041367 0.5826678056248691 -0.8261945427390632 -1.30640887108391 -1.131717488116328 -1.0240890023599936 -0.43181693556503337 0.8560844746835718 -1.0426937570524022 0.6460226345805601 0.3185601347443907 -0.6948830589296062 1.5498373745808403 1.095941534684563 -0.08110165317859673 0.22367705553841385 -1.058361915276334 -1.234196745996029 -1.8766550243633981 -0.5886370140702732 0.04479472918165887 -0.16727878918124267 -0.1380808693413607 -1.8383093660837515 -1.8858271533259998 -0.7660013021718494 -1.273730772370901 0.23926218276438763 -0.04708440807824756 1.172667407611318 -0.886896236828791 -1.6167677162802847 1.2114222774316574 1.3971922890049977 0.7829622878041242 0.3850063137620874 -0.2643314327799693 -0.30778817648239437 -1.5003026681059626 -1.0150975879621804 -1.435090361286806 1.7625142946363699 -1.9479173890423176 1.172515066229665 0.32947020793931653 -2.0124727855360023 0.45821500668067056 1.3929656570135114 0.4976130429881108 -1.749717859263177 -1.728980747334068 -0.17982171775452135 1.017009904589298 0.9193276897261123 -0.6017875058524658 -1.4104714741496742 0.9654270157129615 0.7106626698663687 0.7384131701836959 -0.2070835660121539 -0.06113629225808479 -1.1486679427109454 -0.15007717715026014 -0.9845198774596688 -0.28878982068154035 0.8180037887507869 0.9747808573567432 -1.713078149553341 -0.49073396913244255 -0.9207759982294683 1.9043967575253344 -1.9248929097931615 1.8133148482534682 -1.516358507800957 1.7826493874369278 1.2273519405304931 -0.4525282994790244 -1.6189057390446755 0.37240648945353255 -1.0544797895419684 1.2005898130643047 0.9597346640261443 -2.020332939267426 0.46660401658271006 1.4013026028332836 -1.0802340360705638 -1.202107950377221 -1.6573267809934007 -2.062363332377242 1.1977460175537038 -0.29696288513005387 1.1649994102471073 -1.0707426817229442 1.2211907984245094 1.368133940690522 -1.8335704097878507 0.8155510168826648 -1.4047927153178568 -1.9212305090332806 1.5050476731174476 -1.0797852618928538 1.536314314963468 1.7706269327195892 1.573888689803895 -1.7012252777858874 -0.31887888568400896 1.317193455216499 -1.210737061887487 0.8110483113422914 0.9065033163488939 1.9651716718361245 0.7287179842627217 0.5314241747803691 -0.48477970139507587 1.0917471148865197 -1.072743311070118 0.41959602434683285 1.5000701621529735 -0.9742445296131989 1.0424361998518625 1.6652241038560294 -0.6121863747239212 -1.6991172041704175 1.1481049498496545 -0.7015712654462697 1.5250577442795692 1.0173728662600274 -1.532993402728862 1.1320734527913436 -1.7031500454815554 -0.8166482737688348 1.592569316823139 1.4736877850751608 1.39855925553122 0.33290155905366414 -1.0164462624617097 1.9301485939696337 1.7822943327738137 -1.454901595600641 -1.0740558978102495 0.9976190673216089 1.6208343840453152 1.19615094045177 -1.577395150858248 -0.9523087057431667 -0.49977722696854393 0.14283417169936957 -0.6443339579760429 1.415510624399994 -1.65772223291721 -0.8807541093880045 0.5824265442400194 -1.9380864534073692 1.564232976986816 -1.1186801073417398 0.5525826264885383 -1.6851982370076828 -0.3501172347045768 0.5602996453214681 0.14811013240592097 -1.4198112635600615 0.8646542254958928 1.5899606137999085 1.274861548535325 -1.5126732617778669 -1.1420521757164697 -0.9088960903937542 1.7419222363160858 -1.1421578486431314 -0.2581725799897874 0.6120212016198723 -2.0019730144916434 -0.40446643822369827 -0.910229879592235 -0.6473259535884273 -1.5860875812291573 1.3776734536427961 -0.008449852740860115 -0.3294851693188294 1.8436663278510739 -0.9386954360237613 -1.2584622461593096 -1.6268088307714308 -0.0012007057571428918 0.8612569780278126 0.5933566353865344 1.7319262163778588 -2.03665446451615 -1.3499141486635349 0.12819672255657322 -1.1751126511748795 0.15463400002324196 -2.1530311239940993 -1.1583957003291654 -0.8580005580831717 0.7418090246333936 -0.45115910056572245 -1.3065650102548478 -1.7323108798527325 1.5729463687000411 0.15149939205425608 0.3462260465906347 1.1412731642722436 -1.031993341878083 0.5883283500790959 -1.2858711307222885 1.0436302501954564 1.757186168448272 1.404497216675558 -0.8497925088061185 0.45314420582273957 1.72992063547223 -1.3003323897306438 -0.8312738313413799 -0.5744251169648051 0.6707432857916047 -1.1058732727226384 1.9223165688871562 0.9989950684387549 -1.6883478044895184 -0.39375282617586643 -0.331543144340924 -0.9438521661736455 1.768697894846631 -1.7162285323126374 1.8014380377864578 1.4509478577091164 -0.22055329047004324 0.3521209976489257 -0.6390222482177649 1.6028113021080739 -1.6477042178619388 0.5782978302719818 1.916712789033258 -0.12919157691298802 0.8939390378580272 0.6685045529140337 0.38019297056946383 1.192759013065683 1.3090034865965017 0.37465025660058043 -1.1725056567088548 1.6471272485288564 0.5993552262230686 -0.04850245577835405 0.0849976080744856 -0.5751833322479725 -0.6103233621438444 -0.9232841838296239 0.06577616040981869 1.4345579179824133 -0.2627905465667097 1.0562274130679439 -0.4066275571168243 -1.2235713913536028 1.0344186499600259 -0.2917630770620043 2.0281623007122396 1.809240869252294 -1.389871854387074 1.547742146343299 -1.9968441605312823 -0.683971943834455 0.6390786744569624 -0.6072132920606957 -0.7162724303821549 0.21246448952793737 -0.01539674965196551 -0.009537704311191768 1.1042350264736722 -0.3510185630837124 -1.167599675901086 -1.3047947035418221 -1.1246830443108993 -1.470819972392298 0.3910560409182848 -0.9629753841468209 2.0443493460880324 -0.20290348642785017 -0.0779052268933146 -1.1372397014414772 1.2796611060853937 0.7197597332499197 -0.35816345315577475 0.6419587224469355 -0.9135277564529635 0.27628336731274433 -0.459448796991815 1.7765797372769208 1.589998359456965 -1.020427287091912 -1.9174053898737013 0.011187105870159407 -1.429000066530418 -0.3741938750682431 -1.0838274076548855 -1.5566473806889984 -0.25446743855572623 -0.4007002229076759 -0.32748348419072215 -1.9433998796930432 -1.572363751303726 -1.3480160548013687 -0.6675897017370759 1.4821810039609908 0.314198812716846 -0.9130488237699638 -1.9877524520846663 1.2641741806057898 -0.049882610677696754 0.6789866849257111 1.254444765495047 -1.7749905633289786 1.9004259226579463 -0.2170134619908441 -0.3436949424147771 0.5448742679311416 1.5865820940211208 1.6718506356777425 -0.16728257870178292 -0.15594971882533967 -1.5699980372091953 -1.9337199657122066 1.802949056254457 -0.48231835517280885 -1.1739652814777348 0.3692008990344416 1.0356863320969614 1.459758571025779 -0.39747248986859474 -0.8252060232138488 0.028617730904354738 -0.4979727769085134 0.10510323755283568 0.43105762004671494 0.3767614649178544 -0.6121538864630015 1.8349599798924194 -0.9235835398050386 0.057409500162583095 0.5684173922125719 0.3004195948001826 -1.9455568986860803 0.7810565149161834 0.09244806123333299 0.9362033360983449 -1.6853549385763373 -2.0911875227235743 1.6323391063150299 -0.13509742599360877 0.5560125989704934 -0.7394177654714789 -1.8731250972985467 -2.0101526401782968 -0.6191630674968479 1.2204082839825885 1.7232883378573445 -1.110993532517299 0.3081693046597504 -2.2263292787063107 1.3871474322098005 -1.9596177074311132 -0.5702941317081771 0.08407046183431284 0.6911939625547964 1.26721554824708 1.6087465973461421 -1.6537952713879163 1.836968478365687 1.7803278378152232 -1.8232032874747122 -0.5128624387066326 -1.2260016732833492 1.6218346467721436 -0.7318732070840579 -1.2238134551236055 -1.0723931012685612 -0.5819405722717302 0.5906864716824038 -1.939027840077657 1.230869078889473 -0.4809460839010677 0.04928114645735121 2.111034657901245 1.0861221257178042 -1.5339632516036994 0.13400589473918545 0.007910423352667124 -1.4756080065507948 -1.3480594603147282 1.716650141996082 -0.11721658308184475 -0.6173697894825845 0.38242330404668756 0.4966324201367006 -2.103316047564119 -0.12008459381944322 1.0157875309283932 1.5662578018060151 -2.0045060089039173 -1.1236452345779653 1.6266973298889527 1.765069958022339 -1.965974068472101 -0.16503169625566652 1.9940586501785351 0.7384475306589067 0.807454310409907 1.417017535134189 1.2406572689064228 0.1947684404591147 -0.506421426242249 1.3646978101681586 -0.49671893454560295 1.4302130041975978 0.19192379871705062 -1.843165551725945 -0.6404850254368236 1.1324051561537272 -2.0236847500490214 0.4686719994779165 -1.0758627106375014 0.3866705740503764 0.2596188327586649 -0.7663326366875963 1.3446950331596024 -0.10240849411621504 -1.5020522806387597 -1.1529410328242105 0.1858932242729531 1.1900934188481123 -0.4001279071857654 -1.632771265174995 -0.7736774286666316 0.145341033769889 1.4075713735540845 0.10317788468126672 -0.8158138427652527 1.596793050634676 0.33195632124282465 -0.16696060539723645 -1.7564820373764702 -1.2430677750060164 0.5964230506402161 -0.00904758059157891 1.044512065316004 0.16806296683271568 -1.95927400842828 -0.011374232855141341 -0.3685215488092452 0.9087524208257768 0.576169874802726 1.8185008975583792 1.451102605982766 0.9247043739664708 0.27965912589925823 0.3371655586990193 -1.6943222944354617 -1.013150329365105 -1.7853600902431863 -0.6748801619939493 1.1540954518856816 -1.382995261187638 -0.2270802168940507 0.5545772004872135 -0.17743480215827753 -0.1464749102970532 -1.5677475815678392 1.2774870455475287 -0.750885542300643 -0.1262111519480262 0.9580477852595451 -0.6897178109203735 -1.3480350543783042 -0.3360090340951445 -1.3787678213627566 1.4672871954824145 -1.7296871261518176 -2.090665845678745 -0.45299627718927604 -0.9245868746806806 -1.2971338684886764 0.06991152470263633 0.808562218821896 -0.14708056452218143 -0.3546000037126216 -1.322004245348539 -1.0030783274804576 0.2827507242219949 0.5183773039375963 1.7480129529565773 -0.2627240486123819 -0.2290515774435743 0.9833119035855847 -0.5900462177092096 1.4064333816702506 -0.14079451718533698 -1.103773550390778 1.2794382470387087 1.4362127783735523 -0.9461654276173999 -0.9138475186370586 0.7046321104683254 0.19792086774019743 0.7276195511446005 -1.079124906070133 0.682715381024154 1.2580846805997008 -0.8001642325672673 0.9371092314136138 1.0484551641960194 0.327460439425743 -1.2318528659564056 0.9656117438700144 0.6830271889214645 -0.7181370584835279 -1.9722565854122258 -0.15006599920550703 -2.31089610683052 -1.5251311018838687 -0.9527052191618521 0.21140408233490904 0.1402609143487479 0.49660545924142496 1.1242202355909772 -0.31290421815097785 -2.260874310913435 1.3908355691398762 0.2854308843561226 1.129134152375266 -1.6392915403875405 -0.2378060002263988 -0.9429785584685019 0.5844143219284079 1.5792008461960825 -1.9000778399531135 -1.5909870509266284 -0.420357464989105 -0.8302886250894242 0.577270469893716 -0.6418340787300257 -0.8542771367872916 1.2069992297592105 0.9211993048988586 -1.49417017266308 -1.1509801570931966 -1.330044953475523 -0.6681470337457511 1.506632664960071 -1.518213660999395 -0.7476038327125021 -1.611376652763872 0.954595504078509 -1.5919995513908654 0.6518271534675744 -0.9454435163599952 -0.6269382004818541 -0.15424372628188562 -1.6275344226898425 -1.304610059260089 0.984609561728505 0.5563792222563101 1.00684818935497 0.7676434632043865 -0.5222017798443161 -0.045533457783093374 -0.8971001964318407 0.4835360898300765 -1.7549230028305027 1.3422722149802437 -0.9098156066059332 1.2308754651698688 1.4125220020816411 -0.6777055198303767 -0.8235067141508584 1.9032807169098769 -0.42118161241993735 -0.43190727002909557 1.5695773297102227 1.6927244543511457 -0.5484382200062188 0.34413388262514366 0.3391910352818308 0.9138602373279282 0.8424628207730455 -1.6150956867069441 1.076953370629404 -0.2691660907241548 -2.0256974575467677 -1.8566806770737598 -1.9031856000258527 0.4463688670435632 0.11703989918845273 -0.5365879598158889 0.002417204993123852 -1.0276150362116903 -1.782116816504491 1.2625657309293257 -1.0319008459747632 -1.781257720206679 1.6468713187701807 -1.6885140016998696 -1.9726894120736564 -2.137770332607502 0.8528438900054535 0.36705498628284583 1.7036147754014368 0.4262421785277386 1.5574881073869686 -1.5798773333683296 -1.4474330155127493 1.0920850755606655 0.06552627971639363 1.6631071336941348 -1.271310464646661 -1.0482656064992686 0.20984866451443052 1.8163350453552587 1.7495099389924398 -0.507781313832068 0.4394101688138859 -0.9100844241482308 0.3614346897939719 -1.1781117261694816 1.4914515541657982 -0.7920704223849655 -1.2735783290073495 0.24545435590695788 -1.0322841515600987 -1.8176436096001887 0.8396864846059905 -0.904803328154791 0.3500411658583279 0.22197031790336127 0.23802575979829615 -0.293895934003642 0.607190559506631 -0.8240258104825711 0.2926392124201298 1.0282168214423852 -0.7039161298946245 -1.7608822155618213 -0.9945772398571764 -1.850344551191293 -1.5833799872827026 0.38504311401253394 -2.0048739129865276 1.4120470353742027 -0.11557923876771552 -0.24329359083929164 0.8505038786990592 0.5783919654713177 1.253385037862576 0.9699608473158527 -1.438168836245663 -0.1434908790038103 1.2541819374028746 -1.3916821770930397 -0.36660391191374775 1.4036609251581886 1.3885791454238392 -0.602354415426071 -0.4013013163167192 0.7884284798132841 -0.2891499220857176 -1.1835643143893073 -1.1301163841520523 -1.4943518073669866 1.4133154559947152 1.4047526529083876 -1.3723704699502792 -1.1182669981518905 -1.240271331013645 -1.1185708848350102 0.22917154413702506 -0.8185071193942289 -1.2361520976150009 -1.9463876727776805 -1.6535963402487026 -1.8597601253639975 -0.22983666466963495 0.34671641362283706 1.9124939829508094 -0.6271452036892706 -0.15978998218127158 0.45046898191415047 0.018452979069607193 -1.6701138927881822 -1.243261094190193 1.4308765653425044 -0.8549272251354293 0.7929538658732765 -2.0662296323232825 -1.0865951478053266 1.7315610788179887 0.04233068735673779 0.6057921168236003 -1.1330662539373486 0.08913725389025415 0.03585501933296583 -1.4456892232823937 0.8337355451652996 -1.8439176094523462 0.25876277664597525 -1.494021518225256 0.3245317436980937 0.5040889651078093 0.9367751473846755 0.4388286758296721 1.4465727017855334 1.1782773792547383 0.7625587038165456 0.6425599255823685 -0.11615941477290971 0.6839736961671343 -1.1834704361153863 0.2347850896456815 -1.6503524472285347 -0.990969640178906 -1.0587387383385765 -1.8656637078931961 -1.9044759957201733 0.004253461645034832 0.6887372065659572 1.2434506930480262 -2.079994744730478 -0.7215370553542658 -0.5608595341692595 1.7555618754165936 1.9391418951418644 1.2417266580312853 1.8827362206076033 1.5920343799806824 0.4714373571336809 1.0249117810719315 -1.134580252429014 1.9030683718603736 -0.11548420723053286 -0.5626713630840686 -1.253037752828985 -0.9431034643468756 1.4142766899900914 1.4252878376111933 -1.6424748050462257 -1.9464896139296348 1.1093025464159536 -0.6285926178334219 -0.6057482878069436 0.7227654633818308 0.1665508055988699 1.522515657938856 -0.582554595111844 1.474047641156008 0.3646338387828362 0.31940760453817546 1.0385413813281843 0.2260389441910117 1.7011826024650776 -1.3854335630692542 0.006085573904356432 -1.6885970333396647 -1.2673920629736513 1.6159797671671667 1.2616068396388445 -0.10029657574866421 -1.2636416859220008 -1.7774313657209366 -0.49605372533884495 1.8922416734983647 0.12772680955012053 -1.7746136342902856 -0.15700404890551314 0.4823106767404566 0.892304506870813 1.7401701506694183 -0.0035222801060185837 1.5121277050426396 -1.523325409232259 -1.077975443214345 1.4568945739825565 0.3990841732356562 1.24058650708142 1.7431342139873698 -2.094268396570613 -1.5974498893337143 -0.8498709186307578 -0.6453898322832129 1.2373542238247024 -0.5505605489246983 0.25674837586259835 -0.5554696836787146 -0.8680283606238887 -1.985573667705437 0.48069620446456646 -1.7115331698285496 1.300294790028925 -0.7305872252212783 0.4103451059035971 -1.3264516003252391 -1.627460315323553 0.2887238243538306 0.45971313015747994 0.3101103288459663 1.540368801624728 -0.7169400764625863 -1.9423203708854093 0.36605607319736794 -1.132582715384181 1.150163068907628 -0.5413939184925339 0.07244316886063279 -1.3667300474450736 -0.44823512525702225 1.184472193484502 0.4896233248288244 -1.7022959798002408 -0.847601263354197 -1.0612461696464357 1.6826607020376367 -1.2250962328501593 -0.8495799756406499 -0.1404083053490477 -1.224826091923994 0.3124052911825165 -1.298645400761995 1.684659205609836 -2.159545350270758 1.888468489238788 0.22555341525048683 -0.6370731430601895 -0.5297583737474676 -0.9406192891072261 1.2621510679175965 1.504958243070086 -1.0118788129952325 -2.027779980207683 -0.6923199344860842 -1.4106019057160375 -0.13440356284441382 -0.32103796020284037 -0.8650787263340078 -1.676125925281233 -0.6234613239832522 -0.6854291316758417 -1.8901198092024447 -1.016055022240975 0.3317607291728279 -0.5606130174745656 -0.037432936877479006 -1.1091017849097407 -1.6711133314700195 0.44780448803434897 -1.415747130539683 1.5652858793087243 0.21605444869608562 0.8801434878448616 -1.429753546859499 -0.12272298419896865 0.8465368840281481 -0.9052487982490023 -1.7025308546325204 0.7392029761838934 -1.831979202909695 0.04305359624233705 0.9483578736485481 0.43514220869915116 -1.5798720375746624 -0.1854019638813281 -1.3284993305829742 -1.4213091270264842 -1.6262995611404087 0.22029980343901523 -0.8590091480314949 1.3547701186689336 -1.4564896757354724 0.029336485521216534 1.3364320535206653 -2.0380866321562228 -1.745311783267601 1.6265299586546045 0.21364328477487574 0.915010923985163 -1.0698625829945962 0.9487813534841144 1.3707969846471821 0.14775885531413493 -1.3692518694401221 -1.6380073357046292 1.6175050252403829 -0.9798056987289288 0.05403972376107193 1.855123656122264 -0.5483239849235488 -2.0197131666090353 -1.7350721976264671 -1.3788630129501915 1.3996950536968888 1.3738829682549891 -2.157085527238731 -0.7236890339026582 -0.9365805457848577 1.1195325535572414 -0.8806211172681339 0.8446459949932688 0.5736826321669936 -0.17988201533310552 0.5980018494390261 -1.9496997854618718 -0.9140231303604172 0.9007800889206372 0.019949579979701402 1.3201159560625007 -0.7546261080402661 1.2029838661201164 -1.4710856124561567 1.5013645541968625 -1.724586391712792 1.012062892182828 0.04792718330315956 -0.43752985210938444 0.3271810391514315 -1.3475482982299793 -0.937204177703713 0.23403286167045487 1.417020071071802 -0.5606534368990966 1.5232206925145402 -1.645057891676281 -0.1397115018311162 -1.1632944444640765 -1.9968604407220336 -0.894046752411513 0.9992823703403131 -2.0076300901772304 1.444238456646729 1.0183554823214072 -0.5925689489518832 -1.414303486269092 -0.764108191718718 1.202980724234038 -0.8385888998087322 0.644598347440744 1.3314436206245635 -1.7733987288180304 -0.6304590440813508 0.3988543619296809 0.2826281139222753 -0.5319019643522631 0.8690719040395765 0.07294345212710074 0.2796748072797591 -0.7244670802721553 0.4938196575736535 0.8754746018272896 -0.9995699268426034 1.7760319122243746 1.821799176280404 1.7091614751081525 1.5301050382334385 0.7508963227075355 1.4836895724972154 -1.454953909862186 1.2521685986697972 -1.0800031500826268 -1.4318012447704052 1.0265058059558867 1.7419586163808543 -0.805674351443335 0.39909891939823205 0.2233077578350804 -0.8737452080382562 -1.0061581157438408 -0.690991594965015 0.1416599648183717 -1.5209227711924342 1.1787672724466733 1.4173689091314927 0.17907785623752426 1.1560494393937222 -0.8195638826396576 -1.6086129881580258 0.6183599208075509 0.22338663249135748 0.6808285941657204 1.4169241361356646 0.5421212410500799 1.539544475797768 0.29356165558651864 -0.3170399777105595 -1.5084487494439431 -1.4580154421704483 -0.9354266613175234 0.399296244619545 -0.35392236713561526 -0.7601302542965355 -0.8817080803858761 -0.5705013354601851 1.292286226023945 1.8692266780090987 -1.701910388214096 -1.2308642526317486 1.0367550328886643 0.3990634465500957 1.5358471762644523 1.1709360029365863 -0.13878234188794986 -0.7810726499976657 1.01400074526069 -0.8915792385463414 -1.252292957412787 -1.943612747796444 -1.2196012678901063 -0.5213467122834439 0.25237862440759373 -1.0895115075904447 -1.307428236656055 1.1621573809459436 -1.7846128319040575 1.0099984316738004 1.2684244319589817 -1.9814340056756559 -1.261160493327583 0.42238172110088157 1.680146463342366 1.045164076653213 1.60086392979646 -1.844621687460325 -1.556350020209862 0.03220533009794203 -1.0583551769380757 -0.5606470860600606 -1.4224721734479011 -1.8352470263529714 -1.1738079308248477 -1.3426229337935793 0.8959173152331864 -0.6566899609820908 1.031920235478315 -0.7178226699645727 -1.1040578960418417 1.1672462779880817 -0.4763367395888581 -1.2882783245647211 -1.6105178242937939 -0.36057111591593694 0.7228973024233036 0.31803247367957765 -0.6551651753054096 -2.1545295618210454 1.3399209598554833 -0.999957907415897 0.5439763333592652 -2.263358055973399 0.9581811385644916 0.12442016454379287 -0.8174895272462201 -0.3460484247975805 -0.8709775518473346 -0.39035548498846734 0.49542402184554923 -1.525011599374921 -0.03474775940927216 0.7810433513359579 -1.2841148206192514 -0.6558621530439119 -1.624037418902637 -0.9258099448617222 0.6450887309268014 1.3354695324786334 -0.6999581237059066 1.3905699417078243 -0.9569475440861968 -0.851871245043159 -1.004858372117984 -1.3743181683057948 -0.9896496594846775 0.3436027168597009 -1.9416601366418118 0.5841379026709832 -0.35273072407385486 0.0006459464230662182 0.07201469570203083 -1.4036332967044378 0.5179069125483936 0.6798535689601511 -0.7400608471725578 -0.8059870618655824 -1.8523558537588 -0.11142951495472617 0.37202001598079654 -2.1382748308719273 0.08364769099589563 -1.9958699760477223 1.0838893485460173 -2.2137163599765737 1.6227433355603007 0.9313216044630631 -0.5338174736061383 1.6558844065801634 -0.672310339496753 0.8524588294995638 0.15396909648367035 0.38695954791692555 -0.7374415119355437 1.001849029157746 -0.0852088018712682 1.6868762744831702 -0.1335195171379808 -1.2985077672982177 -1.6673639079981146 1.4952173024275166 -0.5975819796325684 -0.864520615407224 -2.363963363439299 0.17931231545897747 -0.015285628308518099 -1.4598041161294852 0.3116668141429224 1.0404392846950923 -0.07031968052906935 -0.7519107757265617 1.9348348796865817 1.651998922427246 -0.3259395589165932 1.6475691768295289 1.67413486314488 0.2529118766446828 -0.6190960343232735 -0.41435674851135385 -0.38967582417366137 1.199723192442767 1.3813240085526002 -1.7314697045429037 -0.32454957115419736 0.6865471704439724 -0.8224931138320969 0.6600692416940983 1.6915591284994296 -1.7531634356996768 1.4796680882804814 1.4230753947865413 -1.7775966262239258 -2.0260766238022434 1.325276588538784 1.4561430928375914 1.1493418069372208 -0.5699270110861285 0.40782071892405586 -0.6351118208420994 1.4041479078140178 1.5934024380584781 1.095357783466764 -1.703113848144752 -1.1438010132843848 1.3729795487883332 1.57376409632493 0.749047826581913 -1.9593763065606515 -0.22411023708312144 0.5950476439457133 -0.798546086732635 -1.1255418228141885 1.494906587719396 -1.0764225049927225 1.3090353113037279 1.7279967157298088 -0.8126059182520962 1.8048787799825052 -1.4585928779367945 -2.084902641141254 -2.023022214537541 0.18393022684510088 1.1801188829011082 1.867515037112877 1.1249845302125179 -1.642147136019225 -0.8430888556339573 1.64170271805614 -0.026809102265014605 1.6447430105428555 1.2866933997912768 -1.5425634714682854 0.30128158112611386 0.3127119329959234 1.2604336758217056 -1.4573131131804875 0.9126236543708147 0.3289743863080324 -1.1754762991997967 0.29454732923320703 -0.05021879201246573 -0.6700510568354531 1.4081556425199404 0.4570525708049723 -0.10425647878969732 -0.38922409484711573 -1.269066353221332 1.5568981294865152 -0.5695078698125385 1.2758840144892192 1.7954932658632488 -0.18948793788020524 0.5130852563063499 -0.7729990397718064 1.7686473003733596 -1.5192047483269304 1.9406741170464812 1.8393001155749502 0.3029381816439476 -1.628793443969623 0.022311649313361163 1.2157655792162694 -0.7732767833529436 1.4593465439709195 -0.469334214846743 1.2993050001008473 1.6910255505168736 -1.3218384214488839 -0.003061990897931928 1.0141103322530691 -0.508605795912043 0.16391869462376726 -1.8901163708802255 -1.9206613394491576 -1.1633700187514993 0.9567491288144415 0.33685641356419777 1.0058778789986125 -0.4920954409030623 0.8942389141815996 0.9449268065741167 1.4360368724465773 -0.5902412669051075 -1.2132808758692502 0.011046024428250353 -0.09940734253054913 0.8642210625222072 0.6915084596499474 1.153301266958214 -1.1592973559268391 0.9162154447589929 -0.18053410466350292 0.29477869094908477 0.7196276025290836 -0.3828072331228339 0.02464697427936086 1.0224755551455547 -0.9208796107520992 1.8988968579021324 1.080859237859136 1.7646016397655988 1.2758453621545793 1.737491882671107 -0.09492437605676769 1.5318280684848073 0.6743260190409034 -1.920083028740633 1.677791053355142 -0.22953347866221968 1.0226357424229806 -0.980031976656898 0.31036997189628834 1.6608554540612197 1.4262685832226742 0.25264170469638797 0.8405482833331025 0.35438420894214984 2.0152419639991996 -1.2059432006685018 0.08749385434553315 -2.080036532399983 -1.222811622779309 -0.6609119352894949 0.34269948221911584 -0.49013984463420623 -0.8336786609206801 0.8279044855301159 0.8667301281726908 -0.14441914495127792 -1.9199416740273452 -0.5950325415022659 0.07787708603755537 -1.379003754237451 0.9766095826416944 -1.7578160812908195 -1.4959939623890703 -0.3678049316323554 -1.678320404001886 0.38369817327494427 0.7776947083880473 0.9200937935359107 1.2407663699906006 -0.25245995896234763 0.5150294023863272 1.142103810529823 -1.35834297124361 1.4111892002854467 -0.8754848412462845 -1.2509263978832852 0.06895551488929856 1.82473194761569 1.8652812091085578 1.4951655163508146 -0.1113160702699599 -0.2646001420701644 -0.4731205044163186 -1.2724491626126193 -0.005673806767851548 -1.2249380696651668 -1.7716961467717147 -0.8933371374852974 -2.0481923248577334 1.42109498715451 0.2836099521894423 -0.17788482426187802 -0.48611328306245866 0.2952384007484628 -0.0015471020997917947 1.3213848638133785 0.24347161898230443 1.8976777946121306 0.025101194475092396 -1.7985224166591711 0.5402622342443079 -1.1227021206124825 -2.007260138566896 -1.164604559563042 -1.5780797004520841 -1.1252938213415689 -0.011159709219643444 -0.0015607952434432255 -0.2892279218234754 -0.21157528987750124 0.4434600800482206 0.29576199088486643 -0.6255919036521327 -1.3797855556413947 -1.5109055918742231 -0.07205304241675146 -0.6507814764403816 -1.7074114299105942 -1.5289419063933907 -0.5285884887789185 0.6515344299331902 1.454334616958069 -0.9364638219900311 -0.07100082371828122 0.19647051552963446 1.2356161600790094 -0.6421576254072129 1.5805623902612147 0.6787059302851238 1.6346167630528705 -1.1477448432343549 0.9174517538004641 -0.9452464931621258 0.3841064412049677 -0.7672676012752823 -1.7781369999374526 1.469575515925241 -0.3469616748426778 -0.5588045612169701 -1.3010881443346218 0.19740616107383568 1.965768798061441 0.4325811575473424 -2.0687973634508885 1.8395913860660646 1.2327117992484125 0.7324170166255629 -1.4680603154767238 -1.5888147644080024 2.066207676372734 0.9288255524378106 1.731778938879732 -1.7563802985286483 -0.7203785732508702 -1.8368552874202129 1.6772444983592605 -1.8645353146084502 0.8586272782543581 0.3655059594086686 -1.546070716668243 1.787225843713459 -0.10004295603391446 -0.013105905622996567 -0.17608101249930624 1.335961497670234 -1.8403674341499936 -2.206831141133966 -1.6227692348514584 0.8920131750520176 -0.7043793559918091 1.751406043914297 0.6602502702672708 1.754833743399232 1.5855019652898015 -1.5356998015410526 1.3893176322595902 0.6750380501388661 -1.0744173571514604 -1.149712829869177 -1.847390746138337 1.3462960384692386 -1.8809047283206006 -1.1557833745031405 1.2240682281529867 0.3103768444972286 0.05848649328762857 -1.3800891533973743 1.8263931749203697 -1.7061039568197485 0.14478358347424278 -1.8447549880364176 -0.3965133704329144 -0.538689907268038 1.1136785050801965 -0.7065050657104941 0.5464402957664559 -0.06875571137538032 0.07019013823191816 -1.474768904521995 -1.465053851055702 -2.0176932987010323 -1.4919939294916627 0.18788819766276854 -1.937656370520447 1.04630509600012 0.29791413944004247 0.3975138738090761 -1.0818530536728923 0.1864530166606963 -1.7433663102803052 -0.0430329445087073 -0.2107618146124235 1.218224495461399 -1.3874140301695983 -1.9104178261722708 -2.0870168337121533 -0.6684114117670872 1.1286637285121852 -1.0297886739988757 1.6281259935648704 0.9167214823248887 1.5040252857366543 -0.6298894981279536 -1.2745518273236658 1.3119979349743358 1.1312579674270231 0.1400153695558038 -0.2715288982195038 0.4633362041501159 -0.5641974230233643 -0.9807559842926722 1.5907868837924244 0.12039480454564729 0.07534296305063938 -0.05934315156419615 0.4670561611846746 -1.055910732390784 -0.7368335362056891 1.4413806444026165 -1.2700726774271303 1.1513063400714545 -2.0614267312892265 1.125073025300263 -0.4319721693425834 -1.0571736088627621 1.0300873131912602 1.7741330452302289 -1.0177785962236277 1.4056923565664468 0.09360539482911166 -0.943702030151487 0.7068916485877086 0.6580079543838188 0.6268637604936416 -1.2412036311815327 -0.9881735148193944 -0.04558329171045024 -2.060261630593909 -1.6605364879205973 -1.6283875780883919 -1.601569873258523 -1.116963050519295 -0.11389481244518815 1.7856873703809977 0.992694308104975 -1.4390759355169298 -0.607460109710118 1.7280823893690735 -2.2248398627757138 -0.5275771053540732 -1.4823720708693802 1.001238957289345 -0.9153121083615182 1.3890837349493907 -0.058551715440912644 -1.2400755770003562 0.4600638834116612 -1.5896568930789519 -0.8823441906840347 -1.1898132745515004 -1.307239653652477 -1.3429409664037175 -1.8109400573341001 -0.31802465693283316 0.9045102669293963 0.8772691086059303 -0.5540197929080836 -0.8357202409398538 0.9183696901519053 0.953111693092235 -0.3424769727131829 -1.0705227533433708 0.3578774503021915 -0.3595321560390174 -1.644388735761096 0.6105323526727195 -1.7108972127550635 1.4291597985058266 -0.3526324155455325 -1.0888872324960195 0.9795195720700492 -1.2908808426810514 -0.15896550397903622 0.07946584221354286 1.600608473571612 -0.445623592609592 -0.33816980715911993 -1.9225053428670191 -1.7723452176384622 -0.7984310577827529 -0.22573258402478039 -0.3997538293536425 1.3521355750793551 0.648204121784022 1.6810175415990662 1.0556118672924055 0.8612715436015577 -1.1343548038088702 -0.02691355986120418 0.5881952634365055 -0.29094147385606856 0.7253774965137373 1.092706192595895 -0.09463311471772344 0.11058500352241009 0.48698762457344913 1.501497677485128 -0.4014604963112287 -0.4388521941856597 -1.6775169675334136 -0.10533149642285787 0.33729254458247127 -0.5853742705074554 1.2308307816287274 -1.0202713586922652 0.278383972825275 0.7248815269527069 -1.2615265374911377 -1.8868080647987264 0.04402094927115559 0.2536159545021862 -0.9023390640024221 -0.8771781998184018 0.4770935891709573 1.5745103761362687 -1.286244330477738 -0.6711913941269212 -0.6863946226590798 0.9622591303742412 -0.23165777426712922 -0.13709735597070097 1.58519296502956 1.1334285290828128 -0.9894084636317556 -1.2877627674826697 1.5294921370409225 -1.6723906761653293 -3.867248204716711e-05 -1.5834177037806005 0.03511374214493607 -0.3280020401335477 -1.2361300430588287 -1.0923760015826824 1.104951353902911 -1.2830609994079059 1.4678133997586678 -1.2285984362621576 0.8279396479140173 0.33968092542312806 -0.737978626545914 1.5729941164985637 -1.6889609963482783 -1.5068346977849947 0.13424591859393303 -1.1212088921898613 0.886775168676613 -1.5844408706563835 -0.8451023116697916 -1.2556146133145167 1.071299591500166 0.4970327809050129 -1.4447219361180184 1.2087508156287963 -1.6451687925080818 -0.461241049034349 -0.35090800190243354 0.6248512297913974 -0.12036004449909805 -2.2253972957564376 0.6851793151337571 1.4302429202839486 -1.6410140697218998 1.4083501875933306 -1.9176421385441325 1.4086427794326888 0.3613385790667378 0.41857232360787966 -1.358178305764084 1.1714803705359078 0.09476767965693715 0.8046853688173949 -0.6255898631587559 -0.06492384210621305 -1.8372281040457932 0.4397763281182866 -1.7637026328829601 1.4992478034063768 -0.25071080297048326 1.5420333844899172 -1.9536139140166677 1.062027293402685 0.8999236433758383 -0.21871634801104145 -0.3817759716878569 -0.4403328363717929 -1.5606148487311886 0.40451542570762883 -1.1268785611259107 1.5412957593437928 -0.41946477005763183 0.6767305664214583 -2.188093720475506 1.3638184360697785 -0.2267609640453778 0.624096520650573 1.6941964134037197 -1.394181882548328 -1.9027537973609834 0.7732127548767519 1.6142225813063573 -0.7822012253464161 0.3571509968450267 -1.9063817561778749 -1.3216262240165872 -1.829407812274663 -1.5315605412962374 -1.6699194754248958 0.0411799878754972 -1.495740096747262 0.6179802311603941 1.9735253297626558 -0.37680024314546123 -0.8054881294463888 -1.9110434417469526 -0.23476922935099295 -1.1612551210405853 0.3723552802443319 -0.6132951432564856 -0.2243670761109012 -2.076519067945719 -1.7809244308677445 1.6374691383382387 1.7283723633346346 -0.7676789112148319 -2.0424018067473386 1.123325577665892 0.9410645831795489 -0.757632579748458 0.11303601840568125 1.4121330599481046 -0.3861547649311843 0.4332698155957691 -0.2154957720106419 -1.1848578545015265 1.4790421139426604 -0.4461840904965699 -1.924677354432455 0.2322370808759021 0.012160384223981135 -2.000233202080698 1.583433583073589 -0.10703136860843016 0.5270028935380532 1.5832456064383496 -0.24354603423389484 -2.0795108213471765 -1.1017466823164646 -0.45874071043856424 -0.27779190913166707 -1.827674563246642 0.6602662429189566 -1.2163015187614552 -1.8586046268337963 0.5888408914481698 1.1743786922327406 -0.10136501304438736 1.5593062960249071 0.6032052616425053 -0.5596650942069572 -0.7704094894941956 -1.4641979796570872 -0.2940020111233665 1.5115546483084679 -0.4923026144304015 -1.122681332547506 -1.3502729730349952 0.11364324718558579 0.3765530523047546 -1.717958207850981 -0.7429214976138055 -0.5982815328555541 0.2612509595412164 -0.4489358849354976 -1.5038733973071996 -1.4635708360692625 -0.07874552636796621 0.9218048997384002 -1.9452781327762076 0.3919236816972429 -0.7350811827172828 -1.464404851580984 -0.8242883478011681 -1.0372389137017775 -1.4666896055388967 -0.6087488757235359 0.5163271028927795 0.21705804596189288 -1.4415718116443068 -2.276107778808416 1.0019722496016468 0.7347464875404225 -0.9504870044495561 -0.21621566140310192 1.8219002756810274 -0.9838382828912897 -1.4375841734437627 -1.3017832862608938 1.391653726083386 -0.5488750126838849 -0.6233750878255833 0.7185903152734795 -1.009328170205629 1.4359279179540618 -1.6008538244328676 -2.020955446011338 -0.8464240104584947 -0.26789406968225277 -1.192333834114533 -1.3063217122587214 -0.8027094294413438 -0.7254347549412742 1.3240823741189829 -0.3380968065354972 -2.1597138387841603 0.38346941779982724 0.6163725695622263 -0.23764064899082643 -0.6212737756836927 -0.9909444845612916 -1.9776738167197296 -2.025974727186629 1.2578788193120878 1.764678343193222 -1.1724011195841517 -0.9774511615283031 -2.143553901831262 1.5622812585643895 1.422737975868412 -1.4858809565481987 -2.1700173125173086 0.4791541776830173 -0.6413871447087678 1.1305428808592173 -0.6059969104982958 1.6350850556691903 1.2097761321336913 0.6558338794087758 1.1396306278620008 0.791579213636323 -1.8145878901330523 -1.8414758112377607 -0.42927690380384054 -1.597722514966338 1.3363003315319004 -1.187618605830409 -1.5661411773227898 0.3106399518077266 0.027520068139505405 1.3035338163101515 -0.9301887123435104 -1.1183876400552215 1.4806665869826146 1.6268775843081789 -0.6507563346279355 -1.4326083883344443 1.3262518558294318 -1.392537543645721 -1.338335832565492 1.3087840959865416 -1.1855227190456474 -0.6672455424717605 0.8894517562067852 -2.018851128770141 -2.155150416749723 0.4076835275355616 -0.5817268385186635 -1.871187893480474 -0.22268407183845756 1.2541105312315408 0.4226145974015512 0.9595351440748592 -1.023556227127542 -0.40912324751121426 1.3917293125986718 -0.3138567359957612 0.4357106447035789 0.27467498232444626 0.5795780557710949 -1.7352326311449104 -1.8009642259217116 0.16246524592415024 0.4753174585537785 -1.4445503901140937 0.10125949134774206 -1.000701441708547 1.54570139644736 -1.8340001748839674 -2.127093361937185 -1.0278064252643166 1.4789550417035882 -0.5797864823782038 -0.5220657224969495 -0.32115585920343254 -0.016143686809617166 -1.7410459581791544 -0.8221310123959156 -1.8655469482858051 -0.05384354397170288 -0.14429073490800315 -1.9972711920635688 1.009131505900652 -1.4893645009359946 0.6889684586890852 -1.4083594112139548 1.9251409465165605 0.46482605821657874 1.7947055262518083 -1.4418391656930853 0.15606959663679837 1.5855601893004052 0.5590817032514713 -0.9627782154238564 -1.4114948459914438 0.47658352164067724 -0.6638627979388755 0.12429981793646025 1.2422533256664603 1.1730725492428677 -0.5471187417902273 0.20892234796578282 -1.593296904037032 -0.8243579075923968 0.005999621029680811 -1.242410766167441 0.1322521147645718 -2.2080560914059033 0.4513325061288727 -0.2035300075586637 1.0534539732762813 -1.1499480243850475 -0.38495299587467935 0.18315264202253148 -0.12848627034978152 -1.6974560334848203 1.088214854805363 -0.3513563738666615 -0.4275408864219223 1.064451992209923 -1.9862665434920954 -1.2355203145583127 -0.05566608913034576 1.153517920285784 -0.41585503383147115 0.539746229370155 0.013742163606116934 -1.2093126993967973 -1.4986775997156523 1.5829148127889823 0.7811966162643209 1.8530550172941402 1.0195139605477643 0.12247782457570953 0.8579431933946127 0.06658256512749815 0.9648908690016063 1.2194431762840523 1.8717036424172926 1.285932414025168 -1.36871589565966 -0.2698509469673971 1.0382217847514463 0.3317783596447605 0.5499784111717191 0.3353282343138509 -1.239164952952311 0.821442359869519 -1.5451064560023733 -1.7826636643430596 -0.7516124791523185 -1.7865932270901856 -1.6128981792193886 1.7589859884490333 0.7748618574701729 1.9073323061735306 0.8051134290502406 1.7599386264299532 -1.3331989220721252 0.6194119727181288 -0.5519064505589382 -1.2060962768902848 -0.809740433505151 1.4430097847768364 1.8691287249913595 -1.6915185871244076 -0.022658645540307592 -1.6156002996035175 -2.130906300991854 -0.6755685103230128 -0.4347313136296087 -2.204071913960815 -1.2674288892914833 1.569512563268273 -1.071542743835755 -0.8161248916735078 -1.352152898681803 1.4090204180835348 0.987336319532811 0.5443883749534667 -0.8111631339377844 0.6182537357279185 0.7987656078077124 -0.8302730592331408 -0.6498842979398556 -0.2615818767670089 1.3447241632779514 -0.5904858961062243 -1.7216546984834706 -0.38297194646232513 1.5233523256440562 -0.16948587988793368 1.5115148801710214 -1.5737646272867458 1.2289178528707403 1.4877399554967163 1.922856270997212 0.8756028369433191 0.2971811382378299 -0.3198799790180575 -1.7141393909245597 -1.049618326062665 -0.8945031544948389 -0.9644076373769231 0.252866979108073 0.4437898119939734 -2.0319028681544617 0.27059395227981753 -1.1510092893531911 1.3775014139213528 1.136294635256496 1.469431924438459 1.3183691485348903 -1.4448482826790385 -1.0001227356809637 -0.7112685435314194 -2.0961228071544773 1.009159525467661 -1.0866474109147135 0.1668948554363977 1.3104036275844961 0.007150392617808328 -0.07504133424863078 -0.2122987691447503 -0.4488878669804959 -0.7113954296042662 0.9268024196069606 0.2699255289692928 -1.824273332913208 -1.3482675663385926 1.8821666422360397 -2.1095055472893667 0.03724679136047182 -1.8074515805879146 -1.4435376023781379 -1.668964844856928 -0.6214049099181087 1.5204928551817471 1.604673894469428 1.5915823428959415 1.7591318979014439 -0.004068329684499014 -0.016215778406213164 0.6661703315721591 1.7851252069848766 -0.6916037762443228 -1.9628292200217414 -1.8261445499671394 -0.2552407753108772 1.186804407533127 -0.27245235919906047 0.1670449330121244 -1.7242904413962696 1.9670969175074287 0.31605420705381737 -1.1004494005638723 1.9454319908420548 1.3243887812703905 1.544337184195016 0.09083339813792202 -1.4336515383488204 -1.388714132560849 -0.42432194495386205 0.790562354000198 0.330786452448563 0.9751130551208893 -0.3959393639029931 -0.9111331247742677 -1.307729289569125 -1.5955174569074217 -1.0412593024888404 0.33951663305781465 1.1859380263991162 -0.35360500014725244 1.1146440737731371 -1.324133713398827 1.5957984861430752 -1.147543524958657 0.25746949888404064 -1.8643578225313353 1.507788252475282 -1.030797637217633 -1.2850555315485188 -1.4448542590185958 1.1895754082068104 -1.6256994261466038 1.0116515906642 0.9312621941306292 1.6118196228622768 -1.3499806281225324 -0.1973643151761359 -1.1609869146431029 -1.2476473216086006 -1.9752658349763121 -1.8911520145328333 0.7878256606388127 0.9932057165053182 -0.12667836229577328 0.741024704678083 1.4943686407089571 0.6546121837540748 -0.5596164581609899 -1.8263003278605772 -0.6681366444851183 1.258186022814517 -1.7006990323535665 -1.4370134684178555 1.7072892880825878 -0.18102993449868304 1.6772970642445306 -1.7014032344062124 -1.897325106463603 -1.7459629564357582 0.8623221379403774 -0.8128939482227475 0.21335537255326226 0.19337928881956096 -0.6217470837958066 1.1889815734239704 1.2850786529833425 1.5501938686494505 -1.5685688455139568 1.6496827423544527 -2.1771487156425833 -1.612617221993515 -1.157483516952529 -0.3206511772546178 -1.1509244452691625 -1.192011639490274 -1.2737474933586623 -1.0767343580398758 0.43194220163407104 -0.9296583836470106 0.3496225644546331 0.3522462342768183 -1.7457640421006044 -1.6058358109490438 -1.9767428369457718 0.8215538943198007 -2.006764193620521 -1.5873240906209245 -0.12438279193812685 -0.6005951127323683 1.8336004208808 -0.05952896907896468 1.380730534369439 0.010453050901707605 -1.144339209617724 -0.9291133696851859 -2.3219576751421034 1.4577880656651587 -1.659841330904495 -1.5416734137879995 0.6248469114197244 -2.1054100785251912 1.2227797705850678 -1.701506486361608 -1.6596874273369855 -0.8466382493292349 -1.7341878138780886 -1.4145439403823619 -1.4892755278667102 0.4316188610416126 -1.8352352131704894 1.6437740738675852 0.6852819701767769 0.6618844064938901 1.4531402631556185 0.7921410504042038 -0.7302108805687321 -1.6004367600670073 -2.201499192581667 -1.8096703268379213 -0.7706082326145766 0.5656457972718839 -1.92891358296533 -0.2697763909813856 1.7256087274589562 0.6620186413432325 -0.5550662626663614 0.06185918137126963 1.5414877184984117 -1.7764917807867269 -0.8612335568984696 0.5141547963433531 -1.81982645777978 0.8563993785871031 1.267639941951723 -1.343243726798853 -0.006749246808068003 1.5512831157029914 -0.9371276090013405 1.4986745896351963 -0.36268747035363613 0.830552439057493 1.2160219266791588 -0.26677467782995046 -2.214462915413022 -2.215310179684347 1.5184393707122352 0.2817861451891083 1.3643110959546632 1.2358503378654546 -1.3359308053880454 0.5341712233424816 -1.4746262467341624 1.2983278529515794 1.47446362100636 1.8394818738526701 0.12011572575306352 1.3732674877956947 1.6112612522456802 0.09185183722099449 1.50512690347706 -0.22235867968713868 -0.5814840490843429 1.7094349062530603 -0.19920263520958245 0.08769632936913672 -1.9873728559900763 0.38582259113820494 0.728021491299086 -2.2259745083266402 1.0921854960736976 -1.478651323134279 0.8761034940518526 1.0570639710310767 0.8735092979465967 0.4033420408724094 -0.43016245015628146 -2.274988791270715 0.21497352192518868 -1.6081746786160749 -1.903060072534705 -1.0127181359421393 1.0265958291658608 -0.0781785202062974 0.40886228665739177 -0.6748662024723376 0.4975118285430081 1.6521088031218396 1.4638978968289915 -1.9729798346512277 -1.4769620495113025 -1.6648792894677815 -0.6026636488909121 -1.909297225517673 -1.3947271363398077 -0.013124217573879052 -1.0509046219864167 -0.7288884537390211 0.607897981586064 -1.6971014779640248 -0.7236964476635593 -0.009300293163831894 0.11273257315205537 0.982469013950944 -1.5882369875999263 1.4002122842753215 1.538296269281416 -1.9262558265832315 -1.3291611411454536 1.1133895735072916 0.10515341002698979 -0.048324254946722676 -0.6241950308445634 2.0499365342993716 -0.3130649652164255 1.0916862442757835 -0.17308223545962798 -1.8599739359873173 1.329248783134739 -1.398227695164309 -0.3320408838325778 -2.1432896854070727 -0.02535362585105282 0.9926886146567292 1.4629383494571637 -0.15191467295233857 0.33302745032851766 0.4101094820552781 -0.6873648893280989 -1.542331363324752 -1.2735854827371549 -0.2912465006359582 -1.043379381211665 -0.993508536564398 0.8545956054632405 0.5454531848319388 0.4740243357038966 0.85154566299046 0.5402662234573066 -0.33268140409991614 0.3884974031311033 1.741103140772691 1.5420586084666448 -0.6640116113110175 0.6737059497107463 0.13156538675504434 0.8683792656815594 0.3355224201711143 1.4830879603630183 -0.7609831485345983 1.1635009701766874 -1.7772706819114337 -0.37854560970352047 -0.415349476874028 -1.9883911152527747 -0.2840623522909654 -0.35991969048133843 0.8083877456737937 0.262938687764081 -0.16490683145533183 -0.8316871057131467 -1.3745358994036525 -0.8747057930351599 -1.202992868148153 0.7005782004252478 -1.9780546307088938 1.801378700435773 -0.8100290407534408 -0.9440589561489641 1.6685880606405175 1.0804542856751223 -0.9910258103135318 -0.6167344626014803 -0.5197386482297782 -0.30051292908969635 -1.4400873725044776 -1.67524284231628 1.4840013131714969 0.536390216244135 1.3442447779215148 -0.5400298493577803 -0.06529135214179575 -1.629989653060138 1.3319160411457271 0.6553185545669893 1.272218144151886 -0.8521734920265627 -1.6870909455109844 0.732771593546661 -0.648798775907677 0.1928480599456139 1.403067128805771 0.6954743001783914 -2.2418500610906764 -1.208695471564731 -1.795225173087442 -0.10979852774018363 -0.7415738656085208 1.7248450301933078 -0.6057823328145849 -1.77068770708145 -1.8546062481250774 0.6326132457124578 -1.878441473418321 -1.4761358344931823 -0.9974119539299746 -1.2299304161901496 -0.2794909658430555 -1.2512187634074958 1.0956468378555013 -1.810578737082472 0.34036040143528085 -0.2841666387057317 0.23616869458573758 -1.6468414655654104 -0.7505819327248432 1.6173746029829927 1.334395117983515 0.5119198374386311 1.4482008031252547 -1.3404510210992264 -0.45976349524967464 -0.20587825370562238 -0.6882040985599639 -1.126476128619593 0.9180372286479958 1.1546547127944762 0.4155510099720972 -1.9382479563314456 1.0751066319117661 1.7105924353613366 -0.6075989130422689 -2.1159762436316405 -0.5422354017421505 1.6781748401367798 -0.2946300516124945 -1.2208780125104028 0.36665013931274903 2.013942685055317 1.5216482923951395 -1.8170809611236771 1.6335125880191415 0.8749657803233467 -0.7786573656229384 -1.4114904561347195 -0.1380910096189667 0.5557580344262554 0.968482900229173 -0.24715270600690348 -1.8391127754779004 -0.166313109209146 -0.8484449394322107 0.09659987389005673 1.743918832067291 1.4684034168090085 1.2017846031615271 -2.089420156120311 -1.6285978139252193 0.31108648769937325 1.8180163160480929 -1.91522899586564 -1.5346403093869534 -1.829068024479148 -1.7325445367233017 1.3292988661871505 -0.8892864275229109 -0.8195513465110297 -1.5779104889266746 1.402045376589798 -0.2171349519183356 0.4843388134263351 1.6831868958862872 -0.8926437923033693 0.5499582837093963 -2.086963489342049 -1.6978071092954226 1.1747464811033634 0.596856832915946 0.492596533638884 0.9806204515210267 -0.3563515254312673 0.17224916396148565 1.0982648402552748 -0.7474549458233707 0.0275094090250555 1.0338859461567438 1.913102616623894 -0.012964147232002341 -0.47818245598485737 1.8844153342544474 0.6381089766200302 -0.10282048550059883 1.0557609386224065 0.6054053452898291 -1.7147459122088493 -1.1386129859475425 1.8250050556379405 1.2019858880474965 -1.0474082171601236 -2.084566382724386 1.2107877312362538 -0.07866909694059668 -1.311396526465424 -0.5192466756775383 -1.2513431632565843 1.6542915797995126 0.05793022328009017 0.518269030513843 0.7396432520957054 1.4194282594274121 -1.3984361591544803 -0.911705675393283 -1.3054866612156564 1.7964938575153624 -0.3406214364563366 -1.591815705179656 -1.370402798045079 0.8925744157587374 -0.4984434658644999 1.8997244485356635 -0.9023031275180768 -0.7612185547290539 -1.6090274577297619 1.363552715191283 1.5480238751254558 1.9005970632972382 -1.8702900761662884 1.3899293461031352 -0.5900450656354418 1.5877533451732817 1.6777091733431297 1.8440798538974736 1.55137309074919 1.8436258071928733 0.66673718431022 -1.8180802231280215 -0.6141258117321495 1.013166907878869 -1.0346817672493966 -1.4095455497394869 -1.521947697419304 -1.0796497435381702 1.4057095662406287 0.2293317898210206 0.5778451060134849 0.25874055842832966 0.15561616527159353 1.912494254059744 0.8533755337857953 -1.8301921064503108 -0.8294427558259957 -1.256640907047704 1.5472896914977383 -0.42034320774114414 -1.793096998304476 -2.1472065443106003 0.5999110349618272 -0.8639059713572003 -0.12886129163582422 -1.88809278040608 -0.7594764105032532 0.03933813393288109 0.5045477718634261 -0.394451104590317 -1.426367210724528 -1.9232748231104255 1.8171850033265764 0.3080582899311826 -0.07604984403210423 -1.238497705827477 -1.66457572893038 -0.4060021694705496 -0.46978002527684026 0.49419818435031115 1.3046110216068092 1.9290561359788156 -0.560130961613096 -1.0290172426286064 -1.9774403252265491 -0.8614275957554244 -2.3341676515469962 -1.1518941363878983 -0.17844526839725955 0.44019884377152424 1.4192733106717785 1.6384799944646593 -1.384710651829556 -1.0154330344930238 0.9296777896372322 -0.790371315874436 0.8749684113941196 -1.6168852413328534 -0.682424723396854 0.727070985085552 -1.1446640589847956 -1.7542806476826616 -2.1125723620114027 -1.8786132473587491 0.535332570246112 -0.8830687139123455 -1.7963086461235898 -1.6292538564754833 -1.1369805891625546 -0.9171953608787096 -0.9977706692132899 1.6698155565407904 0.08882057023125306 -0.48974999443030154 -1.9441916204075198 1.2236859726835443 -1.7754800682755 0.15935207826660527 0.5820103145350416 -1.1379982736829781 -0.2175784371607378 0.2606031202704782 0.15062209573841676 1.3906150609879415 -1.9786043938384466 -0.5981261827810422 1.6444280682267218 0.2574777165099248 -1.9249511433516868 1.6525946405630059 -2.0100587450727154 0.40379822951122635 1.344011699603622 -1.4560067671467607 -0.49528233426605806 -0.810151879915207 -0.11127679177462425 0.7741518737039426 -0.24576925969555438 0.0824737260277034 -1.831055351650458 -0.897518926536601 1.0806900020479278 -1.8293128460937942 0.614793277058528 1.3521842425075143 -1.3133096472982804 -1.1918438451121889 0.13744382217394607 1.0784401382024746 1.643457779073586 0.33784172115465694 1.3202465237280656 0.010521338132437968 1.2564278702680838 0.45760759220962377 -1.2177879733219203 -0.06463054375456603 -2.167504239838259 -0.8071082809377852 -1.7215615110052203 -1.2482614813942767 0.024583167260689025 -0.08809734964969691 -0.6716861052273305 0.45750634271703833 -0.13060310188331697 0.9156077972415703 0.7754489920047465 -0.5324760200234913 -0.6953040636327602 -1.416827305110403 0.9062886349784862 -1.867685134791737 1.9429425516079624 -2.2566423072440402 -1.8688634987824977 1.643366304312254 -1.1874646083125109 -0.4850518094111816 1.038900756660098 -0.6400036633892177 -1.1898608749892496 0.6897204117841205 -0.45064510797218316 -0.6317438298013888 1.9453505979657246 1.5046844429080881 1.6288594231022886 1.5929517144213183 -0.02758850807671112 1.8407506520885661 -1.8844010392821677 -2.0205471793086427 -0.5271688503827081 1.7290962247265484 1.921114144343519 -0.7781954925982685 -0.40492572940309474 -2.1837793751762655 -0.8725750163596296 -1.8515310420637094 -0.18856661009351502 0.5703053799491042 1.3717775029948651 -1.59626130776566 -0.40148016920795104 -1.3478168435639242 -1.7927195300302514 0.6443685643087161 -1.5441776527499502 0.5302621991520656 -2.2372362568510193 0.6967187601327437 0.07213885782197883 1.4683720142464325 0.7547680677406724 0.008570461213491908 -1.5212623459375614 -1.3520057249254716 0.6800662002186657 0.7895203218507028 0.37557693037945367 1.6832405443667215 1.9126603683994026 1.4169197641166493 -0.8940185603392843 0.7698080229914008 -0.6088781981746734 -1.7429088902361203 0.2636230434235551 -1.1618980455147179 -0.7834462201963203 -1.3722132076687037 -0.8698991957344775 -1.494630716507722 -0.10355875008846292 -1.6024247100045266 -1.4808253997379062 1.6690695060650327 1.3462568020279075 -1.429621503152369 -1.328475869402068 -1.4318765169921834 0.6650116624822953 -1.045879150872325 0.8334978849639884 1.1885936866989242 -0.330469381076047 1.0059496323545678 -0.16604988773951812 -0.2972238902711637 1.090488658335762 0.5741261429057132 -1.847969326351981 1.0579369305423991 -1.1621752535051717 0.8439516543772521 1.7171134615507888 1.3739468963922024 1.5126923866134954 0.9724428330871315 -1.5808082801304286 -0.48875740494428715 -2.0201322434209548 -1.198571625762895 -1.2243223108971375 -1.1057363046945927 -0.8284156709615494 -0.2734616501029065 0.40861802321189356 0.19658191364433686 -1.017531068629238 1.1303584850610624 0.19091538653588622 1.7105726839454838 0.07916548549125896 0.8303843287121454 0.4749059105447393 -0.05562519403550987 0.11453740939412885 -1.3750648187319243 -1.093544182969858 1.3330369915293898 -0.709300019654688 -1.6479561395706617 -1.3826042137173156 -1.1039907929792796 -1.2976881693824696 -1.537690956166989 -1.5163591163611472 0.536402458641005 1.5641213254760964 -0.3376013450475487 1.3843052128895292 