0.025464740467246668 -0.013044021002591923 -0.10319368117348116 -0.20646898983262052 0.10195188401538341 0.08527881879200265 0.08649466098977379 -0.020755932761257007 0.05358349249000789 0.027322160681563918 0.5316761936299175 -0.18010033544580803 0.12680990714511284 -0.11338219285752797 -0.023997471248208363 -0.2787078626244808 0.22765198204652998 0.03707240307802704 -0.18367727839938297 0.18504207077059523 0.16451839866667767 -0.0354266366470861 0.10119935925877922 0.0714864901000029 -0.10720837265321342 -0.09401908648517449 -0.16687216987014442 0.344658552260993 -0.10335625942650539 0.049642410728118286 0.06871959100137727 -0.1439887748792667 -0.05792398615593186 0.29418825315958674 0.2088135664543759 -0.17246821376126675 -0.0639905496941881 0.00741798363183182 0.0434336252288527 -0.3703173551069257 -0.04753633237169728 -0.14406134100137366 0.11580179558727163 -0.4509860262610683 0.12169327197806594 0.1360772957542868 -0.3738876454098372 -0.2404727678170477 0.12641937893644734 0.10982412332058115 -0.041623786855526736 0.04751473159389813 -0.05070307115888411 -0.041502684765453435 -0.08859911541059108 -0.04092234203522386 -0.33765355608091996 -0.013016524808990716 -0.21786526289085204 0.02514738460106867 -0.006580935704074749 -0.13004599510973638 0.14623953176276688 -0.31836550344657644 -0.07627054392351773 -0.09847838053778069 0.0719853921440139 0.06324715643591694 0.27274997566922077 -0.03668489637179131 -0.1890802489348492 0.2829536376678705 0.11612394275080565 -0.08767826589381475 0.11504681675139816 0.025179698861382833 0.2715335471441449 0.3400172392688474 0.015763400165352576 -0.004887724204582397 -0.21594522825976792 -0.006925672466886907 -0.5120711864333147 0.16529698547576296 -0.17753413268992918 -0.18954838226834908 0.31215492607701645 -0.21891551928277286 0.03241182459376265 0.08666615327407423 0.26432499415236993 0.07214135056796829 0.07418012879131486 -0.04239482648459412 0.218648857027992 0.10591585758464088 -0.21217520369479462 -0.13398179546408878 -0.14363803209189716 -0.3760583713038819 -0.17843833697485173 0.04906989893126202 -0.15527388133188086 0.22044147541432949 0.12634096151864607 -0.08400945353646298 0.13195134916930065 -0.25165660585392374 0.1711485430611017 -0.1188196184345888 -0.028182902071027905 0.13246856209533264 -0.08038098707518265 0.000670938266090542 0.019795616406649973 -0.08362873963048119 0.10239196187680438 -0.1469314836890879 0.02891848631619257 0.010883844205603701 0.05665889758999334 -0.040326386912178304 -0.1526241425943542 0.11149894587188999 0.03452802777195731 -0.07513974565084489 -0.055607662485841154 0.04890553860594987 -0.2198279599932471 -0.086371152724598 0.11730767920702409 -0.02861084338937164 -0.17697907162164236 0.0893033159785109 0.05812456130432069 -0.028812740152305526 -0.23324942208254126 -0.06498602010922618 -0.10999521664982294 -0.25202036030176406 0.19417738207030608 -0.04860444458895998 0.043512097476769034 -0.04291283902846028 0.23752471120344454 0.13324847618383864 -0.023322904820967234 0.12095559416040341 0.16718867828221093 -0.037048876451709366 0.016480186487629448 0.246286489853748 -0.2110463689140597 0.06948025937494183 0.04337013619605704 -0.09377690713755744 -0.23257022551217457 -0.037166980959498344 -0.14839068841850384 -0.32092393774900513 -0.09117914582006977 -0.048043134096932755 0.08588952570563729 -0.12002860492977402 -0.1582813862352735 -0.18730643448576273 0.23789707634056986 -0.06879306686315312 0.09222619360146746 -0.09859335887989581 -0.18653439663942303 0.11409991974591181 -0.055775397049146976 -0.028896494398879112 -0.07135513463434916 0.46776865019070646 0.007340804972433645 -0.11521001577638622 -0.20737042994423457 0.20415236495746775 -0.029723752740153063 -0.1433785563970387 -0.057188203475649825 0.07460256715082624 -0.23637463099179212 0.13150745565718672 0.03147238325507751 -0.09590218482394934 0.1403083835616478 -0.2956590364105374 0.13321543600689636 -0.026003909557806307 0.1262731104415798 0.03223314911814944 -0.041482288504906525 0.04921513359295049 -0.05371866230864099 -0.008993988374323542 -0.14450095692218312 -0.19597899689660653 -0.02185912411246807 -0.09630923062111091 -0.13692537115107567 0.011029252067045858 -0.005093759572387169 0.024561970245770753 0.10219390690347302 0.15355006169948038 -0.002166931849885284 -0.07517670143325082 -0.013243105858990578 0.12361834294414498 0.15000653259210844 0.12496597294550366 -0.12479948237966881 0.19976814378213215 0.05323550396732013 -0.16661317992970828 0.09022174218452494 0.1947285920820513 -0.03927327111498258 0.07140600209678732 -0.07352914511146308 -0.11459013517412156 0.08692965732441488 -0.19905697411225845 0.12909256421256632 0.011338390743917126 -0.1608862632797363 -0.1524384420861017 0.05970616995846145 0.14946152956013692 -0.08800690266925099 0.19140607470935928 -0.1599277243745164 0.14157524383893527 -0.041321529067638224 -0.16746183329270636 -0.09011446263229517 -0.018808726072834292 0.1169366124742609 0.14454396145489445 -0.1466317783189804 0.008346211365679534 0.06031329525989493 -0.06117879416015942 0.14874553428423448 -0.08863607391345579 -0.19257026898176194 -0.18373469052989566 0.07239870804449733 0.023342294438818773 0.1786010216679984 0.17537551989396744 0.163940470962041 -0.18319818721306352 0.09965392935634526 0.08052992703794387 0.062144745869891826 0.08494306100649668 0.1610840602477323 0.05605647991728968 -0.0510202948110976 0.015171513492728217 -0.1168623585236701 0.034850201878057374 -0.1964411671803685 -0.1395907304544049 -0.06663664478805345 0.11584926357031305 0.0873997691086158 -0.06469761198932855 0.048215243326620666 -0.1835188201975163 -0.13445578172976963 0.19276562805012215 -0.08418765854565323 -0.04208320680468375 0.019393718629005352 -0.08263719941706538 -0.008774132339591623 -0.10411756654455046 -0.18069745508468224 -0.12816526038337775 0.00922009268003926 -0.17165484636226103 -0.03873234142196261 -0.06859171599380526 -0.034111356411423044 -0.16023986470451956 0.16346302175871225 -0.010398139545081453 0.13633933305106866 0.19049178305962283 -0.0625393625368929 -0.00836539233920558 0.07983811646024741 -0.0293858705823887 -0.07923875351225762 0.09390039648744608 0.15775991128582983 0.16787553777264408 0.050696818722746895 -0.049771461468581885 0.18982420859187765 0.055551407000189346 -0.17366612908907963 -0.16613217235195554 0.09994782871323438 -0.1755375373816136 -0.1968595978674993 -0.042476819287316225 0.0076014914805317135 -0.02058228576137816 -0.004552478229138984 0.033955480797309756 0.07172102694884996 -0.030784770597030997 -0.05266741746622966 0.1953836232397158 -0.0956333858214975 0.11084006180340383 -0.027511590147182352 -0.05659184719618443 -0.17445682042246854 0.145431577720817 0.08080165990477484 0.16120428301637085 -0.01935528292525293 0.07076838672664143 -0.15243588537845773 -0.040818559359074635 -0.11710721063316686 -0.18315942884373523 0.17918454050252802 -0.11364225261385714 -0.14145820407679774 -0.12081198257682312 -0.04878721427428098 0.01855650492604549 -0.13946625261084358 0.1954759555943026 0.19319568421811284 -0.14063919316558807 -0.037637246732820456 0.07197179324400088 0.15106263316043805 -0.0018376300355245068 0.16681866910392606 -0.07101587404747756 -0.0006236434036998584 -0.0005413632539964242 0.06802726052611768 -0.11920347648021856 0.04390824416671216 -0.11249076125113772 -0.0639118739795872 0.18502658530187271 0.15960321521240306 0.12724735236711765 -0.1858126952495951 -0.1406532470152281 -0.09724723517123848 0.11366662727566168 0.1369333308309469 0.033179272098488616 0.08725266071073173 0.12282215199003033 -0.17345634758488593 -0.16614274526677197 0.1475581256017514 -0.1842336682487885 -0.10996373852940158 -0.18374718934163964 -0.1938859440121093 0.13758187427696317 -0.06776225309996789 -0.13572397589491175 -0.1404722038844362 0.06243346470813477 0.18743930867708286 0.0019998770422713363 0.160436190753602 0.0009714395809710119 0.0295489909966197 0.07142854271574361 0.12204399561285484 0.10313855290455304 0.19621302508222488 0.09878615566005311 0.16231228934114655 -0.1175580671737667 0.014166521731432402 0.03944570546698761 0.13027864686414153 -0.0071145747736335585 0.11641608468363823 -0.044572443939954326 0.03455538223257984 0.14052664299242718 0.11922378844166331 0.06279382075445367 -0.19990372138993326 -0.12721243112551556 0.0027431147404510803 -0.0982162406066483 -0.1737516626909077 0.14395336884858467 0.17717880852526524 -0.07887804874038654 -0.03677073304605569 0.1240150135269148 -0.17509649645151076 0.056393945024980074 -0.1490716748268852 -0.08516466400190992 0.1319762746513624 -0.17778918164413546 -0.18562646662792442 -0.0328535820814822 -0.0032676163614944187 0.14533007324328034 0.0868754985380758 0.06941752343981389 -0.1394504910400853 0.19468236968747327 -0.03554392148500746 0.04470834572994398 -0.0453267977867057 -0.18118683367526384 -0.011644316380773928 -0.13945289844206551 -0.18701381505042242 0.04696016947240217 0.05198651648733421 -0.15788287013745406 0.019657506492710863 -0.061332809344012695 -0.04663437073404503 0.11056795947987136 -0.003872128990301732 0.15251064616489657 0.04404789716248936 -0.013124633984771872 0.052925056022153805 -0.06485384806849903 -0.15027048298869905 0.0730118474770095 0.04881497709866278 0.1154265965495454 -0.1491563500211565 0.16471332725180887 0.1197364845687256 0.16675496323640376 0.14901388870938675 0.07240257854282278 0.12410033977494356 0.007602923692560715 0.1141956597442661 -0.12434901285712599 0.11284564254291768 -0.02216815837746372 0.10264648851894603 -0.017811905275124884 0.1158234913111133 -0.16986416591257592 -0.18214363783023502 0.17371583294862708 -0.005533959700505964 0.1604285598595619 0.17791330075282807 0.06660446098225342 0.028718730437389844 -0.11360824635727634 -0.16260951228039675 0.12775768603290927 0.15550882705279512 0.11175828427795426 0.07940097309264998 -0.03195555357007168 -0.07787536398921745 -0.15462204174491642 -0.02961190077113479 0.026405189699102966 0.169152233255005 0.17430190773238124 -0.033743521383634734 -0.16031560476076173 0.10952749298857739 0.09371173666284632 -0.18771966161923756 -0.021312560346465392 0.07456724171942325 -0.18794630617909203 0.16771294136064546 0.1848969946041677 0.08901710883553599 -0.1685845841392785 -0.17186821364945773 -0.05629867407150524 -0.07836425918534709 0.002062406913311252 -0.2542632362557974 0.061663933063459984 0.20931565154492252 -0.03853224355327937 0.1856991046738069 0.09909332117580948 -0.18257069494936876 0.15363281099381704 0.237199601433767 -0.161682419542356 -0.1705013446369792 -0.007780130279825782 -0.1640926985423451 -0.08013598579868669 0.1776415909170385 -0.14995400540654302 -0.31415560388828073 -0.0014181260908371672 0.17285514303099234 -0.05056880867395339 0.37750177434517024 0.048671628363795745 -0.07006719148912714 -0.04165859670358984 0.15267935678930714 0.22506913207987445 0.03604434556205079 -0.028244068643204407 0.16839315472253957 -0.1790311632758472 0.11571235004549485 -0.05700241777980521 0.29232370920676837 0.273355006581446 0.09319497402612038 -0.20435639917307413 0.029356514056841955 0.044246934238654875 0.040314454969325834 -0.10605566609076361 -0.18646035288098725 -0.17820940974882066 -0.1664159148054896 -0.27926018408456876 -0.2848539858174329 -0.11244805277189864 0.07072714833514031 0.006940398657870406 -0.15120999023083334 -0.0822425714162462 0.03307892097440731 -0.2609068632055322 -0.07325541909018883 -0.06298077386873906 0.09030533734363295 -0.17602117802651093 -0.1838839253053615 0.018161786853849938 0.08711826415916572 -0.007741259202913697 -0.07376467435045377 -0.21009078415494373 0.020087530675091527 0.10378640204732135 0.0704029713592247 0.04423322866148838 0.050736754576180466 0.08593999155273438 0.13004990523585608 -0.0873611354581872 -0.11656506693537427 0.18836805295191528 0.008386565704982453 0.050207245081751894 0.14255715070553515 0.21758186348630507 -0.04334856796991933 -0.11894357045862458 -0.08989231663985012 -0.13744188106809133 -0.15511295566089 -0.12339324499556385 0.03792288604349087 0.09662720490511119 -0.012173536790159827 -0.1863511567614031 0.0036319779888572016 0.13874715739394208 0.11000572977241231 -0.1748387111612166 0.02979365454314512 -0.10199727008305218 0.16843707838847782 0.03739746913654612 -0.13506259678376234 0.16436106106893456 -0.10259797052999162 0.10690654339485392 0.1704951386754256 0.2758953243994556 -0.2483275587332166 -0.23712889013895908 0.11512728838086649 0.27941518182258696 0.11368739315177319 8.235460649107153e-05 -0.05875411381101355 0.21125511602418212 0.301613165228986 0.08302681564081754 0.08760266877810591 -0.26098705751276174 -0.014672399184298104 -0.20325758909647354 -0.152305028388061 -0.18425287992134406 -0.2108162046971177 0.28814803704502084 -0.01987700759338896 0.012322438616285724 0.15680996692475874 0.24247091229703518 -0.10492504130024839 -0.03224511486460522 -0.08913413849710185 0.08451237623247157 -0.018806422006768145 -0.022247272945609204 0.1529219764897924 -0.012857817586776817 0.011569751801937308 0.19353150092034646 0.38344081574791516 -0.15629138851217989 0.07270778612383007 -0.09416656301905242 0.05302359460917849 -0.14096507265926558 0.001829332847223561 -0.12957139723561018 0.06904284548848455 -0.13873878419713973 0.1311270356214223 -0.271106378314203 -0.2394115313756897 -0.21714579948035942 0.04688063026728355 -0.2933041187932337 -0.004433192715261085 -0.18488979588112156 -0.041213891493187924 -0.2871365042611695 -0.05211116675307151 -0.08185461585421008 -0.27350628597886556 0.07174827555943762 -0.36399511613574115 0.1898146173740366 0.2877679149379603 0.011886403169664897 0.1716787219954031 -0.46627184945694417 0.0138110368380845 -0.167366421026593 0.05678157642229614 0.14226123158535567 0.43782527730020887 0.28110641287422533 0.072645264292232 0.008331786411412814 -0.062018332213548036 0.011701111619508413 -0.02139318250766719 0.33341333007446117 0.22773245889439767 0.24093393422360745 0.3840974665064448 -0.28050327700008515 -0.37761475999463634 -0.20276437567424135 -0.1647187464873004 0.10135712306060078 -0.1447004944916688 -0.12215679666856019 0.3932154245016746 -0.2988421146452826 -0.1309364459018494 0.09316357347236585 0.11989946905097858 -0.1748860373445243 0.12386025253999965 -0.1293573794557237 -0.16141466272407445 -0.08982402026685979 -0.31814323481965257 0.1696010334710061 -0.15897692966543636 -0.2616096256727486 0.27259978340740965 0.020787728025096763 -0.10064945352847518 0.002941059731512986 0.10241594217117704 0.05109636510909198 0.039115674943157694 0.2999914664477692 -0.07683293301910248 0.10774729383552936 0.22328605484792344 -0.05024442212219494 0.18999069356013343 0.19237353449175265 -0.07788750077077973 0.03950756184929024 0.007126374373223718 -0.008559431008195723 0.11543872430982417 -0.02671313972546295 -0.019373172298028946 -0.19000597215979534 0.025855561390932577 -0.036215360610079274 -0.09785110233586979 -0.2808853439572129 0.13004970952927947 0.14963657552341442 0.13974508435498476 -0.14377688873754546 0.15098898032144314 -0.008835443503119763 0.03946076547576757 -0.004344290658832812 0.33911985804144384 0.20207863101117107 -0.007994544971198142 -0.09237583357288699 -0.19026124157068122 -0.06522066540610537 -0.2493346380705393 0.11032523946150175 -0.15447769352049007 -0.05787745807411658 0.0024364034776604743 -0.37769446036943 -0.015450938309762864 -0.07883415242670666 0.03228503536712706 -0.0867669215769315 -0.16262848879189548 -0.09637424408416524 -0.1381364897477683 -0.2699435158669127 0.008342679642830596 -0.2778542021002932 -0.09126473964756449 0.08537078838415386 -0.20173910082477575 0.2012698832082414 0.2658983315084894 -0.03794069245942237 -0.09037166827483388 -0.2517258571879876 -0.0442642742500964 0.12775642963350187 0.0022088579879714467 0.21175941767072634 0.22583274119810728 -0.0447755552642333 0.2010037140869427 0.010450045557160826 0.12901229704905193 -0.21685915067327347 -0.1678561477113635 0.1576554443984792 -0.04326511579697701 0.3152020900090653 0.4091369876943198 -0.27435994619894905 -0.22888498484950304 -0.23446544825421595 -0.22741489402428977 -0.003111426183799645 -0.2523126579365222 -0.0898536167142902 0.18039816004483966 -0.02796210132807896 -0.05763521236650583 -0.014926990326031148 0.05928481601196841 -0.23515609261235224 0.14621574070561477 -0.24327389860124518 0.1426063530928282 -0.12341712424715623 -0.10414712428694065 0.29207178136206846 -0.004664332960471857 0.1943689164417783 0.042210110291596804 0.22377423497411325 -0.22240151223803145 0.12245747340070258 -0.08957387507909664 0.10432116635238828 0.013826895996897404 0.09667629560451223 0.14686272230229844 0.16284881782868715 -0.10499421831928411 0.1992708910143522 -0.13221768457415128 -0.0160286722956875 -0.018809790058357444 -0.12368974535821152 0.08045740059276815 -0.11252840298257574 -0.10077740793067769 0.06880154574698681 -0.02382288070503203 -0.06269187137547155 0.11909774458757179 -0.1833505560409432 -0.1926999118282401 0.03979244700001432 0.11113933121357823 0.06948279154524922 -0.14707863225653978 0.12935575911680594 0.17338596203967924 0.036562964527985464 0.05702243382678756 0.16921875511947437 -0.1263498220275983 0.052794080384209595 0.05973988214621035 0.03215543256330586 -0.050825046256387 0.06609442698697529 0.03760084269320096 0.22461753368517334 -0.06583043653507843 0.13019308306939775 0.09784272249050344 -0.11804170504758525 0.056855765001916726 -0.30832783197778085 -0.12478121394306968 -0.0290236729375139 0.020585664745480455 0.01967808351320221 0.03571215757794344 -0.06401548451688413 -0.11636767030306257 0.18195896470880008 -0.12061183487190312 0.05570263147475277 0.02393823576240932 0.1959224035483172 0.15625816762537076 0.026391394169884633 -0.24073089656810062 -0.22502583062523807 0.0832182796329129 0.1118718378795525 -0.05012324849452711 -0.033727679140575596 0.12231942660477435 0.11533046434754274 -0.07448306744608309 0.01996302841916874 0.003998834759973951 0.012842205924813953 0.03669017707020844 0.225394621265722 -0.08191214381341452 -0.15309376076793313 0.14637715714623623 -0.2722959745533929 -0.18847731370967108 -0.23742825336698892 0.03442646237479772 -0.18450077939421308 -0.261982893601676 0.22503557670201937 0.0325898011063709 0.11563144783146476 -0.057068260485031164 -0.11624267135249707 0.01451842077173975 -0.19113145486033137 -0.08674689758082432 0.1066843715490345 -0.008258077021739136 0.07433358490341452 -0.1327246888954024 -0.024686873359604056 -0.0002502657222773296 0.10438548726780304 0.13288130421055164 0.050470172733356605 -0.17867192207900598 0.23759775907933844 0.2582322627768382 -0.05186548784746523 -0.10701409306533662 -0.023409852671900225 0.224630268305731 -0.040993329722859205 0.2939629392239624 -0.09781861794125755 0.05715246266352457 -0.0034093848963669664 -0.04830566138104924 -0.20940247854243033 -0.061131634698569456 0.0065559946674445604 -0.11739600465746079 0.2211785130048071 0.015544714232900153 0.07692076308451407 -0.17223682951247296 0.11079779980382308 -0.006116428409998688 0.026340949776501272 0.024292829592422228 0.11324632577152915 -0.19815096617834924 -0.12868980161474144 0.0628834863828652 -0.12194394554289996 -0.014075028122244437 0.3392577131190243 0.1734536270405638 -0.11652751373275408 -0.007829440595111658 -0.02759176400489327 0.11080641382838716 -0.3252751640457322 0.170841970714933 -0.1256301351221679 0.03729762678996898 -0.16109416541622007 0.1155925830496093 0.12100291914451558 0.02279865872535628 -0.14083488098959313 0.17216231150417305 0.028498190954119953 -0.11740941084669908 0.06070107176842154 0.13370199878482847 0.03895013022161741 -0.02413200485207834 0.18715844278504093 -0.0033138042709247393 -0.15558301284593598 -0.2790740096863523 -0.12718866191283765 0.011501233255651631 -0.06607131236012519 0.007525981197125054 -0.09348691813273141 -0.22941462511277488 -0.2687763714565692 0.3773192741341538 -0.10240585753969964 0.22031094713904067 0.14628789352464505 -0.1379636339661934 0.09811725805760721 -0.07602646823986871 0.004738661715955991 0.3770034075885872 0.3853726509752891 0.1714588734290344 0.19633097868145846 -0.0032391280860936135 -0.007735191590941443 -0.09704558990728913 -0.27529865036652 -0.04205024759252441 -0.15425845339610658 -0.22220412706933365 -0.07128165090170863 0.20863709653548004 -0.24639611579748327 0.07523003168964039 -0.10676586985444768 0.37616111099855526 0.01764341201259107 0.05905279917498116 -0.19599004268377457 -0.2520899716717265 0.15537771933210792 -0.1692166601672058 0.034269874198176266 -0.0371185140374477 -0.18136428187878545 0.1786757578379185 0.12735504407535964 0.11144709365844396 0.09891278032127843 -0.12493816593216045 0.019550904441112127 -0.030448307756462067 0.17991521903915525 -0.13046658477327344 -0.13205646257613016 0.06354470145520597 -0.13703928417060687 -0.15597853081925572 0.0015692789320026213 0.1186643884880032 0.04201826865881303 0.10190158913921582 -0.09369658734977913 -0.08601486678828266 -0.028518543307390176 0.19633915370628524 0.08716730260980354 0.17850158291515933 0.015148182294563217 0.02182394062855869 0.1960361341901536 -0.1240046897364477 0.11303617486863254 0.11660552961143028 0.1378966510472523 0.1000210836867731 -0.1378667927245812 0.06445105284866959 0.16948127383449058 0.025314060998393784 -0.055623395847885115 0.1798080594431435 0.024639460183468687 -0.035345442185803266 0.04565339922451078 0.12165000665258124 -0.10867916375453981 -0.19372318279080863 0.011637958829256861 0.17654296803032338 0.07210318504127688 0.05236320005200257 0.05112605899598932 -0.0012041150953129853 0.09236770789402182 -0.10032222398651013 0.15670170558118718 -0.09021093790190933 0.17797800528429358 0.17059868401283612 -0.16883019038098884 -0.02072811950226558 0.097614513974833 -0.020138371396771854 0.0035596099345661936 0.12272957506868715 0.08199686437970882 0.18320168908917728 -0.1342056022867685 0.16942371447452848 0.1711945010028691 0.053899575456208715 0.17615633091882693 -0.0989257650458319 0.15271491336145898 0.10939171718407609 0.04387559988427764 -0.163748302140775 -0.18794625850761515 -0.19561220180235261 -0.09977677702072946 0.10494096397727265 -0.04534998704310675 0.1101786900620853 0.05025699637256992 -0.04429524035126228 0.15205865151449688 -0.18463310425672172 -0.01387480391686241 0.13194093575712634 -0.14927460681076266 0.08419502460464767 -0.06875366323588736 -0.1902794885692218 -0.010510027644275638 0.008677095578133981 -0.1833654997304618 0.02636774142071227 -0.06102646481686422 -0.19820271709748122 -0.12369064772937387 -0.15567573108853006 0.016248781892961972 -0.18275193478306462 0.1712530280392317 0.09648081378954411 0.13462799639330342 -0.13688157081384153 0.21967458043001817 0.20408773389188736 0.11604311144445154 -0.06726146498092915 0.024192129000155126 0.014829794184154371 0.0043944602776930875 0.0841236040179347 -0.18201270161274377 -0.1364931232061115 -0.20061105257808015 -0.08438899627588886 -0.017418387252478063 0.16374787709405558 -0.16228769498933707 0.09213870692854646 -0.18078112188127646 0.0752336624748732 0.07993262009387116 0.0689473706648645 0.17854020929990813 -0.014518473208275987 0.060880751125013836 -0.24724166071056614 0.1251552275837504 0.11201469780815733 -0.11478635371074775 -0.07363551562543724 -0.02178662836359597 -0.08167486222174407 0.00960530194109265 0.2936826832031177 0.18541977323289385 -0.18385333399093803 0.11130980922196294 -0.03335510220487487 -0.30526387156878754 0.09045853011353054 0.05269168498776724 -0.13496673232234466 -0.00457130038577544 0.2250150431804958 -0.1431492405545096 0.008963761063732192 -0.030553739060839455 -0.08653084181633709 0.0069860190175113105 -0.12903173608820848 -0.0357434757376457 0.061130176690257096 -0.01099662237617489 -0.027590678675149843 -0.026231288429403057 0.04820151587067915 -0.054177625123450174 0.040978553037932124 -0.23215568028961875 -0.05352360322287762 -0.07549464650739973 -0.02193233579693811 0.014102688010583486 -0.03688804770338968 0.1514097463080937 0.1781187302457269 -0.07326246506470595 0.043785929711935574 -0.20618891106561094 0.03114231547789673 -0.10034599903883601 0.20101415352318983 -0.08691344746071787 -0.009542089139745092 -0.0479021405984278 0.0490658903669239 0.00028017916495103875 -0.15383661837516188 0.0952489746049951 0.003599169732405186 -0.1294369094898983 0.04396381361082732 -0.13773467834989608 -0.248949832274869 -0.04378470475003431 0.23043986284536572 0.025298903864357764 0.05266603810354866 0.010814904613307173 0.17074630242901837 -0.041370979021688924 -0.1337862036795976 0.11323340749403632 -0.10157487079379363 -0.06905153117533776 -0.1098955930087241 -0.08150946411649111 -0.14627425215641132 -0.12709526609364405 -0.15475907373018394 -0.13694551980783273 -0.20989549095513538 0.16665694347074325 0.11689593317745932 -0.08099606324388735 0.030106739639956928 -0.2753893484013513 -0.13626130193810834 0.05179153753387436 0.19171778335519304 0.1055363492717873 -0.07474891262877326 -0.06147425628859031 -0.2041534473157887 0.13847256604697364 0.09172819245652761 0.1930710510378835 -0.07961576833574646 -0.2204318835899366 0.1780285835475466 0.026808271418011197 -0.2302639879102246 -0.20526934777810202 0.16493636290584304 -0.03334071461605897 -0.10399018181006256 -0.03579108954305171 -0.1657524015448721 0.0405231745078188 -0.0041652805095106485 -0.18398970825786307 0.05270026220468924 0.07249600404798613 0.15693718119104824 -0.025338250293021378 0.03504355257938127 0.07935640454587373 -0.21667090082847676 -0.18224905231635136 -0.053324216685862964 -0.09501787587662175 -0.10240770597678 -0.2075516538625778 0.24119778937110245 0.21784059259229446 0.12564418539868907 -0.12033450104631559 0.00295605951673858 -0.0786928886987897 0.14665441843736618 -0.1028121563861786 -0.015905402928097015 0.17812486453116275 0.052536903912192734 -0.10955049578534423 0.06090530811022117 0.03569842318649552 -0.201508991240229 0.044194618739132066 -0.1923624406244743 -0.018977165114264866 0.08594673515308741 0.05383335904812691 -0.20368001010213418 -0.16661495690503153 0.13995560694115772 0.15673330298116775 -0.05491377222484722 -0.08378981355440522 -0.34462639981741133 0.2207323996738155 0.12319639152332483 -0.24863619716964325 -0.08154981150362134 0.14876402301018202 0.146753782269902 -0.1268006181476318 -0.08686668925093312 0.08329203223815364 -0.10765692755863666 -0.09964902600299376 0.022246263009635354 -0.056254187508797876 -0.14071556047239472 0.08845511616755304 0.18048199335661283 0.09908099261905633 0.11058023477307856 -0.2394045540489069 -0.00022539528708179029 0.0271211986609632 -0.09087291522863476 -0.11481992521235705 -0.08586315930629644 0.19433514987127679 0.22346752614818657 -0.11995651681932464 -0.06899923098096822 -0.12951148447140723 0.10913032532545985 -0.1698745318159015 -0.02667114348966001 0.1261941069439948 -0.05687489135315251 0.20080306352707353 0.09207839671274971 0.06772588998993714 -0.14313087529760718 -0.044759978204961866 -0.0053137765396857346 0.03295872234609493 0.21227838708088348 -0.09067709457704616 -0.013584317521216707 0.1416109500963783 -0.04828834530228005 0.032178046318250296 0.0855650559894975 0.05790801373012143 0.1332065055251191 -0.098044705438318 0.22084502690012672 -0.12175991957597185 0.011675729978501633 -0.0857420163692912 0.04951416115407187 -0.06143449318232418 -0.02090754528448228 0.08533791426594033 -0.06927870674534697 0.08013975592898001 -0.04963659783748054 -0.12384799633989801 0.06994436080001569 -0.11828082190651953 -0.03485837586415988 -0.05429694892395884 -0.15276525382812742 0.06906489499729139 0.07984742811264377 0.10070904414867295 0.018104701315854767 0.01409319706551711 -0.11716698244056206 -0.14221921462636908 -0.11723636529375392 -0.005974586111148558 0.13131240046207499 -0.06319439715601419 0.15561285607371209 0.0778649117388195 0.09585576443509775 -0.05713007888595455 -0.16279626258648047 0.18510363297809093 0.11246091693146845 -0.026440816859709414 0.1180690196917975 0.1551580931547075 -0.055383327554239435 0.002926183977541161 -0.06487866026616894 0.05085013148123238 0.15982930541730883 0.16829497025319923 0.10664566652036155 -0.06883194805022401 0.1874837559247575 0.2018061292962272 -0.04832113219186822 0.17154839799792193 0.00880890115693169 0.1998553845411667 0.21269883474056916 0.1402000420234542 0.10302372929060802 -0.1237008334076153 -0.17436249846013668 0.015438861461565829 0.03992821208295206 0.15226275118101068 -0.02490096474734246 0.09833543309195229 0.04112126099737706 -0.11790650545866355 0.07781054895773092 0.1485415918006207 -0.1637551207783099 0.08315301089819462 0.08615018986888656 -0.07653423672821162 0.11648995149012382 -0.19739673861540633 0.16275252573210422 0.11042686609003767 -0.021789414660059358 -0.13009489982351174 -0.02530514747944344 0.03125604825355771 -0.03054581885540107 -0.023938087534077338 0.13215333948121505 0.13447424040216055 0.06271604228342229 0.21046119516665496 -0.19774988773688362 0.22307871515364167 0.08940401413683782 -0.07630921811196636 0.22757158983132217 0.0854945300600502 0.18715676807200307 -0.03494871550027305 0.07551144210454581 -0.1857064804665199 0.1293820036097547 -0.18111112009053404 -0.3025684490369438 0.025497940820870587 0.09504257553741281 0.22513211915218742 0.08432142752365035 0.16007240098609699 0.14875883579026997 -0.15288696078206965 0.03880422587719152 0.03473117268616199 0.012833907321037674 0.009495507246928988 -0.032100404436748546 -0.2617747625890327 0.18594995680482543 0.05422490832007731 0.25696487124152323 0.07614651754168533 -0.14961947388678065 -0.03736508261551317 -0.129429195993834 0.01876443531210986 0.19525925354563656 -0.23501732405005119 -0.1645610608411625 -0.242369938027012 0.005792269693478534 0.1773064649606743 -0.14671197272153477 -0.22123493563975166 0.01614841862099022 -0.10896806622682467 -0.10694789701496737 0.04616517330427836 0.011219283743720887 0.14960486418633356 0.062481833555685685 -0.23078193602052066 -0.055587965710273385 -0.21109527931187927 -0.012796857185704889 -0.03502793396832539 0.13795210947626074 -0.08875028331215595 0.16996950343826533 0.07693918883751476 0.006018366472816469 0.06037762146882103 -0.022241615794897338 -0.07832259834957593 -0.054446933318041214 -0.19821615254899216 0.15587327363795958 -0.07866988243753914 -0.12599996991512025 0.11259073616640312 0.2387280056307304 0.14786692062028403 0.0549430793177248 -0.11397644258338267 0.06117650542880496 -0.1170669084570802 -0.1922740024680589 -0.10706013453324892 -0.04044191252302309 -0.00806400018991325 0.06013628996888685 0.11004062313741267 0.1517102498180496 0.0858347235534468 -0.12908994136260796 0.013902114481796094 0.01522389799223578 0.12103010379997972 -0.08178707423693828 0.0190694309821472 0.12113620130612034 -0.044495887541092016 -0.11023437042593624 0.25526620766619074 -0.09688314299660195 -0.0705412003723626 -0.21221203876129524 -0.017826657873348792 0.2779780153837415 0.05171706483828145 0.05891741875872466 -0.12433543050286383 -0.016568852777435084 -0.11298789578879902 -0.13694250816344958 -0.24177315539674066 0.14648781719341222 -0.005932221655052096 -0.06457601646790193 -0.03763443168509387 -0.013028207085229018 0.05455367596441231 0.20288114218031875 0.13726051998041616 -0.08254073136329994 -0.13236765680114554 0.09511413760640113 0.024954764667575558 -0.1829721295962422 -0.04260740068512442 0.17725128589493586 -0.13934271473724366 -0.11972062906529733 0.09448936775008496 -0.20369828958708688 0.11121628027392931 0.1319147236528157 -0.08734147050748058 -0.2182000592035624 -0.22150970322073057 -0.0167725621656385 -0.01873804577211972 -0.2516156741358402 0.09697957710363024 0.029525768964280046 -0.21866346534133474 -0.1347543760881727 -0.016079601933875927 -0.12801893195675015 -0.19926418957203404 0.11570868900103513 0.3747174352327631 -0.06108919893166566 0.016109033522044805 -0.05631038912608593 -0.0036213152301971152 0.11476924712775047 0.22563908552075085 -0.0862999897521523 -0.05957584363176696 -0.13458931719630862 0.20211033280849236 0.02108253762680779 0.09107973775120073 -0.013370362441161953 -0.1626325868969762 -0.031146979317992235 -0.02691437912299836 0.011360733383391344 -0.010405820981745317 0.036397477321422525 0.09045145532369807 0.12449005037066065 0.08693127804578224 0.01325572807580183 -0.06991822289160306 -0.13148083562125587 0.18248976503011102 -0.09389990118739415 -0.04252605797512633 0.10588267603829633 0.08542742429354815 -0.05187794188125399 -0.10177953723790018 -0.07484825081247924 0.039520887656965265 -0.024962522078197102 -0.12150253149122732 -0.09466326476076432 0.19873796553762177 -0.21092769544847972 0.08022042147878769 0.009430803407654769 0.07979165682253116 0.07107070157661494 -0.08253048248713846 -0.08791131126330662 0.044334723905290994 -0.05411178791629453 0.0958588714152523 -0.013071984821513751 -0.11451515670992486 -0.11467494175051984 0.007915857215141531 -0.2756863001455175 -0.042756019289150834 -0.006639750036287916 -0.15381603942963315 0.1090625042513853 -0.19661589884402533 -0.8478198246457793 -0.22119081076199032 0.03274549808900227 0.08442761003161155 -0.31528436530992515 0.08129565118251497 -0.2819656385554268 -0.0203842747978556 -0.3042657566329256 0.3026496021182693 9.306832192834386e-05 0.177556721602517 -0.18773419661152174 -0.06762047328794768 0.16618648322260904 -0.03281922810192532 -0.5306554211951908 0.028051275117403563 0.20249188181557448 -0.2902395740030762 -0.6512707869090886 0.040386104901528205 0.13767164545127833 -0.2655699267343262 0.556162279633382 -0.09037128695808991 0.08178869165263845 0.35557468640483675 -0.3506039399378482 -0.16536910118792258 -0.6395430142196507 -0.16166865269266842 -0.060061744710026996 0.12445020434042804 0.29602864062361683 0.46794830239608953 -0.6540783157046872 0.0911956611295385 0.04376869681337515 0.5157472960583265 -0.707567741850027 -0.10901014238701792 0.2767076964126923 -0.01694094227185073 -0.6044337498056801 -0.06973638728940457 -0.021749289357355032 -0.4138032017271062 -0.18631950641942094 -0.29977162522153367 0.11156259235976528 0.2375041335307571 0.4053299213694426 0.3691848217475908 0.5987974006815056 0.20988760017586416 -0.24320950824429013 0.4722449389965219 -0.1657191329085427 0.42235264066464084 0.2638452126671678 0.3625292878449914 -0.5768983130208826 -0.013772385777766183 -0.3396918199589648 -0.33786084657279764 0.4175458827188941 -0.678782408373626 -0.2910297680236376 -0.0005176935226354594 -0.5065821898043947 -0.5747018247114796 -0.17511610890327636 -0.28048241498534876 0.30004972414377823 -0.32463254286469456 0.6673589961513736 0.35647322796798625 0.40683734095492424 -0.8051038183698729 0.58873454719057 -0.11290932988595075 -0.3392785169109001 0.3041266440110687 -0.1321914975714982 0.09774864490994536 -0.43532369734659704 -0.0674808692416868 -0.18090148083099067 -0.028946034503668065 -0.2035489066484268 0.09783197312621413 0.31176205925845407 -0.11048827681244751 0.6457368878174413 0.3529586949328342 -0.18080783045668256 -0.029043181387657813 0.07219614084801333 -0.0239959003404358 0.17323141184945193 0.046684048375371094 -0.17157589294253392 0.2791223469670662 -0.13899990150420558 0.11386289756121473 0.09450377864230193 -0.15606838983336171 -0.060031873039624456 -0.05305066826670515 -0.07349902242978218 0.10783565616604014 0.0072369483157738584 -0.062443427106289646 0.061348359375757965 0.1278650756021998 0.1675877437931206 -0.06889414439943652 -0.11979994266037829 -0.21901159788353883 0.09139322862755578 0.024066074542352378 -0.13225250554438628 0.31714927624993716 -0.013056222104530628 -0.05816858465106649 0.11181952077304635 -0.29479732476810966 0.024988985767919455 0.14189748357796897 0.30191454849011196 0.16633994356352266 0.22363789179402488 -0.12507715802552669 -0.08321606796764862 -0.32370994903566314 0.008598625338616422 -0.08460454695684863 -0.11144852098184709 -0.1113576369643 0.23025238437302792 -0.18318899727674662 -0.06590505352959158 0.048504677642096185 0.01121656384520019 0.022257352579085083 -0.08790202034686144 0.01868967305084018 -0.1058024790225595 0.19940264403476762 -0.024135822796478947 -0.10512044597981064 0.11762221663167555 0.11903600127823216 -0.138697994827553 0.12743774631776073 -0.14913439310582358 0.021649061735405577 0.01192175063289493 0.10687687700646789 -0.07314395531189237 -0.06646595113746712 0.1164470205821395 0.09113332295665955 -0.02509494044837781 -0.06761214788789571 0.15878870836567072 0.2710947379481267 0.09105224272566272 0.20393228660893475 0.029761603607709963 0.14933957992155278 0.14876532137309134 0.05860884838053684 -0.07701335053843385 0.1162470091762426 -0.12603650208487358 0.1441557935004077 -3.566122224426155e-05 -0.06256143937314902 -0.025974714844623895 0.24724992571047028 -0.016616006944973144 -0.05574332799186544 0.135839618599151 -0.05703799905014387 0.21361180003497468 -0.07271349963570907 0.05992583710584951 0.21064263009801218 -0.21711816581678978 0.08685592869754907 -0.03303294369106259 -0.11795572991090658 0.03291087560922368 0.2209448249394536 -0.11061395324265873 -0.06760929710850282 -0.03437859768059153 -0.0775549240834381 0.20646368025136128 0.08417315130721204 -0.2170254177781263 0.2862046516462442 0.021648368658982696 -0.08447532485877621 0.24636996840128494 -0.10990394807897133 0.1544830371808912 -0.31881931149993487 0.12335363083937552 -0.1422210129984187 0.06378639830736399 -0.029696415914609312 -0.1929361759242874 0.19801657889699525 0.2380786473987431 0.2160155946673503 -0.12399327462712771 0.08550350344605415 0.244089456181065 0.08185442419248701 -0.20980660007866303 0.19914200163161913 0.015215457987566738 -0.007250166401298151 -0.10762787194331129 -0.38131675121097136 -0.07666747034714186 0.3364022955696408 0.5553663307841816 0.06749761368682926 -0.061673400309190364 -0.09167352333672671 -0.06113748319258021 -0.6254596554503811 0.2740338009126251 -0.22784633829798082 -0.120867955552429 -0.35445355285593905 0.3918390193721049 0.07086962280352538 -0.416287780043321 -0.29308747434528204 0.26370990690849927 0.04094194376968608 -0.18810093961163454 -0.020459927090195788 0.14364737782410048 0.07085450421433155 0.005703571373015657 -0.042426761482736546 -0.3547774397699194 0.01758028793027903 -0.2722921100332034 -0.27540163024807146 -0.16093266736893738 -0.33158627350657205 0.13698142836837662 -0.4579658300432754 -0.17970027545803172 -0.2697920768348884 -0.10401031846241382 -0.07407019950614527 0.3649923894560204 -0.13212953119722728 0.16295468665341772 0.4531275112166796 0.038023292508425885 0.08109023923789795 0.30901584963761464 0.3647140304640674 0.2467921841332316 0.07969638391673432 0.2736393523478605 -0.20922985320291182 -0.27246797492051794 -0.08280357791956425 -0.31488336099783387 0.5244475384746303 -0.2428673505058474 0.17407641603300025 0.14053858549889658 -0.4556185136974056 0.0019712285728582754 0.11548353937543047 0.23341276365103927 -0.03083268008278377 -0.23234553948075742 -0.18677456810351173 -0.0004277662732996825 0.12203106265280243 -0.26127373157348055 0.22229479541333774 -0.040386174881968225 -0.1395176574672534 -0.06684426616427533 -0.10990747945152853 -0.010314006329792335 -0.04502605126627511 -0.006027320878161464 0.07409485144702688 0.1611604039054275 -0.15590792992684338 -0.06957036767115297 -0.16353245614490036 -0.18819138889143647 0.13665928278846465 0.041480284941974296 -0.1826831327380355 -0.004349955563862664 -0.018981780772319132 0.15215265236596198 0.10187581632004163 -0.15068424314319326 0.013839516532797408 0.02725707186829518 -0.16462357297155286 -0.16342572601175145 0.015856387686864832 -0.02771686877472725 0.2293919212074701 -0.03506610971814591 0.09930450102878614 -0.13477689356008168 0.004228711709380099 0.12935129321128183 0.05431299873889483 -0.11726840187050268 -0.0430410546788365 0.011703058405555874 -0.05617608991141256 -0.06735005870296855 -0.08011873524232177 0.10407412440763229 0.10156970880644273 0.003955410697099022 0.04275500229833644 -0.04739119172570085 0.0120504559550272 0.1239354044420816 0.029750925974289154 0.06931733233707014 0.15186445932780282 0.11727729903817233 -0.05921165717143487 -0.11617495151493311 0.03536136874716937 0.0024703942430570067 0.15881401966594608 0.007392669369916157 0.1851648091610938 0.0712720160999317 0.05292165236124972 0.10498288712309689 -0.021008410101780353 -0.07293838686778938 -0.02767264140440976 -0.014784719862796227 0.013848695506730567 -0.22120763136287688 0.02524043605246011 0.19484266560020064 -0.03517538564771101 -0.18169673550986856 -0.13795531738563174 -0.2092446503562038 -0.048572634779121306 0.10582571763838715 -0.17179257252097066 0.16104791018641867 0.1931858537237958 -0.11645635103561447 -0.15737785006758362 0.09009543193276967 -0.010697523030059707 0.13587307434559343 -0.22251599649638423 0.20870631853973387 -0.14580601724622563 -0.01310577182830297 0.15058745982429791 0.11288353941986133 -0.10890241046152792 0.14613217407585594 -0.09227306007495284 0.004992187187332489 -0.02249446767673276 -0.09662773895987295 0.03778196956237651 0.06928702493276925 0.07177034564056087 0.09879493400446351 -0.2310826644587411 -0.019517807499289847 -0.09178669153991671 -0.22856306237164586 0.07914628057686961 -0.08855949932255204 -0.05611503685602429 -0.02166940862544624 -0.05414571780989283 0.03406014242682905 -0.10092153613055173 0.1267569181437174 0.015470414079224438 0.1529064605490178 0.1953200702788897 -0.09672734125832197 0.07999579872482283 -0.16109495239569807 0.08587130313141161 0.2595307367395696 0.056442083010581894 0.02749770995314042 -0.1272798682474714 0.1588738398925704 0.18065861962507562 -0.050917386947519176 0.005707005376134704 0.08529295226264522 -0.10572504838915554 0.10549458151665586 0.10749848937578402 -0.15309688352918846 0.15652463359873042 0.04216511249857058 -0.23776170780094774 0.07182590495194817 -0.11892915639155366 0.16189995291990342 -0.13375888723616705 -0.2519379583598975 -0.08097904062883315 0.05241244889152043 -0.08067000496185527 0.08848999264804186 -0.12940376963834502 0.15868770255249223 -0.00996363400866694 0.23261664229049994 0.19412051958732238 0.11352819004122545 -0.06880118919852819 0.12334086455916884 0.2501709971509197 0.11058819096065474 0.12040712058913595 0.06756830705438197 -0.03033734790620443 0.14550417336439014 -0.03318510270276033 0.06726671361437508 0.15166874702206876 -0.03869761558977977 -0.0325277731523582 -0.23385612971030684 -0.20947798439318127 -0.1886918216804277 0.09115901325472205 -0.27815711251841047 -0.17805262778582426 0.1071170032619162 0.16529701923365242 0.13265333612679892 -0.01575271443072911 -0.015696816114714983 -0.010558378829879134 0.035533787614603414 -0.012522929335706869 0.21185971399378165 -0.0906608808428502 -0.06080732788142205 0.11646181685630269 -0.3336932979069391 0.10940919064772545 -0.02372357184934542 -0.032796777708811536 0.09124787864034647 0.0010698382787369543 -0.015165608620082064 0.18223281063068944 0.14274663293592368 -0.19173448944166777 0.25823627088050033 0.04941649511227182 -0.14564117134852475 0.2218282365841985 -0.19266486651245004 -0.07251285196363601 0.09348478252334454 0.18718721975178698 0.027760879390032495 -0.160459234192726 -0.18160498776660475 -0.09118801861485569 -0.30797147329319924 -0.04967052951381941 -0.04410502416884824 0.10703546435084224 -0.10791903019165522 -0.19962159357698656 -0.0980718321974091 -0.004138079930854359 0.06882221094712582 -0.10683604345706103 0.17250838314992964 -0.1513747883005469 -0.0033685003117382875 0.1188435956547814 0.03662933644853159 -0.07564439808417221 0.06732892369841861 -0.19402010089147803 -0.08082225848175237 -0.13232158945517694 -0.025301866041697187 -0.0017590545417563138 -0.06959908153775976 -0.23456288269763034 -0.005481314185929065 -0.037047137681418305 -0.07519986232452891 -0.04302425962307923 -0.045065471670677176 -0.16935866364606236 -0.17731297216378342 -0.030341811307684943 0.01884234461021107 -0.023011612518947355 -0.10954855526785565 -0.15370161475810318 -0.16303359037083542 -0.061088720573615585 0.05952177379598039 0.03341184783771211 0.06448690199478725 0.009100526698008315 -0.06628475337924751 0.026731913780357223 0.10040194921568237 0.06717648727422802 0.10184959600623748 0.11865636319732664 0.13435972489054898 0.11469078857897244 -0.08975583694428035 0.05099690839765361 -0.13276567332151512 0.06984365552870493 0.1908880249659086 -0.03212163257061836 0.05679798094666835 -0.09622683475069209 -0.15759713646487106 -0.2835824643171142 -0.10245553957541054 -0.025897663364483164 0.09383245602582539 0.028746580075916333 -0.16710972530799886 -0.1745425438560857 -0.011905061859618047 0.17412629938030755 -0.14494027766015585 -0.14966308036993958 -0.12193767454077192 0.2106899750775155 0.1234940621078975 -0.2261950094462117 0.05598891314410386 -0.09516740471562386 0.03577094205645457 -0.027617429625234766 0.020424607846822797 0.15695138537451464 0.12436565346640052 0.11492793969217531 -0.06690309565538292 -0.17583702634780785 0.051374065692282055 -0.0009663231032426983 0.1776329098601152 -0.06953475593888818 0.009391694704029107 -0.09170727631209243 0.02568504321783639 0.07963899339354132 0.08499665062067724 0.17017924517471966 0.2026047212895667 0.06540389640745978 0.2335481696877684 -0.2100483351666756 -0.10843545757743689 -0.017224639370412714 0.185686301844853 0.03309841976263894 0.14480577184784094 0.039355838993872135 0.003317958042190371 -0.04485419312347603 -0.04929877475377915 -0.07424359346751633 -0.12142357716591773 0.18246586148374558 0.003214783356729467 0.14747999692934752 0.15450285916572692 0.1794662947111471 -0.1045357802808916 -0.06787836211056301 0.04975744622939259 -0.06544521899939235 -0.14697004564604876 0.0886363454693916 0.013300484302414258 0.01802099038717043 0.0888456503486923 -0.14742857318739 0.16574244020632342 -0.0133192470863706 0.07658071025087654 0.031130846303087233 0.04048277946385806 0.08952579359354872 -0.15969261062268836 0.004091222242898366 -0.10840220344064173 -0.046154544371553315 -0.0024146783892683905 -0.05707884811354984 -0.03767625038157391 0.08986403935812834 -0.17354324912686206 0.1879009960520961 0.04238830896167921 -0.135236224249199 0.01369194946373606 -0.15728024412688116 -0.007673510066860421 0.06892856462140451 -0.019997991549103356 -0.07594655310819086 0.06933184054004475 0.17106207355951739 0.1477315090739805 -0.045086683831789875 0.1347350822125082 -0.1538689583209831 -0.17409570940933525 0.1939606765487556 0.11037460373370232 0.04374533008255513 0.024351582250189248 -0.07163501493247036 0.16538729928632062 0.14233871611476756 -0.011433854299133737 -0.10032699631926612 0.07482128209012669 0.08309916807923255 0.19741945764075053 0.11546368494537906 -0.1680820788321785 0.20287570141162858 0.13912620356919217 0.02451952711806287 -0.07452778168343901 0.0907728944082125 0.03789064308813954 -0.17028642853987455 0.024811478860707035 -0.1979792157844627 0.11598010055568997 0.12784665155655797 0.0873283664910421 -0.15969102554460574 0.048048304493476315 -0.0457972092669498 -0.14198324341176566 0.15184889082202543 0.17649012295653044 0.1757978884253175 0.01616757231822338 0.142582334734685 -0.1259122080990694 -0.08826660423029184 0.16217920287533183 0.027786010166275594 -0.10923484569043652 -0.15379335136726546 -0.11543314864738098 -0.010120297900833585 -0.07286176085268575 0.08465722057672147 -0.13765636136219908 -0.2284407177621095 0.1467295743474908 0.1393279284040326 0.30216845454736696 -0.16748260736728898 0.07364202137829971 -0.31857338708869937 0.06878834994122775 -0.021331290039281404 0.05650067678544833 0.07064802458621708 -0.024511084002833906 0.07170526352784823 0.035994174568556546 0.09876761793196286 0.22031758448778122 0.08517310514217694 0.0843061678227953 -0.04566239644927745 -0.006607804382653489 -0.09667509000151957 -0.09268679775923565 -0.1938772065833401 0.06937063929897012 -0.00753948798879707 -0.20892037295220045 0.012277173368579433 -0.2276360765249564 -0.17859365370285585 -0.1904461303708886 0.038412245571801375 -0.243137384623734 0.15188887453191424 0.3479788978081163 0.09734699209433273 -0.13204681042128252 -0.0017460374784614278 -0.10897145729448367 -0.20514125616031634 0.18433911034976277 -0.16664612058225275 0.129028450731719 -0.3692945768079687 0.0732372050097988 0.3375438134169547 -0.016910306695103523 -0.025554474263541384 0.18171256896408008 0.1911276640320826 0.2065914034958764 0.08531276266238041 0.0457002282984885 0.28944700673956375 0.05554386048325654 0.044476415338196455 -0.18869734041803504 -0.10883418417822517 -0.1041826892480108 -0.20900604405536016 -0.12946553919248263 -0.10803745109983366 0.1744966414987136 -0.10844391026067879 -0.15272736963856412 -0.15298379769807938 0.18774756889915808 0.0148089802825585 -0.052835306752575216 -0.16539519872312647 -0.028837647455180034 0.21068962371962052 0.2119548639216289 -0.06184007029605499 0.08829361875985128 0.13151388183103763 -0.061305769381116454 0.09017702922754822 -0.14096238664067892 0.07830757912685626 0.00377311307710654 -0.14650070226765385 -0.2548446118593307 0.01718596119489093 -0.1802897466838986 -0.058550753706386474 0.18042033794667117 -0.07845573905995343 0.036954298889507395 -0.08216808194883529 -0.09960859921064086 0.19425678762428106 -0.15826698340211745 -0.04160875219759806 -0.053291679566864376 0.10394787232475863 0.007387372909572258 -0.049966974596782295 -0.1460403503987373 -0.04454345259413106 -0.09848962675496414 0.109912241097205 0.0544565983216567 0.035953314426569676 -0.1809265378025612 -0.045567082877148925 0.10035501514265296 -0.11472822667146618 0.047771102639262014 0.19485611265770683 0.0009630752717636868 0.00443625448548993 -0.11031425140356374 -0.20115781720031975 -0.1088075450730073 -0.024812530975764833 0.05306491827475925 0.1329652155104402 -0.09305224795555518 -0.05751550295601611 0.10468290182541445 0.07022476427549627 0.08140551154897685 0.15524011127555798 -0.1613543274958083 -0.14186947190896787 -0.021305694547260987 0.058520223988952444 0.05821959265689165 -0.09339629104010695 -0.1530031942524524 0.16120425654976941 -0.10625593904585204 -0.16666675982258863 -0.0692402739522432 -0.0031892889126352475 0.053998119240606025 0.076830762173193 -0.14773871048992862 -0.016828885300489285 -0.059130626093496494 0.08535533618739963 -0.05977104317416527 0.10689061111275967 -0.10974172718346514 0.18552638812161987 -0.013661208586753364 -0.020657588013503182 0.09740130750511579 -0.04385314070164157 -0.17701033479302333 -0.03651789120699217 -0.07855542528117802 0.07707672657773133 0.02469261753231386 0.12314507918562868 -0.010710620842878316 -0.13702615580050723 -0.15607055890833235 0.015383031673711484 -0.08574156909048761 -0.11613435965431096 0.18371519736603853 -0.15010785899715817 0.1565560126058374 0.007548141932822004 0.18314272273030013 0.1405142058226753 -0.06011083576282096 -0.024791293242607402 -0.15383874986113363 -0.04315276857546747 0.18106186870987356 -0.13822488397400431 -0.1008178168901182 -0.15698673712459724 0.15625247147638627 0.08573173655336018 0.04670525244881709 -0.019120216961419342 -0.12351452975961001 0.032567183825645114 0.052699531784765906 0.1324206655490228 -0.14282346417083827 0.0511733952127156 0.09121314753566254 0.022607893029391216 0.0916868995900257 0.0087036357223293 0.190430245618709 0.05974880324286002 0.050098723460322764 -0.1765670485563577 -0.13780071274221015 0.02011247481960569 0.09655926059870724 -0.12776829791516192 0.044887136193664204 -0.14965678975782692 0.045266511739841205 0.1047641884174056 0.052147661195032245 -0.13917649278093933 -0.08389468682124317 -0.1281941594106487 -0.017230940190215586 0.05029118982898367 0.06326204122701556 0.13947207927593008 0.06397181180742884 -0.12935623033399202 0.18883316011157472 -0.19351188071023467 -0.05872253053619834 0.10412876080910749 0.0008415382414138425 -0.15647443783500356 -0.07491421046221723 -0.13325436664483198 0.07246324561978193 0.044394943559239765 -0.1759206088024254 0.08929062159136233 -0.0711818897604307 -0.04156818494502826 0.11559454953950252 0.1027761957008183 -0.037191446969093885 -0.011792708657549179 0.17664284113549752 0.041726081791829704 0.05512301485611418 0.04623778636893078 0.1484970278399699 0.1469125078000982 -0.13035842586265964 0.001185423792221427 0.0547618467432497 -0.12041797018876445 0.07649089528666674 0.17671033683927764 -0.053853506303764856 -0.04280316899553411 -0.017622387576888693 0.0264081452431547 0.14059758624941152 -0.12821406074880598 0.0559905373917262 -0.0377490843643673 0.0535765386785816 -0.00745245277462182 0.009777566047988046 0.04933681820539452 0.0023323001215722564 -0.08988578654897164 -0.1891206427539492 -0.13679631187772928 -0.030136003786897472 -0.0919574462294286 -0.035545808283301304 0.008731360412746865 -0.023432890312350137 -0.11524490069958883 -0.041166443209679084 0.19897902828046435 -0.10138944935065729 -0.17924524278262882 -0.11422113241699597 0.061673918669357584 0.08370291093762314 -0.10082830934396868 -0.1601444167736672 -0.08772765460553024 0.03594571837060386 0.15398788330762517 -0.0988149378099864 0.060166831153332954 -0.18972063453977162 0.0950510698009151 -0.05658722735411952 0.11060836435740365 0.2035717730532171 -0.06866010846486245 0.05480601808307574 -0.08102408684680683 0.07925113334854134 0.0026485416626786697 0.06398374227722084 0.1397467927840691 -0.00154013293713345 -0.002905536514966825 -0.16855640987112158 0.19347559178317442 -0.03692597090325053 0.11456531118455907 0.06846739345623855 -0.16003592000253367 0.04759528958601212 -0.14719121358418133 -0.17103545333150763 0.10895916616695947 0.0808571480385617 -0.19404165134946919 0.09593422569459034 0.14079329433975732 0.07805501174843726 -0.11583365683025473 -0.10947940693378468 -0.1460608625139908 0.27222182553577107 -0.040164828964879495 -0.05283230846916409 -0.10207139222702447 -0.026606062312316235 -0.10194078481105362 0.09001664569768922 -0.09416331324800034 -0.19011310518096297 -0.06026746570590513 -0.01777003599029387 0.2092014099489403 -0.16559900540656605 -0.16732877973685645 -0.01250428535587961 0.09304147865439474 -0.11757029704641137 0.16602698176420022 -0.030388998478340687 -0.10060556756183099 0.0756997258992648 -0.12555847924693458 0.030615449171693846 -0.06514660318370073 0.17360450812794093 0.1843118743996768 -0.22629143686110392 0.14407090835412628 0.10379691464452619 -0.20006795055192383 -0.09981943547502695 -0.22637736532093333 0.03313558229626385 -0.06023268432721463 0.0902086531886521 0.04230331362539427 -0.17446127291169763 -0.13268623497885088 0.11650278184272368 0.0379742498319823 -0.08177636054673747 0.04528008019359699 0.27366652811884545 0.07320681088103384 0.08183944808122637 0.0591818207603331 -0.09757470185250289 -0.018418210383430018 -0.26950307480316277 0.09980096948612811 0.08388862811306345 0.03197170195099787 0.13636905401328578 -0.16093455906152293 -0.16193780647168982 -0.12063034426462596 0.23438030401618062 0.17503034749127666 0.059140634344742433 -0.18268476367403072 -0.07509056717455351 0.2254203546996671 0.020589976114092676 0.05155385288603679 -0.008210638845766827 0.10120575435093984 0.20812578604437815 0.24154147192834272 -0.10273439481013927 -0.006027856885941089 -0.04054060186327722 -0.10350192955603761 -0.1537223954145829 -0.06496407622227297 -0.2789438349904115 -0.04301329747751452 0.32094075348837564 -0.10706622844145587 -0.1546792521686257 0.08642387573426027 0.06978441477086175 0.1422872431554201 0.014206826632232359 0.038454210999359105 0.12310971828210227 0.1645997721737574 -0.10977017613209847 -0.15358046550242738 -0.27474189335812066 -0.286490393456715 -0.1882653580045641 -0.013284761539451018 0.15236205518043622 -0.045759133443212884 0.2743003462905689 -0.004454468228870279 0.11807710052992695 -0.03448949116384716 0.07385650365089405 -0.07739348181129682 0.14910804748402148 -0.1498374209241456 -0.026048259941412678 -0.1615246413904385 0.06896209520068547 -0.04447430502525975 0.1888157712607265 0.08653127970327117 0.18582664333220558 -0.061726906635619264 0.2805991303966868 0.04104827847280468 -0.121858355437511 -0.07902451214150914 0.3174266539729672 -0.06011185248390762 -0.006318617756785434 0.06980722724684212 0.02664813251687479 0.053423411142632375 0.11034927226286641 -0.09944733812549321 0.03826944599526023 0.16142145483319917 0.22418458149247208 0.0412324236233445 -0.12477828473750378 -0.06693924277409832 0.12110662618687328 -0.18442857793917217 0.03697227462230841 -0.15090181412541373 -0.022523535422184517 -0.23635370815149861 0.12246742017983633 0.0558725797431833 -0.17664241369064707 -0.013769849146514697 0.1608181951352724 0.005549537072797351 0.12464864767681093 0.10246283844092079 -0.11162120397168102 0.02945281146621618 0.16840869263953182 -0.1350125855816617 0.016865505752428987 -0.06569245170291696 -0.07549134179035041 0.05099246208535073 0.0963265729894305 -0.13536375750302312 0.09738594993158999 -0.13051118582469853 -0.22248096838654755 0.07552257613205747 0.06712300577083666 -0.09642125774550096 0.19634248658209216 -0.15014526972465986 -0.3280678646772853 0.3248992713836309 0.07558145648120139 0.049898187813557274 -0.015023024831939392 0.04612476239695171 0.10845741561225743 -0.07178707878188122 -0.23819400930952678 -0.07252041789367097 -0.017287744681733167 0.03402832587051989 -0.19996299475533205 0.3292612872685817 -0.23298259557440446 0.05097027975283398 -0.06584992123396279 0.09650526785133445 0.21741430116955607 -0.2703141203658604 0.1844705859227407 0.03139052075016806 -0.14659025972849937 -0.10770159975429448 -0.20755938065805135 -0.0694221727444007 0.10149156423590536 0.0831724166217201 -0.19641187084888764 -0.2764934334647739 -0.03715263381284706 0.19246209197462263 -0.02309358769518248 0.16148460258246694 -0.14923482378468905 -0.09749223677936546 0.11392410046317769 -0.07454494657290277 0.11248714090523329 0.2792905451340095 0.13382696794695545 -0.18212054863196617 0.05462169221091688 -0.06309647318033364 -0.034159060467689746 0.07020173150326917 0.060439045814167314 -0.2132418849971297 -0.07284988237408004 0.264601306444025 0.09591550318993343 -0.15444856472154475 0.08814183813784603 -0.15652554563593 0.10117778396443494 -0.057083626745948426 0.08053266316764632 0.28269951750443795 0.19175139322986257 0.03756850147986157 -0.08694894951228903 0.003993985070070977 0.02884550586396255 0.257966157173871 0.05111308588559424 0.0914854711872767 -0.13992922312613396 -0.09692998720841774 0.05219217103673496 -0.14213016644728055 -0.07466364921511857 -0.0822713128968252 0.006939410722310696 -0.28006553118867505 -0.06871313460849394 0.011407779794254908 -0.06104006531199289 -0.02258808338390616 -0.08353075557157368 -0.19012694491329488 0.010103680938235568 -0.023108674932495014 -0.11751215027435809 0.16380089585063792 0.10885561346130765 0.07559039962178214 -0.21488731410751305 0.07627531853398456 -0.012088877765825512 -0.04561186109019708 0.2244013264839991 -0.18531463253648076 0.12990872314669366 -0.2857580305769299 -0.0887981044670761 -0.15841708340894708 -0.15942486047595003 0.13666199645562344 0.04840355319651309 0.09830171196452847 0.20475316134086902 0.1832663485516775 0.1680249748260735 0.30580550419000224 0.06448683771819183 -0.03098844235247046 0.07037444060247053 0.08321478435464914 0.2923747595505657 -0.12192864043904987 -0.18412592225274904 0.028560345863729186 -0.015474751615831507 -0.11960266542727976 0.09478377235170442 0.133218252214037 0.3387995342360936 -0.06968552668849454 -0.27455723554201145 0.12436557401756408 0.035086369371119155 0.18241256321351765 0.17870645667648136 0.13222795707557503 0.12905093812339669 -0.10127103640370334 0.10962112070792171 0.26003553770251214 0.02014644658686844 -0.11368583929582479 -0.13089785391222153 0.08325289788269596 -0.0032280137621737335 -0.11862484308482753 0.1338007682710623 0.03604984090073 -0.10578290296035874 -0.07865127712905513 -0.0048416933258814835 -0.09316018797547804 0.18810562150462265 -0.13234744182449457 0.08085045780081394 -0.14043623452298645 0.24548087032373286 0.012512759937865024 0.1819860667439781 0.15684033824111432 -0.10118923628046722 0.024399915924162335 0.015003700144560662 0.11968550894727939 0.049647464461216234 0.13232110546510747 -0.022623589324681625 0.13094283754110822 -0.1832542140860804 0.00022244866350002346 -0.0058989965167222345 0.21161140220881175 0.0807478835334873 0.0003191817943305998 0.06720398557948042 0.18210452018904313 0.1602811303153528 0.14930020613701905 0.14323017608812857 0.06147899223508302 -0.15946856220797945 0.035990835268013555 -0.06215693751935981 0.04921808180328089 -0.08107658242963407 -0.053919278357659084 -0.11351608305655715 -0.09066542296458917 0.1648533318376808 0.13088998352812328 0.14166519950392015 0.0936358936627942 -0.06833179392286105 -0.1533370735534681 0.16995328325783168 0.20847440126969666 -0.23270271212187343 0.11244643559518339 0.0052216622308030045 -0.08496843833500832 -0.18126656181636527 -0.10111710556187442 -0.09870645403909092 0.1768950522524079 -0.00015762941448390003 -0.05872055198401842 -0.07713947374633479 -0.09033625108789006 -0.09104316767723243 -0.0193082461455286 -0.08298775479758867 -0.10332358561739279 0.05879174522659917 -0.17950877056610476 0.1715678550896931 0.04155808083067845 0.03662733741593889 0.0001399060272206657 0.2018820277122777 0.0949901655206817 0.05215423729160325 0.18930511748368775 -0.09458779029571694 -0.19027989644766866 0.10909576186085353 0.1592559002163493 -0.2511307467660068 -0.01495442544898578 0.2190728682330368 0.10020586757685931 -0.1097286922640831 0.030086132483027703 0.02581050257458193 0.056207406012719396 0.08565927819542132 -0.06216969351221784 -0.05430153487195877 -0.013366546627016581 -0.26208088136396984 -0.056838793348360936 -0.06865266242913887 -0.22780214732010906 -0.16460078532397715 0.11674303125765581 -0.019385546469468315 -0.14520108402212556 0.17122560209524795 -0.07140901551478004 -0.024309456693369588 0.07790124561836795 -0.13629108007253324 0.11391691089439597 0.13738694061477033 -0.0017738782772160587 0.08130470418731058 0.08942961334936501 0.19619310788817115 0.1091291113651895 -0.05552722985521073 0.005216518399583014 -0.04207665735129515 0.012956969624942345 0.15746044155442235 -0.16314657972927663 0.15682136263366492 4.4800210653010326e-05 -0.13994169047497362 0.1731829298638236 -0.12025332950697303 -0.19111824334871277 -0.010974905795338604 0.029539141882874726 -0.17984766781224332 0.053860715913818066 0.026600638978932355 0.02703984109234419 -0.16660445716114716 -0.05838984831367597 -0.1467624609059512 -0.011403897992473046 -0.05209768710231712 -0.06750879387463875 0.15068100131764356 0.050403705593873194 -0.15553676503684608 0.06359272116531786 0.19897885919770303 -0.05149658763510672 0.11045929144874393 0.06437814741597886 -0.009188864457639105 -0.040082531740363705 -0.11374237126247799 -0.03206810146626225 -0.09527874151130236 -0.007904076562333624 0.06904848156421718 0.1545609955561679 -0.14068288784914895 0.12143202538669251 0.10438296810394619 0.04986931286575309 -0.1206127926186468 -0.17131838554367243 -0.14586334705799922 -0.07017203380846311 -0.08262267866944133 0.12552803703478693 -0.06230968117563412 -0.13702610992451103 0.1892308621696841 0.08137415185464539 0.1213393235792167 0.0004980389199140154 -0.1587690384204093 0.032692505466101744 -0.021954715085558615 -0.07369555747266408 -0.1636096761064984 -0.07334816075452925 -0.08823387637745687 -0.05782764851905442 0.08530845229813577 -0.15153977256850384 -0.04781588601229525 0.10128153053220985 -0.07406546890598406 0.14289665641421093 0.14258142857167588 -0.12276178318808081 0.06476043725888943 0.05678619280380219 -0.13345859440654267 0.0225651355786594 -0.008954882065221931 -0.1038345117825948 0.08440906487916913 0.1571175373310294 0.15938573875013887 -0.1603652590592885 -0.04920816315850337 -0.16241844297922328 0.10171674968704834 0.1156405909800318 -0.04951983680402775 -0.04166280445929863 -0.076804757517706 0.07209237704942115 0.1113520999755105 0.017835139428094685 -0.1012069331740516 0.030680040984503446 0.31494352890095284 -0.21919721395765143 0.05792283159549336 -0.1565992095765104 0.018377892638596866 -0.006121696334427214 0.06822412935517129 0.022532520479928722 0.12026955406400167 0.2573194665311721 0.17168096263897484 -0.01308079939787303 0.2776981922946449 -0.09529634895293763 -0.024949517894183842 0.14110511250635033 -0.09558093430143584 0.17084500963478969 0.12342017364694109 -0.07378278829512035 0.022755613140915277 0.04440973051840282 0.046909388015113275 0.0733871670484411 0.1859046065309626 0.22584754292455858 0.1518347679312215 -0.0800637951199898 -0.21161296729960344 -0.14455015207311828 -0.038294373089057615 0.10207110135560692 -0.06200692905262578 0.01084046240865194 0.12125121167601749 -0.1723249652763275 -0.04914315062707536 -0.1984255360271518 -0.004271795856977024 -0.14394058438847943 0.06979079315206518 0.07545146813125311 0.13385814146756123 0.055654882802748114 0.009327335016961438 -0.11485714711197884 -0.18416322506694843 0.056155407385442446 -0.24075274571808133 -0.05727226152345631 0.13533459084389646 0.0010347605256984967 -0.10619607513197486 -0.29467856324102404 0.02148217455414626 0.07350290709045608 0.003285639355391168 -0.10582261279819347 0.05983893605140915 0.05115574025040216 0.14776325512431407 0.10188525809289531 0.25891441720127345 0.1730721248335369 0.23714930761171818 0.19863822786042845 0.26705048109320034 0.10720249767139961 0.10415421363572634 -0.15248671052306714 -0.17287214809229615 -0.004053574953654781 -0.4271580528997642 0.22436412561518307 -0.09280491863272088 -0.12213669261148791 0.19520769048521444 -0.4336188968086653 -0.13038554603985042 0.17673133920461553 0.07063302242747511 0.07101950737288117 0.11626640965071992 0.05974027623410299 0.16031967556879323 0.1166070082814224 -0.03209110478745847 0.3379547197200162 -0.15995764950518596 0.009370109784298267 0.06189635965823941 0.010293164432975418 0.0703269464877737 -0.04918635299191113 -0.03252885517852519 -0.04091268891168078 -0.18286863807463088 0.09227783927059242 0.02839208420262938 0.1572343231985064 0.09797878197325942 -0.03528966806257 0.10662560504073715 -0.17590533147914936 0.054642657867153256 0.1763035228994709 0.1562094122681822 -0.07453794483590934 -0.08639571707147231 -0.07682956581324418 0.15103965637454278 -0.06602724813565951 -0.03410706580043374 -0.06529307601328074 -0.09249904302252185 0.1464558174553007 -0.023279608473958248 0.013595450110980062 -0.036090521002343716 -0.06797373876733454 -0.040756086694234174 0.1594113227620277 -0.09065776365249874 0.08044374070219612 -0.11535664530175382 0.16098471624309751 -0.010369524251290113 -0.0795334716900268 -0.032068589837302916 0.09819731128190971 0.14012008908735873 0.12536319122895168 -0.14571058003318782 0.1867458945459425 -0.009330928398607186 0.18009121529165473 -0.1336597267521625 0.17620036772514786 -0.12081465179339622 0.14587387960829262 -0.09198714432375721 0.1349530368661771 -0.13328184364991355 0.13744070220474502 0.06472322688995873 -0.15330014355879062 0.1748837803927792 -0.027793112951002227 -0.12484990615009789 0.1360004542730481 -0.17767007815762345 -0.18496613297035433 0.09719003423579196 -0.16531699273578063 0.09958074983691491 -0.15861346924179565 0.17117892325775058 -0.1434679160810091 0.026752138539420944 0.05659481072917796 -0.05190704147096575 -0.16038731817377008 -0.0017805023614257446 -0.06452467402659683 0.1531135105919703 -0.11483426718449549 -0.10832910263733339 0.03973401995237878 -0.019662011785012878 -0.08680740259501674 -0.14323904163719745 0.13640494091445862 -0.16243978237732387 0.15938884839149503 0.17656434054585893 -0.1475104974001603 0.1689375313805359 -0.09492559922805299 0.1131490884402985 -0.06694750330784 -0.02176144331854887 0.08733813614869415 0.019515168768576896 0.10374522741772388 -0.04404800562938717 -0.17410033386773843 -0.05857068564474257 0.15764388803579493 0.11986242072449839 0.17408986223888684 0.029028021506691884 -0.059697864055035264 -0.011836821175790239 -0.006198155294701623 -0.09075160343627282 0.1235357962282478 -0.18353293599992881 -0.05624274967384109 0.19383147842674786 0.0034166512952249596 0.16797451697040036 -0.1960271261303702 0.13532049951415634 0.04018103672609513 0.14657033040067777 0.09364159515451602 0.21566363013783596 -0.05366606404238249 0.11581307749669403 0.1450391479495306 0.057462690624124756 0.12093606663544516 0.14173302742624505 -0.09747013004685941 -0.07782759712594225 -0.05799307293677129 -0.17764085264822227 0.16437466271907747 0.12075301438062444 -0.14466672176196096 0.1336333378483324 -0.07489957434737211 0.0639866800490751 0.0036542338839708885 -0.025050223429654093 0.056984006951900534 0.18094041657345833 -0.013949473194363848 -0.1844977070207714 0.13333613920647314 0.19231160597886293 0.11639908568504481 -0.164356197825928 -0.025914775348216013 0.1006405214670438 0.1370792107049431 0.13814580152635766 0.17876270836261157 0.06663393159335798 -0.14702399964118762 -0.029672706040213756 0.1960871201144433 -0.14715615434286047 0.18098858540273266 -0.04517478798466041 0.036305600088616274 0.12142556885541118 -0.15603371602622262 -0.15923467533359945 0.002789068630618763 0.17260757694505854 0.19254412955761016 0.049595683044782596 -0.09716874095081193 0.10200091560429331 -0.05698385734664187 -0.07639658537563117 0.0249674690131663 -0.039984646543482515 0.003533485390682155 0.19287216767716456 -0.1800538146827022 0.1452614796312538 -0.043035497743479464 0.1441005505477683 0.14273366011770214 0.09252250411689802 -0.0010710505156263962 0.003301031928318059 0.03207660664847029 -0.05019346588011624 0.0889081831729768 0.15262153540809686 -0.06502760855733458 0.16991923365654596 0.02606691387268598 -0.08437115228460645 -0.13268395182677561 0.1015993191137561 -0.08120036133484465 0.12104910444425782 0.17168104929611006 -0.05637762700371683 -0.05932970894727035 -0.09123014178719761 -0.0854898245603771 0.20399187995091328 0.11724226295436875 0.1518198875547796 -0.1910087349700746 0.2043824152005735 0.12203232872275685 0.12760338209514263 0.12271838329623275 -0.0562360070062263 -0.16498626548193726 0.0014063158483606424 0.07208003501495533 -0.15590217925181746 0.0792135482963445 0.21791203857993754 0.04409855431839404 0.12456153749596088 0.10565825433442173 0.15043072499423862 -0.18048375176470385 0.0315177100610497 0.06199443134559932 0.10407535230030462 0.01283182708628925 -0.055573260927703566 0.0236158467017748 0.014220233225352884 -0.14486591827984588 -0.188969774986736 -0.16087634580239926 0.06349513571639069 0.06596246887763058 -0.0004505435793640639 0.03595349470274863 0.17771547713007368 -0.14742539317022377 -0.019596715022586163 0.010897732973561275 0.1687370277125202 0.19548290429105508 0.052657804474662645 0.08676355690566072 0.1567133101340738 0.07889509915985432 0.03229664018282044 -0.25847664656262137 -0.11012995638439613 -0.17184853744994036 0.12784602913336526 0.10802865909169543 -0.13194934972816308 -0.11339171861629722 0.07208692478373414 -0.03458697221453 0.11425246482771914 0.1279761347360876 0.09253581312783721 0.15844603052336736 -0.14801060703346905 -0.13989619622264454 -0.04855015999823731 -0.007478780876231268 0.10220793185187331 -0.10218331137621178 0.05308802730499551 -0.018212817775269643 0.08604892316436116 -0.2018695776114388 -0.14872168306004932 -0.14690730738947244 -0.06016764528144427 0.06329396380390082 0.10026791504047626 0.04360934908366078 -0.1325840046014798 0.16229258488857615 -0.06402683781473187 0.12061013857176618 -0.11438165361609086 -0.08414676792659104 0.09159126298549082 0.07577706434231346 0.016475139470603115 0.17023593299208142 0.07771223848691448 0.0722895591560801 0.05629791662252064 -0.0003187959451293286 0.031013570804145157 0.05287543677026519 0.1374990753841907 -0.13812712162085314 -0.05697670658437006 -0.058490008675193696 -0.1193566329899003 -0.20338771361652946 -0.14587192780945596 0.10878587709429577 0.0032200058881073543 -0.1561889553139116 -0.14718487187497176 0.016244051891594908 -0.031723537123376694 -0.22402174601653263 -0.1725508153307533 0.04319951645099989 0.09507688547172426 0.18811786035953504 0.2430673993318256 -0.07620484060073265 0.0893228541160832 0.08769770245598829 -0.0032049465631851736 -0.12604157696701143 0.05207112976002419 -0.044425534428735355 0.07261720926099008 0.06877960852734137 0.18905840259956708 0.03916137073818905 0.04189255763690381 -0.07080327188719845 -0.04871617894886506 -0.160123383369372 0.12879257394318186 0.024449801245816433 -0.18080957534205158 -0.12168435090045172 -0.018648140718687877 -0.12238584044349216 0.007802030707815411 0.03317874534469073 -0.06220286486179434 0.12814023819018402 -0.03801167973959898 -0.1782048959253824 0.044468174207742975 -0.05855385609436129 -0.11106886158459027 -0.03688109959992391 -0.06337295596757885 -0.03148779109199196 0.10615023328887704 0.05342004609214295 0.15151645520311405 0.08102311253306917 0.04479202943074064 -0.15601472725974172 0.1318156830975204 0.1041658633104366 -0.09022660863348615 -0.0467896756512157 0.00833014582654831 0.2837613250222716 0.12379030647308416 0.023086189913694447 -0.08971452886031954 0.029051191006664076 -0.08056572403812459 0.11484231414074249 -0.12958498306333635 -0.00985779057687458 -0.04124866165318944 -0.1426689719011136 -0.13952004410775826 0.13635916264361334 0.24073705937871648 -0.1876642074853786 -0.07217594208212112 -0.24190403727539464 0.08756960825108576 -0.14850168033826117 0.127349156345025 -0.05748544140630028 -0.21051272271792204 -0.08368647765629623 0.16562533902497797 -0.03311193364996326 -0.0244487256486337 0.07297781171699251 -0.13536389840923757 0.0994891652619768 -0.12615391326659944 0.20935840268969513 0.06008236806214994 -0.08246484783384908 0.013419179178653812 0.004981690696346559 0.05329507525715821 0.15131492824786136 0.012078965188238257 0.09420724824533996 -0.037236461158051716 0.08276850387590277 -0.0634098036866874 -0.0980779099052458 -0.08305803884835589 0.14484473000154574 -0.12276120938343611 0.1456191693805327 -0.015763059269674765 -0.017031997157841827 -0.09302289127324707 -0.2593414290739822 -0.006408069855416793 -0.14539979950541995 0.08235490633379351 0.010182899839695397 -0.11667725151756436 -0.18563592484632718 -0.19248497772933332 0.025000986603293116 -0.31868516469120234 -0.12675307114456066 -0.10722701211524219 -0.2470370862843099 0.04584510263094514 -0.0931759736490351 -0.05256042035198964 0.1230026947241099 0.10759333475312757 0.191538284876364 0.09850756053310149 0.07746510131792006 0.10938140664869302 -0.05420590336379805 -0.0705541323037857 0.05801539689241153 0.010912271321814982 -0.01254323458539051 -0.03074416086185182 -0.049004697028432624 0.07755515080644508 -0.0023553178878712167 -0.22902479638721013 -0.07333828084417164 -0.08182062640172931 -0.04476633249603525 -0.0031824712824327765 0.0966964809870684 0.14154337118713572 0.22355722390097543 -0.11229107960580223 -0.0731882052051732 -0.183861470831777 -0.27142095653828435 -0.17822662638015016 -0.05922352489528083 -0.11894150258326802 0.20974935246708873 0.07042329987071005 0.29431163770587015 -0.026829539078339192 0.19990474982159578 0.023294470429398206 0.16308130237948318 0.3488340584082381 0.025214669957382623 0.18530477257194153 -0.22289510984679134 -0.12775551728182388 0.1488023507470765 -0.07879998971273806 -0.005042346875933094 -0.14026938606543105 -0.12077317901118868 0.10889573978210841 0.09027443843782622 0.07810092792979281 0.22720715565201136 0.09879059884892581 0.022460050647312903 -0.055652603500216585 0.17268837169563847 -0.1204619973068597 0.19296242385605578 0.19711334471648134 -0.1902970816244345 -0.07081154171499014 -0.15058375494528334 -0.044066923762228864 -0.14997511994659596 -0.29581532421361684 0.09411026235151729 -0.1084194191707928 0.27438377754728915 0.04776930532811915 -0.042334605137352335 0.23450318814414364 -0.02803263811218989 -0.10750932078381852 0.15922601880393616 -0.20804564460166752 0.2419522231055002 -0.21367377172099794 -0.1169210249705409 -0.12665192539656261 0.14161626826261442 0.04393511447258707 -0.010405723903800753 -0.07277220150602826 -0.19890081106456448 0.0072686856432448285 -0.2396203961632402 0.025215621317344703 0.10682446329134193 0.06227539711544534 -0.07299676363550095 0.05856208845244866 0.05055274167627233 -0.18804759324185782 -0.012429904951133728 0.046178824563129835 -0.05277766335132103 -0.13344051626147072 0.16203194995555353 -0.201586673801253 0.1482983269556134 -0.13114965092462053 0.20253848055839396 0.16385525719910005 -0.1590275997928318 0.11234887189324055 0.07066738446761886 0.14018238243074968 0.0035547694412534406 -0.06912797207942344 0.11143388981358139 0.09099144953210288 0.017754023847629787 0.1930598808328758 0.10835137245616425 0.0035195940729778365 0.16535016367852126 0.006133836452376757 0.1339558586705383 -0.1771767311301485 -0.1494662497553657 -0.11665918555622325 -0.10974592447715317 -0.14680849431649493 -0.18873657603997065 0.020837527825953196 0.030519943431905953 0.09429844364709898 0.048032333822866216 -0.02128809072841307 -0.02473674809904259 -0.19838617936436553 0.04225169899866927 0.056519172517635045 0.052559218520546694 0.18167992013192386 0.07944329678907185 -0.1174631705936551 0.04494521491023494 0.02030525788449917 0.07071506758455502 0.03849588223921482 0.10571408528544099 -0.022263175830423164 0.03180936574012697 0.1673503187014687 -0.08808733602622267 0.06942794327619427 0.09012991246553365 0.12674590671889838 0.03309685454319452 0.18482474673713184 0.18072195827587956 0.006879744334343232 -0.014402208223683969 -0.15359896272918805 0.03485141821737883 -0.07460419490347779 0.07421498566299439 0.0870365560031216 0.1444713545523197 0.09580898696274862 0.12442005633254434 0.13767687835185047 0.19299490837835478 -0.07324256734148264 0.03881195328967191 0.023017590891859636 0.027966324259313894 0.06740804512698766 0.17833283101626882 -0.1883403181966018 -0.07918200743791035 -0.02026122282063916 0.0013950322707089768 0.1588212045776254 -0.0035125575146842864 -0.10054774763618858 0.14232279935559758 0.0021249469802629424 0.11547724654184109 -0.09064991601984612 0.1745347078396507 -0.03858396953660607 -0.02017645998382391 -0.008695237633814006 -0.06938435019964972 0.07526310121874741 0.026920489882156208 0.054604420154266774 0.05635881209331407 -0.08261886419671927 -0.06452243153550949 -0.14285516406052898 -0.08281499054986872 -0.08538110606310971 -0.0756427851171056 0.050462233056967724 0.09705932831118262 0.10722691837221394 -0.12659698149311377 -0.11282562580573141 0.21129466858628196 -0.010250898829106994 -0.017819765495575294 -0.17522573018970647 0.06483007804791863 -0.14555984979123923 -0.1740534514073958 -0.11563881684325089 0.15277110076496747 -0.07298951369625242 -0.16730325359188455 0.03753317870444694 -0.11162716896356349 -0.06850776078525521 -0.022191372510035688 0.0214170057456049 -0.1054720897665359 0.12775541970360235 0.099119738844552 0.05392269859169362 -0.18003466403443794 0.10945574292392272 0.13409180399744194 0.11737501408967775 0.11256521216818449 -0.13918681262372956 0.16231253519574224 -0.07184861860702224 -0.08322528274491446 -0.1863596135247405 -0.09985019290622006 -0.028187586119580162 -0.09116083017009248 0.11234822221305547 -0.1571757884411977 -0.023449358713332494 -0.03738428266160963 0.15214967263112447 0.12913901617448123 -0.0914139249858097 0.09201863055163133 -0.019760086641853133 -0.07238683170855634 0.09934759874224132 -0.025454186397883063 0.04163691635309041 0.110760389295655 0.03566606986329203 -0.10326536152215059 -0.1648974607348167 -0.18599295807765792 -0.031913057365529 0.06681748473351576 0.1267798714342074 -0.09717595601406809 -0.19467594522033294 0.014763318160296628 -0.05148652657748625 -0.062033870458025386 -0.1812351991615043 0.014973495235929068 -0.021715572413476922 0.05202161639389371 0.0366346720300637 -0.028873556622245583 -0.15504035834234586 0.17071269131783864 -0.08974333901159541 0.09030876749889362 0.010647955385033202 -0.19796628476798322 0.06290491617238494 0.19239629087446292 -0.14506006603550275 0.07906421004208566 0.018282171163998762 0.048272813101553715 -0.04040607345329536 -0.013885697522238458 -0.15677528464385948 -0.019486217667346484 0.09095992221483197 0.11676151900728708 0.0840723076197634 0.056501199578877837 -0.1818638728190181 -0.24796454312022886 0.144270683092877 0.06335445187723165 0.12799417913966019 -0.14940809629984525 0.24582260517895677 -0.03585868503374784 -0.013068322251315578 -0.2719771907431473 0.14753917182173767 0.24161881962935924 0.20503449817784689 -0.2512121639064361 0.003271954382572276 0.0692907359524466 0.004205502708157008 -0.17984389111580237 -0.1895797059628141 0.036838090269569884 0.06193411170397466 -0.05267122439470398 0.19931494251533943 -0.19556777466746197 0.028148504629055625 0.007068170705631212 0.042919643293294764 0.09925523144469293 -0.03244350978486187 -0.13991150522978618 -0.1121420740385147 0.0005463322181765206 -0.09220154967374938 0.08389338849136345 -0.03235092600794906 -0.011850340338124779 -0.03948751595212776 0.12665213866203037 0.06304797072777782 0.07163451660638251 -0.027338657049437172 -0.04824312411396936 0.0403624353861501 -0.12307977524322793 -0.10245474406167537 -0.07221577387326879 0.008581362807212396 -0.11660552674406642 -0.11114784239622846 -0.08169593957842393 -0.09456360085226866 0.23517866073552848 -0.06935041406401418 -0.03168883107800407 -0.23765579842744625 0.14530606038717925 -0.07900768474857119 0.19854088382929777 0.10670222441761482 0.013202982319689154 -0.2160704629068085 -0.0981158632658972 0.018022768211339055 0.05125547598271272 -0.007823618092050177 0.028786019507374083 -0.03534207758813889 -0.1116144122047689 -0.05260567244747057 -0.07321570796155466 0.13018490166918412 0.08053018491402239 0.11060761791933532 0.1647406428616221 0.1767791798872866 -0.10255623730232344 0.09858548033946633 -0.046783381727808035 0.07626965172266933 0.1328326705505501 0.0019163880297371671 0.07201434869960138 0.22376599353416385 0.045718179804291596 -0.10934300098175233 -0.09842853361199673 -0.13784256851602197 -0.04911006831450283 -0.17854419294092602 0.13875024380759876 -0.14458227704258675 0.14425723688171585 -0.17066072778688965 0.07027075180313502 -0.1072107743623824 -0.07063821393851631 -0.14024870603754477 0.06899828734340292 0.08165072676821238 -0.12012809573437631 0.1166258811048747 0.012362164600907766 -0.09765848611818989 0.019409986174013672 -0.18158065011422153 0.06350021990123964 -0.0805072383424143 -0.07784903686711284 0.14530402227286363 0.025266390306850826 0.16374580431601787 -0.10445178767537887 -0.17424036100146834 0.13842551319501387 0.05218210368855978 -0.12752628522728937 -0.10551271928559551 0.18388912485921602 0.027138729638241828 -0.01911215537415874 0.08435843233625366 0.15146946861215627 -0.053688945201911864 0.11557459947999504 0.15546617103074387 0.1757213749582054 -0.013501316015154492 0.1499594848309648 0.11893641521567073 -0.016103589142065628 0.08788171045504482 -0.14954924602554093 0.08261449653520835 -0.05805956521051388 0.10248678363836863 -0.05487711504931579 0.11391700023861684 -0.07870411654035721 0.014722085122061484 -0.0326223977819515 0.19594134072816324 -0.10716013633874558 0.1269228242896719 0.1281297739193363 0.17710117541470446 0.10135583226120898 0.034158339101447006 0.1828972988003704 -0.19881685120059414 0.1909044651527566 0.08357616587168322 -0.11011274258794888 -0.09189945665601669 0.15394722773456462 -0.17774602548995425 -0.07382786253757392 -0.1407105862776563 -0.11386560868848179 -0.11365996281818455 -0.05985630089575314 0.12754195168906013 0.04840666219847219 -0.1326895879953299 -0.14018922374683182 0.18109168930437666 -0.08702085808033168 -0.07332911426678801 -0.1339843099234836 -0.10541801463123594 0.1821274549727162 -0.07917463952838302 -0.02250111989615733 -0.07056926983122677 0.009185418475764477 0.0010259208974827006 -0.10782935134454784 -0.17717646188880695 0.005791918036731547 -0.03056915847989841 -0.1486212055366336 -0.046682871065149366 -0.02754517107337604 0.0492612572637658 -0.07555557661964052 0.07384330654257094 0.11553411756147049 -0.1834494451012579 -0.018485030586123906 0.06326679818063118 0.010597616268424351 0.12413090387170192 0.16425571204720762 0.021027248973992548 0.14295195680766742 0.11361316796648928 -0.12569725666514125 -0.18925333057320104 -0.08505181243734827 -0.05677570779056498 -0.1983564571522747 0.11992277190057686 -0.005613754539133055 0.19745905473763617 0.14349897769669334 0.12926128774101883 -0.03121226224498544 0.17802569885252126 0.0688394045428518 -0.1567283797082031 0.024122601432459846 -0.10112336209926949 0.05729895927682458 -0.03740181254018482 -0.1837078836493179 0.1573914186645576 0.16919667487299866 0.05557718378642856 -0.12265862542981007 -0.037809995421214576 0.0775428489662115 -0.13914795998431756 -0.11860111458360735 -0.1784145937561838 0.17200446525578827 0.109879193319429 -0.13452581282390474 -0.11677999709483103 0.06612565546201808 0.1856458195235063 -0.11847140905500646 0.13009375638828263 -0.03976302728276774 0.12773875637425824 -0.19080502784752085 0.022484310035679855 -0.036077164436206406 0.10216415004458998 0.17364811540818456 -0.16481518651094093 0.09291513808511387 -0.052215222450034286 0.15575782805737606 0.1627777570288158 0.17956021087018142 0.01839173960073644 0.017193813420580593 -0.11817367064687401 -0.18340894852950568 0.1654028704245577 -0.14778259277754452 -0.027972976724769918 -0.16027070895306142 -0.1780079559688603 -0.0648361708363411 -0.161399791673903 -0.08442109823081556 0.1928716791494985 -0.10456083805690775 0.10782416526417558 0.10124727657705705 -0.183821773884637 -0.05106064698855375 -0.12805828866888172 -0.08762062195716636 -0.1522268017349078 -0.1440592835851535 0.08965257512248304 -0.17415697495387353 0.001576381140200897 0.022210064814492555 -0.04352534266150377 -0.08882284259759489 0.06195614526296205 -0.15501949811342353 -0.1305968942175823 -0.0636411836150979 -0.018572242695920397 -0.12264190656056607 0.05282634885323947 -0.08780543831588052 -0.009340062149236992 0.11584709704819515 0.05737251614851755 0.04836989753552704 0.12448289758724025 -0.037645114597739095 -0.022984861268857168 -0.04761222704298806 -0.1434930590153102 0.02963320409801828 0.00041827987557936647 0.1289073564113414 0.04142850424538329 -0.0525716393873925 0.14992847735213274 -0.08991558729860777 -0.08377629405519676 0.15361757497895978 0.1754261307045067 -0.11714435673337203 -0.10665575506784293 0.03307364569789429 -0.19055787483062095 0.1263038915451857 -0.027691529089608348 0.08885428292906973 -0.18891561138710972 0.11567782048634506 0.022689061212815713 -0.19232668472589348 -0.18266824413285992 -0.03894011040151579 0.05226452585970117 -0.01651923809739232 0.05670910690822547 0.16113686429233148 -0.047890751199498524 -0.03590092410275231 0.11996771181955847 -0.1821219277970256 -0.06582960742943732 -0.17701995927128455 0.06290217785598884 0.0703588925911477 0.06790982536179573 0.04868853088396591 0.10098378315530197 -0.19351832229089122 0.05274019805771511 0.05113961608228204 0.13086554076470927 0.10013812308027378 -0.18501279186254582 0.034685739576384385 -0.0349808030046275 -0.0877732109554579 -0.15666971312654843 -0.1482960379243396 -0.13677752941991056 -0.10297252683194276 -0.009985910569842266 0.04212237480459232 -0.09405739277057645 -0.11888952079634328 0.009884075791057288 -0.0035979465696112834 -0.17150012137960627 -0.11248540244361568 -0.04160281629201174 0.17461575048736785 -0.01920293367406978 -0.1007669421555974 0.15147799962100542 0.19753689382828293 -0.1407517628153064 0.14776545508295916 -0.003971397969441846 -0.09820091704702483 0.12715247929935378 0.020699490275992077 0.01915769454146775 0.07834925291649668 -0.04012572416261315 0.0770297617250033 0.09492111404283825 0.12663010346222078 -0.18416242590100473 -0.07694814402913272 0.030127342616245067 0.06575446199234213 0.035978965155386934 0.12097694449372583 -0.06897615598346278 0.053472901864751086 0.01290882317449061 0.13850249646291246 -0.08018579509782574 0.016249454978830218 -0.10798384712407746 0.17261464709884553 0.18631875944475887 -0.07933213241659899 0.1467906078090627 -0.0255774184635706 -0.08621286460051411 -0.045981780486664146 0.0977266414641095 0.19221751681625787 0.12870440829868987 0.13966377585235862 -0.07702497866925316 -0.122108095674521 -0.10002060668409352 0.17350369132048546 -0.13420481479553142 -0.11154832452893054 0.11785872064001937 0.14952330437072092 -0.10158955354477138 0.011061009868067156 -0.08239951649996671 0.14852849932506715 0.022165108491055272 -0.027836254753868774 0.09386930502717572 0.15935509435050013 0.04589704436893404 0.1322405195998159 0.12196760773906024 -0.11559622168007164 -0.0638848737990015 -0.12099556727616181 0.05811983749734439 0.10983995562181524 -0.029757460342663793 -0.08801522050671971 -0.01563142656223594 0.09845055065400315 -0.18614349706718034 0.15933847812718885 0.05776200455326491 0.0373045534541427 -0.18787152727059772 -0.17194969442418243 -0.11336986339192036 0.041234193423741704 0.02025529516587838 -0.12555172185539015 0.13594404862662554 -0.04828721860420573 -0.12893730110757362 -0.10709486647366212 0.11602924595117767 -0.0016141543017440059 0.06348905282187717 -0.06744284217562178 0.036783084743316034 -0.1035149319005865 -0.1831914176377131 0.0676191318022257 0.01251804499475524 -0.08529664393619003 -0.01103705445282558 -0.049878085787515354 0.1458729960403627 0.18059342178849935 0.045053149164049656 -0.17027699344420894 0.07400596604930024 -0.18769967872821441 -0.03694765039725952 -0.14679226191804604 0.14311141139019878 -0.17210981000121267 0.07311885024166437 -0.029695015776929706 -0.013031041549491005 -0.09262165342571715 -0.061891866268283906 -0.024974836116851532 -0.008619519667647563 -0.012068582128208737 0.13486785176959626 0.06764831313492492 0.13095163642550173 -0.025773550133144706 0.02599323721546316 0.04579237612540759 0.07679323916614288 0.10461947317096074 0.0031715017259048715 -0.03474205668791469 -0.10436983727287577 0.0874994618589808 -0.16486331322863665 0.1857163700014965 0.202853867641323 0.1538553135571121 0.1230032353844097 0.18914096197848465 0.02452928802379055 0.12444612116093655 -0.12193168316232542 0.006513811337263069 -0.21444595112246478 -0.054075018349984454 0.0005163597164839631 -0.13039410365659607 0.11245416637955352 -0.13217017382227217 -0.12735453189967746 0.08052625464699702 0.16594793002593333 0.1456798716360003 0.15634169782639376 -0.13261342195181322 0.02206967959638986 1.695836802386073e-05 -0.1846898454135327 -0.1261812007116535 0.028930579926844974 0.14353772303049916 0.1020028751181491 0.12489456313176589 -0.018075541222654257 0.18146582163830255 0.04455133462595762 -0.08839205049099022 -0.06759604813403036 -0.05023486322270215 -0.1477105943360375 0.0572848064928409 0.014686647396201818 0.12942750970400319 -0.16104761067855528 -0.13858345697985208 -0.06481644089565869 -0.11323408919861402 -0.09954725288026062 -0.059186531226237266 -0.05842503233576474 0.0030561503009292057 0.09587616625688511 0.007886844290185602 0.1564896134483995 -0.1747346402956568 0.06251628822242677 0.06451148090939529 0.17284593913289836 0.03028784938476048 0.0842887980357413 -0.016219407945141373 -0.17036331073291344 -0.1601281233966071 -0.017743349563490274 0.05098871632401242 -0.04724810500490273 -0.12615482089395436 0.14714537728241128 0.18322909186475383 -0.06231687240083225 -0.0886321476617777 -0.1435551611074861 0.1895313460666983 0.02665443254559413 0.018430557606063852 -0.07457094218162236 0.12022454022005014 -0.12459607851422386 0.06638193963743233 0.0680176456545688 0.17433864785455716 0.13333366876845493 -0.02220248956157672 0.08935514577995762 0.0028149765978974506 -0.1454206628983438 0.015947502952997572 0.0877490675353364 0.17092363024874296 0.022328758853733532 -0.09392282350313907 0.005382807154810931 0.07804488757412803 -0.08620447998023328 -0.14743520904544247 -0.12283364348230955 -0.07981398453532554 -0.11719185278362604 -0.08224978744026307 -0.18313391975103324 -0.025464750675919662 0.07654192729772064 -0.19586466642385536 -0.13339493967300398 -0.1586993653564869 -0.03238446047746818 0.1497596942351278 -0.09248190292964514 -0.039368666707252975 -0.05834081600485619 -0.13792602204123763 -0.16349525354035307 -0.11400630574087889 -0.183217695438647 -0.042655715719562226 0.1039001088610122 -0.08861485323487002 0.19567299245381026 0.0016384444095516315 0.10255013178732758 0.027197842556241636 0.027098390568787212 0.11263460961345484 0.11377708091420041 -0.1178646794528552 -0.13572549561023983 -0.1263326452637411 -0.10738790618278299 -0.16864727438962937 -0.05048608066629782 -0.06972015087148371 -0.016235730177553004 0.28902812753154317 0.5806746493928693 -0.09654433727199517 0.2329701353599776 0.12970057318421127 0.08289144592156454 0.02868582874461226 0.37367225878835914 -0.5197783537417353 -0.02117625809333502 -0.03962849534164776 -0.13600835733279457 -0.24043959801876016 0.10593627137513015 0.17114349098490886 0.4272989838524583 0.9794640559409887 0.20822969344926748 -0.08053642432225654 -0.20410426830582787 0.7165039561946915 0.621111772027276 -0.3959758376894397 0.73664184685167 -0.5156337738498992 -0.012936466281656485 0.3610385172556627 -0.42208425863461924 0.10075425227573598 0.2391648447651135 0.3741081790148278 0.4504343719224354 0.6505028148244826 0.48197727540021296 -0.38376662073407064 -0.48619391625591385 0.33152536496819524 0.2926493479922091 0.29625453369675164 -0.17111067820840645 0.08259773249457758 0.13365865889171855 -0.2353080482272051 -0.43619230502029416 -0.33070935016077596 1.0483991761291507 -0.5313688853335403 -0.18861583768020632 -0.4671228281210569 0.17581571512522662 0.1925343448283868 0.03009205189050541 -0.565954479697324 0.13906385230973817 -0.1825859093088054 -0.5818649600210523 -0.23500069234020862 0.7279672621984628 -0.720724692678885 0.7100943822522238 0.11073866282901042 0.11459748201015334 -0.570360161898757 -0.05771942220245914 0.010298820803751727 -0.1911524454085212 0.38416895803817147 0.4721317974561185 -0.48039571789636704 0.26820530434915746 0.364305727340149 -0.37371413569225403 0.33271700449951974 0.014413191363922093 -0.37307142134865806 0.1794733658196915 -0.29957962990698017 -0.3314538948563757 0.4048603598142018 -0.3509150791352368 -0.13648415635365196 -0.3642632737760253 -0.07081172152045868 0.7895946082435626 -0.08322796216400682 0.6182808573695564 0.7560862014515678 0.31651101105955914 0.07743040926643506 -0.20794031209995437 -0.06989382144794437 0.05970396845839128 -0.3850651013425466 0.2591132314055183 0.4493979793460834 -0.5494036449824484 0.571947797561342 -0.3244554110232467 0.010269261578586602 -0.012835122253166622 0.06463051024504265 -0.07204611607483942 -0.08196327981766958 -0.1710662424003361 -0.10350498697526363 0.2134161740389613 0.010089678033738234 -0.12497770847131129 0.0598218211477127 0.2738398187621337 0.06023591388947859 -0.16037346105311062 0.08150189122691429 -0.02903635810399883 0.1175570531379112 -0.13397667555172374 -0.03772197900378636 -0.12629866019668654 -0.2018671045464384 -0.2928831678109188 0.0761943415068004 0.27764649675483327 -0.025745443753802822 -0.2699929551089449 -0.13989595810987804 0.04268007006192589 0.048666907827823784 -0.20091361326703996 -0.009786833313509843 -0.009359460688630673 0.13337549851146613 0.10919777893438504 0.11486313885847223 -0.06160194383565605 0.09924377883676343 0.054277510542370754 -0.07221920084292861 0.16082439499148898 -0.017999823008055985 -0.09303852679769128 -0.2722148048620155 -0.04644055025410715 0.12156594713098069 0.20427722314988334 0.0768583171420663 0.0849580946330138 -0.039315209174410705 0.1323906687889713 -0.1985619101237749 0.10432166189181 -0.007548245943201592 -0.10250612678159175 0.2722988401938783 -0.126123623483351 -0.15952183758455404 0.07834012888858376 -0.14518861561489338 0.050355383899367286 -0.08539020170398996 0.1674371451277653 -0.13178508295104527 -0.22268338538172514 -0.07864834086573726 0.2500646149156876 -0.17132722478193213 -0.021950322282071322 0.13274834358798637 -0.04735059144809854 -0.011023103149416076 -0.014160821320806963 -0.1426916588750167 0.04249003224134634 -0.04991915264858829 -0.24312414547450678 0.012646191454086032 -0.13375801680085395 0.32712767550007926 0.08061144260671473 -0.15105281387900682 -0.09850450759938055 -0.1940420021136291 -0.03922933366592274 0.079719278583334 0.1027939948079908 -0.04413705135404249 0.17413654063338743 0.021598940227013516 -0.029752593501145685 0.013888773028676232 0.0725636953878754 -0.00878462653212061 -0.08100755618506655 -0.14405280949640237 -0.04831736180776764 -0.050989081973828086 -0.2998614352907582 -0.18207478868429908 -0.22003220314335883 -0.020705293976747346 -0.07306411326317702 0.22594699126750495 0.15341910931251582 -0.00661718978084464 -0.2891093154026759 -0.2986608249049056 0.052543097744452066 -0.13829129108694338 0.15675178272225587 0.008221548980427356 0.297186068153625 0.14578307437047056 0.08729842700204414 0.000668623894946944 0.19825958783405367 0.03861454484914282 0.16522908457093538 0.005625681051468832 0.06408323011596008 0.0771998110125915 -0.16649226337189532 0.07824449762561538 0.2728265890502183 0.13558813995059257 0.031236850518024606 -0.10383764162715245 -0.19906484806670233 -0.1237177266732409 0.052617385654943324 -0.13816625938680938 -0.10084967848507134 -0.044994721443039946 -0.045193221525740485 -0.0327830508791753 0.02976432171382891 0.038238998399122044 0.059387996106443845 -0.15919535748001395 0.09799539322644361 -0.050252910098079494 -0.14430941358957186 -0.2594313776993655 0.2916000201087998 0.19530325412752858 -0.10361345915467882 0.251452931062895 0.2449249590222538 0.2010716136884005 -0.15797973352122044 -0.13667334523709176 -0.13504749008133338 0.1904832997667386 -0.020010100340351798 0.16889906315257397 0.16919818831000777 -0.08118481896338148 -0.018990803646223662 -0.2362899943740506 -0.17940329895040016 -0.014782540968744984 0.043362195952470414 0.2850250259296637 -0.12308053816854025 -0.13661362847847197 0.4055832126371467 -0.03518500403955266 -0.041648714805632765 -0.0024764518956008922 -0.3355632303788302 0.25530567422621164 0.04441286400660392 -0.06056214452754578 -0.21300881471750577 -0.01256424327274576 -0.15761571258049653 -0.10084920497489003 -0.1977752819034721 0.08445202753947505 -0.02680291451248789 -0.12671653049369902 -0.10722171410464038 -0.10096213354448651 0.02207416901253376 0.11318367380117078 0.004743671072530556 0.06940744804913779 0.1085224438843927 -0.14350356937174072 -0.002407004625456786 -0.13513918874932704 0.03407065175045334 0.07772660422678933 -0.036423131402711 0.02450762260940778 -0.05768981618816952 -0.1027495376600372 -0.07909927289487732 -0.0039994003912283685 -0.057049548932392384 -0.03724713744566104 0.08861288017433461 -0.15546918056249426 -0.15186065600858015 -0.025504973009741187 0.08321153886166086 0.11466123265473803 0.0379092381572193 0.03989278133178117 0.18852783437343215 -0.14809630485665126 -0.1345968762521161 -0.015949954434372027 0.028159513294671968 -0.061554448896584735 -0.011607011858960509 0.1284736188121219 0.025392429854141016 0.02125398027485791 0.1845062348865025 0.03387506739934945 -0.07702893392727513 -0.15986436498837392 -0.06524001672160117 0.033013303579289194 -0.21835776869129064 0.023966356520136418 0.13753079073991828 -0.07219956778630787 0.11404466154541308 0.045848067685811136 0.07683363999920786 -0.05155486578262864 0.06569695158196179 0.055631573716039814 -0.19218664207732958 -0.1388196023481663 0.050200180919628246 0.04560455451367544 -0.16510347072012302 0.008427929275904763 0.02647091100290598 -0.08590090224028302 0.1639893482539072 0.2589920696856788 -0.19298107128294997 0.16591136582915902 0.09824625439136707 -0.0005064257918772295 -0.1058139983577645 0.05010109650404217 0.038051838240977506 0.21404754411783278 0.17399925245975625 0.14697160531151734 0.1406159446555413 0.08472303755665714 0.10666495045935212 -0.04169959760704687 0.04329121537751694 -0.03817622074868557 0.1976868576260409 0.15126607099880499 0.15545468761208137 -0.09642827081575128 -0.06299526173510997 0.030097147778538304 -0.04240446698429215 -0.03942152004406337 0.044190708233497335 0.11980872369309113 0.1712977300121478 0.09960778098983887 -0.00400156760704124 -0.09440127373750919 -0.0493448894984025 0.08739360178622582 -0.10463429476350103 0.1796744262802624 -0.03800125427996886 0.10868469385454897 0.09535644299491035 0.08976811245907584 